/*!
 * The following copyright notice may not be removed under any circumstances.
 * 
 * Copyright:
 * Converted by ALLTYPE
 */
Cufon.registerFont({"w":278,"face":{"font-family":"basker","font-weight":500,"font-stretch":"normal","units-per-em":"1000","panose-1":"0 0 0 0 0 0 0 0 0 0","ascent":"800","descent":"-200","x-height":"11","bbox":"-188.027 -874 965.633 275.532","underline-thickness":"50","underline-position":"-55","unicode-range":"U+0020-U+F002"},"glyphs":{" ":{"k":{"\u02c6":-10,"\u00f4":-513,"Z":-513,"H":-1026," ":-32}},"\u00a0":{},"!":{"d":"124,13v-30,0,-56,-25,-56,-55v0,-30,26,-56,56,-56v30,0,55,26,55,56v0,30,-25,55,-55,55xm181,-545v0,113,-34,207,-39,319r-36,0v-4,-113,-39,-204,-39,-319v0,-56,4,-131,56,-138v53,6,58,80,58,138","w":247},"\"":{"d":"75,-399r-25,-268r91,0r-26,268r-40,0xm239,-399r-25,-268r91,0r-26,268r-40,0","w":355},"#":{"d":"345,0r-43,0r47,-229r-146,0r-47,229r-43,0r47,-229r-116,0r7,-39r119,0r27,-144r-116,0r7,-39r119,0r44,-216r43,0r-44,216r145,0r45,-216r43,0r-44,216r109,0r-6,39r-113,0r-27,144r110,0r-7,39r-113,0xm386,-412r-146,0r-27,144r146,0","w":589},"$":{"d":"435,-535v5,34,-44,60,-61,30v-30,-53,-34,-126,-112,-133r0,252v80,47,189,76,189,201v0,95,-94,188,-189,185r0,108r-37,0r0,-108v-93,-3,-152,-52,-195,-109v-30,-39,23,-98,57,-61v43,47,55,126,138,135r0,-266v-51,-23,-102,-49,-141,-81v-28,-22,-42,-56,-42,-104v-1,-115,74,-180,183,-185r0,-101r37,0r0,100v84,15,159,50,173,137xm262,-36v84,0,167,-119,94,-188v-26,-25,-61,-41,-94,-59r0,247xm225,-639v-58,6,-122,40,-121,106v2,77,69,105,121,133r0,-239","w":467},"%":{"d":"415,5v-156,0,-154,-337,0,-337v84,0,115,84,115,169v0,85,-31,168,-115,168xm415,-316v-74,15,-67,142,-57,223v4,33,20,84,57,80v58,-5,62,-89,62,-151v0,-62,-5,-145,-62,-152xm105,0r-35,0r369,-667r35,0xm129,-664v128,0,141,216,73,302v-18,22,-44,36,-73,35v-84,-4,-115,-83,-115,-168v0,-85,31,-169,115,-169xm129,-648v-87,23,-71,204,-39,278v8,16,24,27,39,25v57,-7,62,-89,62,-151v0,-62,-5,-145,-62,-152","w":543},"&":{"d":"449,-316v2,-41,-38,-51,-76,-52r0,-27r207,0r0,26v-106,26,-110,154,-172,224v35,42,70,101,142,101v32,0,60,-24,75,-44r20,25v-22,39,-66,74,-123,74v-82,0,-124,-42,-165,-90v-45,48,-90,88,-178,90v-88,2,-173,-85,-174,-169v-1,-108,82,-168,153,-210v-25,-42,-59,-85,-60,-148v-3,-141,275,-154,275,-15v0,85,-76,116,-130,153r145,205v29,-37,59,-81,61,-143xm86,-205v0,97,97,189,200,142v20,-9,38,-22,53,-39r-57,-79r-107,-162v-42,35,-89,66,-89,138xm237,-594v-55,0,-92,60,-62,112v15,27,35,50,50,77v39,-23,86,-56,88,-114v1,-41,-35,-75,-76,-75","w":640},"'":{"d":"79,-399r-25,-268r94,0r-26,268r-43,0","w":202},"(":{"d":"213,275v-95,-146,-158,-356,-125,-595v18,-131,62,-252,125,-346r71,-1v-84,124,-140,278,-140,472v0,194,55,347,140,470r-71,0","w":295},")":{"d":"216,-195v0,195,-55,345,-134,470r-71,0v85,-123,140,-276,140,-470v0,-194,-55,-348,-140,-471r71,-1v79,126,134,275,134,472","w":295},"*":{"d":"234,-687v77,0,21,105,18,158v45,-13,66,-62,120,-62v23,0,38,22,38,46v0,63,-97,29,-147,50v26,39,92,48,98,102v5,39,-57,63,-79,24v-18,-32,-27,-76,-47,-106v-31,37,-22,127,-84,127v-36,0,-56,-49,-26,-77v26,-24,61,-42,82,-71v-47,-20,-150,19,-146,-57v2,-34,40,-49,71,-28v27,18,53,42,86,53v0,-45,-23,-74,-24,-118v-1,-25,18,-41,40,-41","w":467},"+":{"d":"224,-370r0,-194r51,0r0,194r205,0r0,50r-205,0r0,194r-51,0r0,-194r-204,0r0,-50r204,0","w":500},",":{"d":"101,-107v98,6,108,149,49,215v-27,31,-57,54,-94,65r0,-17v42,-30,100,-83,71,-156v-42,13,-82,-12,-82,-51v0,-29,27,-58,56,-56","w":237,"k":{" ":-300}},"-":{"d":"213,-192r-213,0r0,-49r213,0r0,49","w":213},".":{"d":"119,13v-30,0,-56,-25,-56,-55v0,-30,26,-56,56,-56v30,0,55,26,55,56v0,30,-25,55,-55,55","w":237},"\/":{"d":"-28,275r-49,0r333,-942r49,0","w":230},"0":{"d":"233,11v-250,0,-256,-435,-135,-607v61,-88,208,-86,270,0v96,132,102,406,1,539v-33,44,-77,68,-136,68xm156,-66v32,69,122,69,154,0v64,-135,62,-389,0,-524v-32,-69,-122,-69,-154,0v-63,135,-62,390,0,524","w":467},"1":{"d":"100,-27v69,0,94,-12,94,-83r0,-458r-83,0r0,-29v83,0,107,-38,162,-63v3,0,4,2,4,5r0,544v0,66,27,84,90,85r0,26r-267,0r0,-27","w":467},"2":{"d":"353,-73v49,2,54,-44,71,-76r23,-1r-38,150r-388,0r9,-41v90,-74,169,-151,238,-249v48,-68,73,-140,73,-217v1,-68,-52,-135,-123,-135v-68,0,-129,54,-127,123v1,48,25,82,60,97v-6,16,-24,25,-45,25v-48,0,-65,-51,-67,-100v-4,-100,88,-167,184,-167v108,0,207,78,202,189v-9,202,-187,303,-309,403","w":467},"3":{"d":"208,11v-89,0,-173,-36,-176,-125v-1,-42,34,-75,75,-74v-43,81,27,170,109,170v87,0,130,-76,130,-157v0,-77,-25,-155,-98,-155v-30,0,-40,28,-70,29v-18,0,-38,-16,-38,-34v0,-41,72,-28,112,-25v116,-36,105,-285,-36,-285v-44,0,-89,32,-88,79v1,32,14,53,30,72v-40,23,-93,-9,-90,-54v5,-81,82,-116,168,-116v86,0,179,70,177,163v-2,78,-49,137,-119,149v74,13,142,87,142,172v0,122,-113,191,-228,191","w":467},"4":{"d":"318,-654v3,-4,15,-12,15,1r0,454v60,4,80,-7,99,-49r25,-1r-25,86r-99,0r0,70v0,54,20,66,71,67r0,26r-226,0r0,-27v52,0,74,-12,74,-65r0,-71r-242,0xm252,-199r0,-307r-186,307r186,0","w":467},"5":{"d":"376,-588v-45,35,-134,15,-205,17r-21,193v25,-22,59,-34,103,-35v95,-4,176,88,176,182v0,136,-117,246,-251,242v-81,-3,-158,-38,-158,-121v0,-24,15,-51,42,-52v35,-1,37,31,42,60v8,48,17,91,77,89v109,-4,156,-107,156,-217v0,-79,-27,-156,-110,-154v-40,1,-74,27,-78,64v2,21,-41,35,-38,7r39,-341v71,7,147,9,224,9v22,0,36,-9,48,-21r26,-1v-20,30,-45,58,-72,79","w":467},"6":{"d":"389,-566v-52,-5,-46,-78,-101,-78v-119,0,-153,146,-165,266v30,-31,73,-46,128,-48v112,-4,188,107,188,213v0,115,-76,224,-199,224v-179,0,-235,-192,-204,-372v24,-143,109,-309,282,-303v50,2,102,13,105,62v0,18,-15,38,-34,36xm238,-14v96,0,117,-103,117,-200v0,-95,-25,-192,-119,-192v-89,0,-120,87,-120,177v0,103,22,215,122,215","w":467},"7":{"d":"89,-667v-1,22,18,27,37,28r303,-1r-243,600v-11,24,-22,51,-56,51v-51,0,-45,-54,-27,-86r275,-493r-204,0v-60,1,-97,38,-108,91r-28,-1r28,-189r23,0","w":467},"8":{"d":"35,-491v-2,-162,230,-218,351,-123v58,45,79,144,29,204v-19,22,-46,45,-73,54v66,25,118,90,120,176v3,121,-115,190,-229,191v-106,1,-214,-77,-214,-188v0,-80,60,-139,118,-165v-60,-26,-101,-70,-102,-149xm190,-325v-54,31,-90,68,-88,149v2,78,47,159,134,159v111,0,180,-146,114,-232v-35,-46,-103,-53,-160,-76xm289,-374v48,-19,75,-60,76,-122v0,-75,-48,-145,-127,-145v-96,0,-162,118,-105,195v31,42,103,51,156,72","w":467},"9":{"d":"23,-87v-3,-35,41,-65,63,-35v28,39,28,111,98,106v115,-8,154,-137,161,-258v-28,31,-68,48,-121,49v-113,2,-201,-95,-196,-211v4,-112,87,-231,206,-228v179,4,235,210,201,393v-25,132,-110,287,-271,282v-71,-3,-136,-30,-141,-98xm232,-245v152,0,140,-261,78,-360v-16,-27,-41,-40,-74,-40v-96,0,-120,104,-120,201v0,96,21,199,116,199","w":467},":":{"d":"119,13v-30,0,-56,-25,-56,-55v0,-30,26,-56,56,-56v30,0,55,26,55,56v0,30,-25,55,-55,55xm119,-426v47,0,72,62,39,96v-33,34,-95,8,-95,-40v0,-30,26,-56,56,-56","w":237},";":{"d":"101,-107v98,6,108,149,49,215v-27,31,-57,54,-94,65r0,-17v42,-30,100,-83,71,-156v-42,13,-82,-12,-82,-51v0,-29,27,-58,56,-56xm117,-425v47,0,72,61,39,95v-33,34,-95,8,-95,-40v0,-30,26,-55,56,-55","w":237},"<":{"d":"458,-575r-300,194r300,201r0,114r-416,-279r0,-7r416,-266r0,43","w":500},"=":{"d":"480,-297r0,48r-460,0r0,-48r460,0xm480,-440r0,48r-460,0r0,-48r460,0","w":500},">":{"d":"42,-109r300,-194r-300,-201r0,-114r416,280r0,6r-416,266r0,-43","w":500},"?":{"d":"180,13v-30,0,-56,-25,-56,-55v0,-30,26,-56,56,-56v30,0,55,26,55,56v0,30,-25,55,-55,55xm375,-509v0,96,-89,187,-179,133r0,150r-34,0r0,-204r19,0v13,16,24,35,51,35v52,0,65,-67,65,-122v0,-68,-22,-132,-91,-135v-58,-2,-45,63,-89,70v-17,3,-33,-13,-32,-30v4,-54,66,-68,122,-71v92,-4,168,83,168,174","w":412},"@":{"d":"387,-20v97,-2,165,-49,223,-96r31,10v-64,64,-153,117,-270,120v-172,5,-313,-161,-313,-329v0,-211,181,-366,387,-366v152,0,293,108,285,271v-6,119,-58,212,-143,257v-19,10,-40,15,-61,15v-47,-1,-66,-44,-67,-91v-28,41,-71,94,-135,94v-97,0,-109,-133,-77,-217v27,-72,86,-171,178,-171v42,0,71,26,89,53r8,-42v19,0,39,-2,56,-5r-70,286v-3,29,3,60,32,60v77,0,115,-81,138,-143v12,-32,16,-65,16,-100v0,-135,-117,-236,-249,-233v-211,5,-330,135,-343,339v-9,151,134,292,285,288xm358,-449v-42,59,-77,132,-71,226v2,27,21,62,53,57v111,-17,126,-159,156,-263v0,-33,-22,-66,-57,-66v-31,0,-59,15,-81,46","w":776},"A":{"d":"151,-97v-24,49,20,76,76,66r0,31r-230,0r0,-31v64,-1,88,-15,108,-65r240,-582r37,0r252,581v18,42,38,65,93,67r0,30r-275,0r0,-31v42,4,97,-2,78,-48r-61,-147r-266,0xm450,-268r-105,-259v-4,-11,-7,-21,-10,-32r-116,291r231,0","w":723},"B":{"d":"337,-667v90,2,178,50,178,148v0,106,-92,147,-178,158v104,6,214,63,214,180v0,111,-90,182,-197,181r-340,0r0,-31v64,-1,100,-5,100,-79r0,-446v1,-74,-34,-74,-100,-79r0,-32r323,0xm311,-35v94,3,127,-72,127,-159v0,-73,-23,-116,-69,-128v-46,-12,-98,-18,-155,-18r0,229v-1,65,37,74,97,76xm214,-373v109,-3,196,-6,192,-130v-3,-83,-26,-131,-112,-130r-80,-1r0,261","w":596},"C":{"d":"387,-682v89,2,159,29,217,68v10,-15,16,-33,22,-51r28,-1r9,241r-31,0v-31,-116,-95,-224,-241,-222v-161,2,-227,149,-227,307v0,160,77,323,260,309v101,-7,200,-81,230,-163r36,26v-46,108,-162,183,-305,186v-195,4,-336,-148,-336,-342v0,-191,142,-363,338,-358","w":698},"D":{"d":"113,-556v2,-75,-37,-72,-100,-80r0,-31r301,1v230,-4,364,128,370,339v6,195,-138,327,-332,327r-339,0r0,-31v64,-1,100,-5,100,-79r0,-446xm566,-329v3,-217,-120,-331,-353,-302r0,486v2,101,20,108,118,111v172,7,232,-138,235,-295","w":731},"E":{"d":"114,-556v1,-74,-34,-74,-100,-79r0,-32r492,0r18,163r-31,0v-18,-69,-47,-127,-134,-128r-145,-1r0,262v51,-1,109,5,132,-23v14,-16,23,-38,24,-69r31,-1r0,226v-9,-2,-25,3,-31,-2v-12,-62,-17,-95,-93,-95r-63,-1r0,214v-10,113,133,95,217,78v59,-12,106,-86,115,-161r29,-1r-13,206r-548,0r0,-31v64,-1,100,-5,100,-79r0,-446","w":584},"F":{"d":"285,-370v58,3,79,-38,80,-92r31,-1r0,227r-31,0v-1,-60,-20,-98,-85,-99r-69,-1r0,225v-1,77,32,76,100,81r0,30r-298,0r0,-31v64,-1,100,-5,100,-79r0,-446v1,-74,-34,-74,-100,-79r0,-32r489,0r18,162r-30,0v-23,-65,-46,-127,-134,-128r-145,-1r0,264r74,0","w":516},"G":{"d":"648,-48v-97,14,-165,63,-274,65v-184,3,-327,-145,-327,-328v0,-195,141,-377,343,-371v85,3,151,26,202,65v10,-14,16,-30,22,-48r28,-1r6,227r-34,0v-16,-107,-97,-212,-221,-212v-196,0,-244,200,-225,394v13,135,116,281,286,224v36,-12,94,-32,94,-71r0,-92v3,-61,-45,-62,-102,-63r0,-31r290,0r0,31v-52,-1,-89,13,-88,64r0,147","w":750},"H":{"d":"445,-31v68,-4,100,-6,100,-79r0,-221r-332,0r0,220v-1,77,32,76,100,81r0,30r-300,0r0,-31v64,-1,100,-5,100,-79r0,-446v1,-74,-34,-74,-100,-79r0,-32r300,0r0,31v-58,2,-100,12,-100,81r0,181r332,0r0,-182v0,-71,-34,-74,-100,-79r0,-32r300,0r0,31v-56,3,-100,11,-100,81r0,444v-2,78,34,77,100,81r0,30r-300,0r0,-31","w":758},"I":{"d":"214,-111v-1,77,32,76,100,81r0,30r-300,0r0,-31v64,-1,100,-5,100,-79r0,-446v1,-74,-34,-74,-100,-79r0,-32r300,0r0,31v-58,2,-100,12,-100,81r0,444","w":327},"J":{"d":"105,-556v2,-75,-38,-71,-100,-80r0,-31r300,0r0,31v-58,2,-100,12,-100,81r0,564v5,160,-88,260,-235,260v-74,0,-154,-18,-158,-90v-1,-27,26,-52,53,-52v35,0,57,42,40,76v0,31,29,33,60,33v106,4,140,-78,140,-175r0,-617","w":318},"K":{"d":"472,-581v23,-38,-24,-59,-64,-55r0,-31r262,0r0,30v-63,2,-100,24,-135,57r-181,166r255,334v23,33,59,49,109,50r0,30r-292,0r0,-31v0,0,81,5,67,-30r-212,-287r-68,62r0,175v-1,75,34,76,100,81r0,30r-300,0r0,-31v64,-1,100,-5,100,-79r0,-446v1,-74,-34,-74,-100,-79r0,-32r300,0r0,31v-56,3,-100,11,-100,81r0,215r245,-224v5,-5,10,-11,14,-17","w":696},"L":{"d":"213,-122v-10,113,133,95,217,78v59,-12,106,-86,115,-161r29,-1r-13,206r-548,0r0,-31v64,-1,100,-5,100,-79r0,-446v1,-74,-34,-74,-100,-79r0,-32r300,0r0,31v-58,2,-100,12,-100,81r0,433","w":571},"M":{"d":"666,-128r4,-442v1,-12,1,-23,2,-34r-29,84r-217,520r-31,0r-241,-591r0,440v3,83,11,115,99,121r0,30r-239,0r0,-31v80,0,100,-42,100,-126r0,-385v-1,-83,-23,-87,-100,-93r0,-32r208,0r188,451v10,29,19,59,28,88r221,-539r207,0r0,31v-56,3,-100,11,-100,81r1,466v-1,51,49,61,99,58r0,31r-300,0r0,-31v85,-5,99,-12,100,-97","w":879},"N":{"d":"113,-556v1,-74,-34,-74,-100,-79r0,-32r198,0r327,451r37,69r-1,-389v6,-86,-34,-84,-92,-99r0,-32r230,0r0,31v-70,3,-95,30,-96,101r0,541r-42,0r-390,-544v-11,-17,-21,-34,-31,-51r0,423v3,89,7,130,99,136r0,30r-239,0r0,-31v75,-2,100,-31,100,-107r0,-418","w":725},"O":{"d":"400,17v-197,0,-354,-151,-354,-349v0,-202,154,-350,354,-350v201,0,355,148,355,350v0,200,-156,349,-355,349xm400,-650v-181,0,-239,159,-239,328v0,154,66,304,239,304v88,0,149,-30,184,-92v40,-73,59,-145,55,-242v-7,-151,-66,-298,-239,-298","w":802},"P":{"d":"536,-489v0,122,-91,180,-226,173r-97,-1r0,206v-1,77,32,76,100,81r0,30r-300,0r0,-31v64,-1,100,-5,100,-79r0,-446v1,-74,-34,-74,-100,-79r0,-32v159,7,335,-17,451,35v48,21,72,68,72,143xm428,-493v0,-131,-88,-153,-215,-143r0,288r77,0v90,3,138,-58,138,-145","w":536},"Q":{"d":"402,15v-201,3,-355,-144,-355,-347v0,-202,161,-350,360,-350v199,0,353,148,350,347v-2,161,-96,281,-221,330r-216,85v186,-22,284,74,425,114v47,13,108,10,140,-14v21,-16,32,-48,51,-71v6,0,10,5,10,11v-13,124,-189,200,-308,127r-119,-73v-55,-33,-111,-76,-190,-77v-45,-1,-71,28,-104,38v-21,1,-29,-34,-8,-40v67,-20,128,-48,185,-80xm590,-116v95,-191,70,-534,-184,-534v-94,0,-158,32,-192,98v-35,69,-54,144,-51,232v5,154,62,303,237,303v95,0,158,-33,190,-99","w":801},"R":{"d":"543,-498v5,101,-93,168,-188,170v153,25,176,178,266,267v20,20,45,31,77,31r0,30r-152,0v-84,-72,-125,-196,-197,-281v-28,-33,-78,-34,-136,-34r0,204v-1,77,32,76,100,81r0,30r-300,0r0,-31v64,-1,100,-5,100,-79r0,-446v1,-74,-34,-74,-100,-79r0,-32v224,8,520,-51,530,169xm434,-494v3,-125,-94,-149,-221,-142r0,288r87,0v97,2,132,-52,134,-146","w":675},"S":{"d":"239,-682v62,1,113,18,149,49v9,-12,15,-26,22,-40r24,-1r0,181r-30,0v-15,-81,-65,-159,-163,-159v-55,0,-114,37,-111,94v4,96,105,119,173,158v79,45,173,87,173,210v0,114,-83,209,-200,207v-79,-2,-137,-32,-183,-72v-9,16,-16,37,-22,55r-31,0r0,-210r31,0v9,90,87,188,185,186v75,-1,148,-41,146,-122v-3,-103,-101,-131,-174,-171v-78,-43,-175,-78,-175,-195v0,-101,89,-171,186,-170","w":509},"T":{"d":"370,-111v-1,76,33,76,100,81r0,30r-298,0r0,-31v69,-4,100,-4,100,-79r0,-524r-112,0v-90,0,-110,62,-133,130r-30,-1r17,-162r614,0r17,162r-29,0v-25,-65,-44,-127,-134,-128r-112,-1r0,523","w":643},"U":{"d":"544,-549v0,-75,-33,-78,-100,-86r0,-31r241,0v-3,10,7,30,-6,31v-58,2,-95,18,-95,87r0,321v-3,147,-45,248,-205,244v-193,-5,-265,-37,-266,-239r0,-333v1,-75,-32,-75,-100,-80r0,-31r300,0r0,30v-61,3,-100,6,-100,82r0,319v4,133,19,218,166,218v139,0,165,-90,165,-218r0,-314","w":698},"V":{"d":"572,-569v21,-41,-8,-73,-56,-66r-20,-1r0,-31r230,0r0,31v-62,8,-87,16,-108,68r-240,579r-36,0r-253,-580v-16,-36,-43,-66,-92,-66r-1,-32r275,0r0,31v-42,-1,-96,3,-77,50r181,438v5,13,9,27,13,40","w":723},"W":{"d":"265,-636v-46,-2,-85,10,-72,58r120,439r162,-528r31,0r151,438r24,90r23,-90r102,-346v15,-53,-34,-62,-86,-60r0,-32r229,0r0,31v-57,4,-89,14,-104,66r-171,581r-36,0r-176,-506r-156,506r-41,0r-177,-582v-11,-38,-45,-64,-91,-64r-1,-32r269,0r0,31","w":946},"X":{"d":"514,-592v17,-41,-34,-44,-75,-44r0,-31r246,0r0,31v-61,7,-101,14,-133,57r-150,201r195,290v25,39,58,54,113,58r0,30r-291,0r0,-31v36,4,94,-3,68,-41r-149,-223r-164,219v-20,38,34,48,74,46r0,30r-248,0r0,-31v59,3,108,-19,136,-56r181,-242r-174,-251v-27,-40,-55,-52,-114,-55r0,-32r288,0r0,31v-32,1,-84,1,-65,37v35,68,85,124,126,187","w":710},"Y":{"d":"513,-585v28,-48,-39,-51,-85,-50r0,-32r239,0r0,31v-59,5,-92,21,-118,65r-168,274r0,186v-1,74,35,76,100,81r0,30r-298,0r0,-31v69,-4,100,-4,100,-79r0,-187r-183,-285v-23,-37,-50,-50,-102,-53r-1,-32r286,0r0,31v-31,2,-71,-4,-73,26v0,11,4,21,9,29r143,245","w":663},"Z":{"d":"390,-38v103,2,132,-60,158,-140r32,0r-15,178r-555,0r0,-16r422,-613r-216,0v-87,1,-124,58,-144,128r-33,-1r19,-165r507,0r0,14r-422,615r247,0","w":590},"[":{"d":"264,-667r0,33r-95,0r0,876r95,0r0,33r-170,0r0,-942r170,0","w":275},"\\":{"d":"-26,-667r333,942r-49,0r-333,-942r49,0","w":230},"]":{"d":"181,275r-170,0r0,-33r95,0r0,-876r-95,0r0,-33r170,0r0,942","w":275},"^":{"d":"483,-284r-194,-300r-201,300r-114,0r279,-416r7,0r266,416r-43,0","w":500},"_":{"d":"480,89r0,49r-460,0r0,-49r460,0","w":500},"`":{"d":"162,-591v-10,-4,-6,-16,6,-16r123,-1r53,130v-2,12,-18,5,-24,2","w":500},"a":{"d":"206,-395v-86,0,-41,108,-126,98v-16,-2,-34,-14,-33,-32v6,-71,86,-97,161,-97v91,0,159,28,159,127r0,226v2,18,6,37,26,38v30,0,37,-28,43,-53r30,0v-14,48,-39,100,-100,99v-47,0,-76,-27,-82,-70v-33,35,-82,68,-146,69v-59,1,-98,-43,-98,-101v0,-141,147,-122,244,-165v0,-75,4,-139,-78,-139xm193,-46v38,0,68,-23,91,-41r0,-141v-59,30,-156,28,-161,109v-2,41,28,73,70,73","w":452},"b":{"d":"164,-367v30,-35,77,-58,138,-59v125,-2,199,98,199,218v0,121,-85,222,-209,219v-60,-1,-104,-21,-144,-46v-13,10,-24,26,-32,41r-35,-6r0,-556v-1,-48,-17,-79,-67,-79r0,-32r150,-27r0,327xm164,-105v24,41,62,77,122,77v91,0,125,-84,125,-172v0,-93,-24,-181,-120,-181v-59,1,-110,25,-127,72r0,204","w":541},"c":{"d":"267,-29v62,0,92,-34,115,-79r30,10v-23,67,-75,107,-156,109v-120,3,-216,-80,-216,-204v0,-124,79,-238,209,-232v64,3,137,22,143,81v4,37,-50,49,-74,25v-5,-46,-19,-73,-71,-72v-85,2,-114,84,-114,170v0,97,37,192,134,192","w":432},"d":{"d":"239,-426v61,0,110,28,138,59r0,-189v-1,-48,-17,-79,-67,-79r0,-32v52,-5,102,-15,150,-27r0,583v1,49,19,80,68,81r0,30r-121,5v-6,-12,-11,-25,-14,-40v-40,25,-84,45,-144,46v-124,2,-209,-98,-209,-219v0,-120,74,-218,199,-218xm255,-28v59,0,101,-35,122,-77r0,-205v-18,-46,-69,-71,-127,-71v-95,0,-120,88,-120,181v0,89,34,172,125,172","w":541},"e":{"d":"40,-202v0,-117,78,-224,201,-224v110,0,175,100,175,203r-285,0v1,101,24,197,128,197v65,0,98,-36,128,-76r29,15v-36,57,-87,97,-172,98v-123,3,-204,-93,-204,-213xm236,-389v-72,0,-101,66,-104,132r195,-2v3,-66,-18,-130,-91,-130","w":454},"f":{"d":"232,-642v-91,0,-60,135,-66,226r90,0r0,30r-90,0r0,275v0,69,24,77,87,82r0,29r-237,0r0,-31v53,1,67,-29,67,-79r0,-276r-70,0r0,-30r70,0v1,-138,16,-263,164,-260v47,1,91,22,92,69v0,21,-17,41,-39,41v-57,0,-19,-76,-68,-76","w":265},"g":{"d":"394,-379v-17,-1,-30,13,-38,18v13,24,22,50,22,86v2,83,-64,140,-142,144v-48,3,-119,3,-132,42v0,18,19,20,38,20v136,0,301,-15,301,136v0,186,-259,244,-388,139v-27,-22,-42,-50,-42,-85v0,-63,66,-114,134,-102v-28,25,-64,43,-64,94v2,143,292,139,294,-3v1,-55,-48,-75,-95,-80v-96,-9,-227,0,-227,-100v0,-47,48,-70,92,-75v-53,-16,-88,-61,-92,-126v-10,-147,199,-205,288,-104v22,-24,54,-53,97,-51v21,1,44,15,44,38v0,20,-13,39,-34,38v-26,-1,-30,-28,-56,-29xm214,-153v67,0,87,-65,85,-135v-2,-56,-18,-114,-81,-112v-67,1,-82,66,-82,132v0,58,18,115,78,115","w":471},"h":{"d":"441,-111v1,52,13,80,66,81r0,30r-216,0r0,-31v53,1,66,-29,66,-79v0,-111,36,-270,-86,-266v-47,1,-79,23,-107,46r0,219v1,52,14,80,67,81r0,30r-217,0r0,-31v53,1,67,-29,67,-79r0,-446v-1,-48,-17,-79,-67,-79r0,-32r150,-26r0,322v40,-27,85,-55,148,-55v87,-1,129,55,129,138r0,177","w":520},"i":{"d":"80,-283v-1,-49,-17,-79,-67,-80r0,-31r150,-27r0,310v1,52,14,80,67,81r0,30r-217,0r0,-31v53,1,67,-29,67,-79r0,-173xm123,-590v41,0,66,54,35,85v-31,30,-88,8,-88,-35v0,-28,26,-50,53,-50","w":243,"k":{"p":-116}},"j":{"d":"80,-283v-1,-49,-17,-79,-67,-80r0,-31v52,-5,102,-17,150,-27r0,516v0,98,-60,185,-163,180v-43,-2,-89,-16,-92,-57v-1,-18,17,-36,35,-35v39,3,38,52,78,52v55,0,60,-60,59,-116r0,-402xm125,-590v41,0,66,54,35,85v-30,30,-88,9,-88,-35v0,-28,26,-50,53,-50","w":228},"k":{"d":"295,-344v28,-21,1,-45,-29,-40r0,-31r174,0r0,30v-92,12,-135,78,-196,122r155,180v21,26,50,46,87,53r0,30r-191,0r0,-31v17,-1,39,5,40,-13r-150,-173r-22,19v3,77,-18,172,67,168r0,30r-217,0r0,-31v53,1,67,-29,67,-79r0,-446v-1,-48,-17,-79,-67,-79r0,-32r150,-26r0,453","w":486},"l":{"d":"163,-111v1,52,14,80,67,81r0,30r-217,0r0,-31v53,1,67,-29,67,-79r0,-446v-1,-48,-17,-79,-67,-79r0,-32r150,-26r0,582","w":243,"k":{"l":-101}},"m":{"d":"14,-394v49,-6,94,-14,137,-27v8,17,14,36,13,61v40,-35,86,-66,154,-66v50,0,98,26,112,66v38,-32,88,-63,153,-66v163,-9,127,167,131,315v1,52,14,80,67,81r0,30r-217,0r0,-31v54,1,67,-28,67,-79v0,-114,44,-277,-95,-265v-40,4,-74,26,-96,49r0,215v1,52,13,80,66,81r0,30r-216,0r0,-31v53,1,66,-29,66,-79v0,-110,37,-269,-86,-265v-47,1,-78,26,-106,49r0,215v1,52,14,80,67,81r0,30r-217,0r0,-31v53,1,67,-29,67,-79r0,-173v-1,-49,-17,-79,-67,-80r0,-31","w":794},"n":{"d":"13,-394v49,-6,94,-14,137,-27v8,17,14,36,13,61v40,-35,86,-63,154,-66v155,-6,118,172,122,315v1,52,13,80,66,81r0,30r-216,0r0,-31v53,1,66,-29,66,-79v0,-110,37,-269,-86,-265v-47,1,-78,26,-106,49r0,215v1,52,14,80,67,81r0,30r-217,0r0,-31v53,1,67,-29,67,-79r0,-173v-1,-49,-17,-79,-67,-80r0,-31","w":519},"o":{"d":"258,-426v135,0,213,88,213,221v0,127,-89,216,-216,216v-130,0,-215,-81,-215,-212v0,-132,83,-225,218,-225xm255,-17v147,0,148,-227,95,-333v-16,-31,-47,-46,-94,-46v-105,0,-126,98,-126,199v0,92,29,180,125,180","w":511},"p":{"d":"294,11v-55,-2,-98,-18,-131,-45r0,190v0,68,25,76,87,81r0,30r-237,0r0,-31v53,-1,67,-28,67,-80r0,-439v-1,-48,-17,-80,-67,-80r0,-31v49,-6,94,-14,137,-27v10,16,13,33,13,57v30,-33,79,-59,136,-61v118,-3,189,102,189,214v0,114,-73,226,-194,222xm163,-81v26,27,60,53,107,53v97,0,129,-92,129,-187v0,-87,-28,-169,-116,-170v-58,0,-96,45,-120,82r0,222","w":528},"q":{"d":"241,-425v52,2,90,19,120,44v30,-11,58,-24,83,-40r0,577v1,52,14,79,67,80r0,31r-237,0r0,-30v63,-5,87,-13,87,-81r0,-197v-31,31,-76,50,-132,52v-117,3,-189,-98,-189,-209v0,-116,79,-231,201,-227xm361,-326v-26,-28,-60,-56,-110,-56v-93,0,-122,94,-122,187v0,84,33,165,121,165v49,0,80,-25,111,-46r0,-250","w":524},"r":{"d":"163,-111v-1,67,18,70,73,82r0,29r-223,0r0,-31v53,1,67,-29,67,-79r0,-173v-1,-49,-17,-79,-67,-80r0,-31v49,-6,94,-14,137,-27v13,21,13,44,13,75v25,-32,65,-73,119,-73v32,0,62,21,59,57v-2,17,-17,36,-35,36v-32,0,-33,-37,-65,-38v-34,0,-65,27,-78,50r0,203","w":341},"s":{"d":"150,-426v46,0,76,22,100,48r19,-37r23,0r0,137r-23,0v-13,-53,-46,-109,-111,-112v-54,-2,-77,69,-36,100v66,50,189,61,191,175v1,76,-52,131,-132,126v-43,-3,-80,-20,-106,-44r-17,33r-24,0r0,-143r24,0v7,59,53,117,120,117v36,0,72,-24,71,-62v-3,-59,-64,-74,-106,-98v-47,-27,-106,-52,-106,-123v0,-69,43,-118,113,-117","w":346},"t":{"d":"13,-408v69,-11,95,-81,98,-157r34,-1r0,148r111,0r0,32r-111,0r0,258v1,40,10,82,49,82v35,0,52,-25,71,-43r20,16v-24,38,-64,76,-122,77v-79,2,-101,-59,-101,-131r0,-259r-49,0r0,-22","w":258},"u":{"d":"506,0r-137,5v-7,-17,-13,-36,-13,-59v-40,35,-86,65,-155,65v-74,0,-121,-46,-121,-135r0,-192v-1,-51,-14,-78,-67,-79r0,-32r150,0r0,290v1,61,24,99,87,98v48,0,78,-26,106,-49r0,-228v-1,-51,-14,-78,-67,-79r0,-32r150,0r0,316v1,50,16,80,67,81r0,30","w":519},"v":{"d":"363,-345v16,-28,-11,-39,-39,-40r0,-30r145,0r0,30v-26,3,-52,7,-61,28r-164,357r-26,0r-166,-358v-9,-20,-29,-25,-54,-26r-1,-31r189,0r0,30v-26,2,-48,11,-32,48r101,232","w":466},"w":{"d":"570,-346v17,-28,-13,-41,-41,-38r0,-31r141,0r0,30v-30,3,-53,14,-63,40r-138,345r-34,0r-106,-300r-115,300r-34,0r-126,-346v-9,-27,-31,-30,-57,-38r-1,-31r184,0r0,30v-15,8,-49,-2,-40,29r82,244r114,-303r34,0r107,303","w":668},"x":{"d":"220,-385v-17,1,-42,-1,-34,18r88,108r98,-105v8,-21,-20,-19,-44,-20r0,-31r163,0r0,30v-32,2,-58,6,-75,26r-119,129r131,169v18,25,39,30,77,31r0,30r-208,0r0,-31v21,-1,57,8,44,-19r-100,-122r-102,111v-14,13,-14,35,16,31r13,-1r0,31r-156,0r0,-31v35,1,60,-9,79,-29r129,-140r-135,-165v-17,-14,-32,-19,-61,-19r0,-31r196,0r0,30","w":514},"y":{"d":"16,213v123,7,151,-139,199,-225r-156,-334v-12,-23,-30,-36,-61,-38r-1,-31r192,0r0,30v-27,-1,-53,11,-39,40r108,233r112,-257v-2,-17,-29,-13,-46,-16r0,-30r146,0r0,30v-36,3,-55,12,-68,40r-240,525v-24,40,-49,96,-111,94v-29,-1,-55,-34,-35,-61","w":466},"z":{"d":"126,-386v-53,3,-56,58,-79,91r-27,-1r14,-121r336,0r0,31r-257,353v69,-6,158,19,193,-23v20,-24,35,-51,46,-83r26,0r-8,139r-357,0r0,-33r257,-353r-144,0","w":392},"{":{"d":"199,-217v0,-70,-36,-77,-95,-86r0,-16v57,-3,96,-17,95,-79v-2,-87,-7,-206,19,-262v11,-48,108,-56,183,-54r0,22v-113,-4,-129,59,-129,182v0,96,12,187,-82,198r0,3v112,16,76,154,80,276v3,101,30,129,131,131r0,23v-121,-5,-207,0,-205,-138","w":500},"|":{"d":"282,-666r0,833r-63,0r0,-833r63,0","w":500},"}":{"d":"301,-401v-1,66,36,77,95,83r0,15v-58,7,-96,16,-95,83r3,203v6,129,-80,139,-205,138r0,-23v86,-2,125,-21,129,-110v6,-119,-34,-283,82,-296r0,-5v-92,-8,-82,-114,-82,-217v0,-119,-7,-157,-129,-161r0,-24v140,10,211,1,204,168","w":500},"~":{"d":"354,-352v44,0,81,-26,102,-53r18,9v-28,44,-78,100,-146,100v-84,0,-155,-68,-234,-29v-19,9,-35,28,-50,43r-18,-11v33,-42,75,-99,145,-99v70,0,113,40,183,40","w":500},"\u00c4":{"d":"151,-97v-24,49,20,76,76,66r0,31r-230,0r0,-31v64,-1,88,-15,108,-65r240,-582r37,0r252,581v18,42,38,65,93,67r0,30r-275,0r0,-31v42,4,97,-2,78,-48r-61,-147r-266,0xm450,-268r-105,-259v-4,-11,-7,-21,-10,-32r-116,291r231,0xm271,-709v-33,0,-60,-28,-60,-61v0,-31,28,-59,60,-59v32,0,60,28,60,60v0,32,-28,60,-60,60xm454,-709v-32,0,-60,-28,-60,-61v0,-31,29,-59,60,-59v32,0,60,28,60,60v0,32,-28,60,-60,60","w":723},"\u00c5":{"d":"151,-97v-24,49,20,76,76,66r0,31r-230,0r0,-31v64,-1,88,-15,108,-65r240,-582r37,0r252,581v18,42,38,65,93,67r0,30r-275,0r0,-31v42,4,97,-2,78,-48r-61,-147r-266,0xm450,-268r-105,-259v-4,-11,-7,-21,-10,-32r-116,291r231,0xm362,-874v70,0,114,95,60,146v-53,50,-145,10,-145,-61v0,-45,41,-85,85,-85xm362,-835v-39,0,-60,51,-32,79v27,27,78,7,78,-33v0,-25,-21,-46,-46,-46","w":723},"\u00c7":{"d":"604,-615v9,-15,15,-33,22,-51r28,-1r9,242r-31,0v-31,-116,-95,-225,-241,-223v-162,1,-227,148,-227,308v0,156,76,313,247,308v111,-4,210,-77,243,-162r36,26v-43,102,-158,181,-290,185r-12,38v40,11,82,30,82,81v0,90,-131,109,-193,58r16,-22v17,10,35,18,59,19v30,1,57,-24,56,-54v-1,-36,-33,-47,-58,-59r20,-61v-188,3,-321,-156,-321,-341v0,-193,141,-363,338,-358v89,2,159,29,217,67","w":710},"\u00c9":{"d":"114,-556v1,-74,-34,-74,-100,-79r0,-32r492,0r18,163r-31,0v-18,-69,-47,-127,-134,-128r-145,-1r0,262v51,-1,109,5,132,-23v14,-16,23,-38,24,-69r31,-1r0,226v-9,-2,-25,3,-31,-2v-12,-62,-17,-95,-93,-95r-63,-1r0,214v-10,113,133,95,217,78v59,-12,106,-86,115,-161r29,-1r-13,206r-548,0r0,-31v64,-1,100,-5,100,-79r0,-446xm216,-708v-7,6,-22,1,-17,-10r52,-125r127,1v10,1,9,12,2,17","w":584},"\u00d1":{"d":"113,-556v1,-74,-34,-74,-100,-79r0,-32r198,0r327,451r37,69r-1,-389v6,-86,-34,-84,-92,-99r0,-32r230,0r0,31v-70,3,-95,30,-96,101r0,541r-42,0r-390,-544v-11,-17,-21,-34,-31,-51r0,423v3,89,7,130,99,136r0,30r-239,0r0,-31v75,-2,100,-31,100,-107r0,-418xm254,-800v70,-64,195,57,255,-23r17,12v-23,35,-54,82,-107,82v-54,0,-89,-27,-143,-27v-27,0,-44,20,-58,34r-19,-12v16,-25,33,-46,55,-66","w":725},"\u00d6":{"d":"400,17v-197,0,-354,-151,-354,-349v0,-202,154,-350,354,-350v201,0,355,148,355,350v0,200,-156,349,-355,349xm400,-650v-181,0,-239,159,-239,328v0,154,66,304,239,304v88,0,149,-30,184,-92v40,-73,59,-145,55,-242v-7,-151,-66,-298,-239,-298xm309,-709v-33,0,-60,-28,-60,-61v0,-31,28,-59,60,-59v32,0,60,28,60,60v0,32,-28,60,-60,60xm492,-709v-32,0,-60,-28,-60,-61v0,-31,29,-59,60,-59v32,0,60,28,60,60v0,32,-28,60,-60,60","w":802},"\u00dc":{"d":"544,-549v0,-75,-33,-78,-100,-86r0,-31r241,0v-3,10,7,30,-6,31v-58,2,-95,18,-95,87r0,321v-3,147,-45,248,-205,244v-193,-5,-265,-37,-266,-239r0,-333v1,-75,-32,-75,-100,-80r0,-31r300,0r0,30v-61,3,-100,6,-100,82r0,319v4,133,19,218,166,218v139,0,165,-90,165,-218r0,-314xm257,-709v-33,0,-60,-28,-60,-61v0,-31,28,-59,60,-59v32,0,60,28,60,60v0,32,-28,60,-60,60xm440,-709v-32,0,-60,-28,-60,-61v0,-31,29,-59,60,-59v32,0,60,28,60,60v0,32,-28,60,-60,60","w":698},"\u00e1":{"d":"206,-395v-86,0,-41,108,-126,98v-16,-2,-34,-14,-33,-32v6,-71,86,-97,161,-97v91,0,159,28,159,127r0,226v2,18,6,37,26,38v30,0,37,-28,43,-53r30,0v-14,48,-39,100,-100,99v-47,0,-76,-27,-82,-70v-33,35,-82,68,-146,69v-59,1,-98,-43,-98,-101v0,-141,147,-122,244,-165v0,-75,4,-139,-78,-139xm193,-46v38,0,68,-23,91,-41r0,-141v-59,30,-156,28,-161,109v-2,41,28,73,70,73xm150,-474v-7,6,-22,2,-17,-9r52,-125r127,1v10,1,9,12,2,17","w":452},"\u00e0":{"d":"206,-395v-86,0,-41,108,-126,98v-16,-2,-34,-14,-33,-32v6,-71,86,-97,161,-97v91,0,159,28,159,127r0,226v2,18,6,37,26,38v30,0,37,-28,43,-53r30,0v-14,48,-39,100,-100,99v-47,0,-76,-27,-82,-70v-33,35,-82,68,-146,69v-59,1,-98,-43,-98,-101v0,-141,147,-122,244,-165v0,-75,4,-139,-78,-139xm193,-46v38,0,68,-23,91,-41r0,-141v-59,30,-156,28,-161,109v-2,41,28,73,70,73xm138,-591v-10,-4,-6,-16,6,-16r123,-1r53,130v-2,12,-18,5,-24,2","w":452},"\u00e2":{"d":"206,-395v-86,0,-41,108,-126,98v-16,-2,-34,-14,-33,-32v6,-71,86,-97,161,-97v91,0,159,28,159,127r0,226v2,18,6,37,26,38v30,0,37,-28,43,-53r30,0v-14,48,-39,100,-100,99v-47,0,-76,-27,-82,-70v-33,35,-82,68,-146,69v-59,1,-98,-43,-98,-101v0,-141,147,-122,244,-165v0,-75,4,-139,-78,-139xm193,-46v38,0,68,-23,91,-41r0,-141v-59,30,-156,28,-161,109v-2,41,28,73,70,73xm354,-490v2,18,-22,23,-32,11r-96,-67v-38,22,-70,58,-111,73v-16,2,-22,-21,-9,-29r120,-120r121,119v2,5,7,7,7,13","w":452},"\u00e4":{"d":"206,-395v-86,0,-41,108,-126,98v-16,-2,-34,-14,-33,-32v6,-71,86,-97,161,-97v91,0,159,28,159,127r0,226v2,18,6,37,26,38v30,0,37,-28,43,-53r30,0v-14,48,-39,100,-100,99v-47,0,-76,-27,-82,-70v-33,35,-82,68,-146,69v-59,1,-98,-43,-98,-101v0,-141,147,-122,244,-165v0,-75,4,-139,-78,-139xm193,-46v38,0,68,-23,91,-41r0,-141v-59,30,-156,28,-161,109v-2,41,28,73,70,73xm135,-472v-33,0,-60,-28,-60,-61v0,-31,28,-59,60,-59v32,0,60,28,60,60v0,32,-28,60,-60,60xm318,-472v-32,0,-60,-28,-60,-61v0,-31,29,-59,60,-59v32,0,60,28,60,60v0,32,-28,60,-60,60","w":452},"\u00e3":{"d":"206,-395v-86,0,-41,108,-126,98v-16,-2,-34,-14,-33,-32v6,-71,86,-97,161,-97v91,0,159,28,159,127r0,226v2,18,6,37,26,38v30,0,37,-28,43,-53r30,0v-14,48,-39,100,-100,99v-47,0,-76,-27,-82,-70v-33,35,-82,68,-146,69v-59,1,-98,-43,-98,-101v0,-141,147,-122,244,-165v0,-75,4,-139,-78,-139xm193,-46v38,0,68,-23,91,-41r0,-141v-59,30,-156,28,-161,109v-2,41,28,73,70,73xm118,-570v70,-64,195,57,255,-23r17,12v-23,35,-54,82,-107,82v-54,0,-89,-27,-143,-27v-27,0,-44,20,-58,34r-19,-12v16,-25,33,-46,55,-66","w":452},"\u00e5":{"d":"206,-395v-86,0,-41,108,-126,98v-16,-2,-34,-14,-33,-32v6,-71,86,-97,161,-97v91,0,159,28,159,127r0,226v2,18,6,37,26,38v30,0,37,-28,43,-53r30,0v-14,48,-39,100,-100,99v-47,0,-76,-27,-82,-70v-33,35,-82,68,-146,69v-59,1,-98,-43,-98,-101v0,-141,147,-122,244,-165v0,-75,4,-139,-78,-139xm193,-46v38,0,68,-23,91,-41r0,-141v-59,30,-156,28,-161,109v-2,41,28,73,70,73xm226,-637v70,0,114,95,60,146v-53,50,-145,10,-145,-61v0,-45,41,-85,85,-85xm226,-598v-39,0,-60,50,-32,78v27,27,78,8,78,-32v0,-25,-21,-46,-46,-46","w":452},"\u00e7":{"d":"234,56v39,9,82,30,82,77v0,93,-130,113,-192,61r14,-22v17,9,38,19,62,19v28,1,55,-26,54,-54v-1,-34,-31,-50,-58,-59r22,-66v-104,-21,-179,-83,-179,-205v0,-125,79,-239,209,-233v64,3,137,22,143,82v4,37,-51,50,-74,24v-5,-47,-18,-72,-71,-71v-86,1,-114,85,-114,170v0,98,37,193,134,193v62,0,92,-34,115,-79r30,11v-21,66,-84,107,-164,108","w":433},"\u00e9":{"d":"40,-202v0,-117,78,-224,201,-224v110,0,175,100,175,203r-285,0v1,101,24,197,128,197v65,0,98,-36,128,-76r29,15v-36,57,-87,97,-172,98v-123,3,-204,-93,-204,-213xm236,-389v-72,0,-101,66,-104,132r195,-2v3,-66,-18,-130,-91,-130xm151,-474v-7,6,-22,2,-17,-9r52,-125r127,1v10,1,9,12,2,17","w":454},"\u00e8":{"d":"40,-202v0,-117,78,-224,201,-224v110,0,175,100,175,203r-285,0v1,101,24,197,128,197v65,0,98,-36,128,-76r29,15v-36,57,-87,97,-172,98v-123,3,-204,-93,-204,-213xm236,-389v-72,0,-101,66,-104,132r195,-2v3,-66,-18,-130,-91,-130xm139,-591v-10,-4,-6,-16,6,-16r123,-1r53,130v-2,12,-18,5,-24,2","w":454},"\u00ea":{"d":"40,-202v0,-117,78,-224,201,-224v110,0,175,100,175,203r-285,0v1,101,24,197,128,197v65,0,98,-36,128,-76r29,15v-36,57,-87,97,-172,98v-123,3,-204,-93,-204,-213xm236,-389v-72,0,-101,66,-104,132r195,-2v3,-66,-18,-130,-91,-130xm355,-490v2,18,-22,23,-32,11r-96,-67v-38,22,-70,58,-111,73v-16,2,-22,-21,-9,-29r120,-120r121,119v2,5,7,7,7,13","w":454},"\u00eb":{"d":"40,-202v0,-117,78,-224,201,-224v110,0,175,100,175,203r-285,0v1,101,24,197,128,197v65,0,98,-36,128,-76r29,15v-36,57,-87,97,-172,98v-123,3,-204,-93,-204,-213xm236,-389v-72,0,-101,66,-104,132r195,-2v3,-66,-18,-130,-91,-130xm136,-472v-33,0,-60,-28,-60,-61v0,-31,28,-59,60,-59v32,0,60,28,60,60v0,32,-28,60,-60,60xm319,-472v-32,0,-60,-28,-60,-61v0,-31,29,-59,60,-59v32,0,60,28,60,60v0,32,-28,60,-60,60","w":454},"\u00ed":{"d":"80,-283v-1,-49,-17,-79,-67,-80r0,-31r150,-27r0,310v1,52,14,80,67,81r0,30r-217,0r0,-31v53,1,67,-29,67,-79r0,-173xm45,-474v-7,6,-22,2,-17,-9r52,-125r127,1v10,1,9,12,2,17","w":243},"\u00ec":{"d":"80,-283v-1,-49,-17,-79,-67,-80r0,-31r150,-27r0,310v1,52,14,80,67,81r0,30r-217,0r0,-31v53,1,67,-29,67,-79r0,-173xm33,-591v-10,-4,-6,-16,6,-16r123,-1r53,130v-2,12,-18,5,-24,2","w":243},"\u00ee":{"d":"80,-283v-1,-49,-17,-79,-67,-80r0,-31r150,-27r0,310v1,52,14,80,67,81r0,30r-217,0r0,-31v53,1,67,-29,67,-79r0,-173xm249,-490v2,18,-22,23,-32,11r-96,-67v-38,22,-70,58,-111,73v-15,2,-19,-19,-9,-29r120,-120r121,119v2,5,7,7,7,13","w":243},"\u00ef":{"d":"80,-283v-1,-49,-17,-79,-67,-80r0,-31r150,-27r0,310v1,52,14,80,67,81r0,30r-217,0r0,-31v53,1,67,-29,67,-79r0,-173xm30,-471v-34,0,-60,-30,-60,-61v0,-31,27,-59,60,-59v32,0,60,28,60,60v0,32,-28,60,-60,60xm213,-471v-32,0,-60,-28,-60,-61v0,-31,29,-59,60,-59v32,0,60,28,60,60v0,32,-28,60,-60,60","w":243},"\u00f1":{"d":"13,-394v49,-6,94,-14,137,-27v8,17,14,36,13,61v40,-35,86,-63,154,-66v155,-6,118,172,122,315v1,52,13,80,66,81r0,30r-216,0r0,-31v53,1,66,-29,66,-79v0,-110,37,-269,-86,-265v-47,1,-78,26,-106,49r0,215v1,52,14,80,67,81r0,30r-217,0r0,-31v53,1,67,-29,67,-79r0,-173v-1,-49,-17,-79,-67,-80r0,-31xm152,-570v70,-64,194,57,254,-23r17,12v-23,35,-54,82,-107,82v-54,0,-89,-27,-143,-27v-27,0,-44,20,-58,34r-19,-12v16,-25,34,-46,56,-66","w":519},"\u00f3":{"d":"258,-426v135,0,213,88,213,221v0,127,-89,216,-216,216v-130,0,-215,-81,-215,-212v0,-132,83,-225,218,-225xm255,-17v147,0,148,-227,95,-333v-16,-31,-47,-46,-94,-46v-105,0,-126,98,-126,199v0,92,29,180,125,180xm180,-474v-7,6,-22,2,-17,-9r52,-125r127,1v10,1,9,12,2,17","w":511},"\u00f2":{"d":"258,-426v135,0,213,88,213,221v0,127,-89,216,-216,216v-130,0,-215,-81,-215,-212v0,-132,83,-225,218,-225xm255,-17v147,0,148,-227,95,-333v-16,-31,-47,-46,-94,-46v-105,0,-126,98,-126,199v0,92,29,180,125,180xm168,-591v-10,-4,-6,-16,6,-16r123,-1r53,130v-2,12,-18,5,-24,2","w":511},"\u00f4":{"d":"258,-426v135,0,213,88,213,221v0,127,-89,216,-216,216v-130,0,-215,-81,-215,-212v0,-132,83,-225,218,-225xm255,-17v147,0,148,-227,95,-333v-16,-31,-47,-46,-94,-46v-105,0,-126,98,-126,199v0,92,29,180,125,180xm384,-490v2,18,-22,23,-32,11r-96,-67v-38,22,-70,58,-111,73v-16,2,-22,-21,-9,-29r120,-120r121,119v2,5,7,7,7,13","w":511},"\u00f6":{"d":"258,-426v135,0,213,88,213,221v0,127,-89,216,-216,216v-130,0,-215,-81,-215,-212v0,-132,83,-225,218,-225xm255,-17v147,0,148,-227,95,-333v-16,-31,-47,-46,-94,-46v-105,0,-126,98,-126,199v0,92,29,180,125,180xm164,-472v-33,0,-60,-28,-60,-61v0,-31,28,-59,60,-59v32,0,60,28,60,60v0,32,-28,60,-60,60xm347,-472v-32,0,-60,-28,-60,-61v0,-31,29,-59,60,-59v32,0,60,28,60,60v0,32,-28,60,-60,60","w":511},"\u00f5":{"d":"258,-426v135,0,213,88,213,221v0,127,-89,216,-216,216v-130,0,-215,-81,-215,-212v0,-132,83,-225,218,-225xm255,-17v147,0,148,-227,95,-333v-16,-31,-47,-46,-94,-46v-105,0,-126,98,-126,199v0,92,29,180,125,180xm148,-570v70,-64,194,57,254,-23r17,12v-23,35,-54,82,-107,82v-54,0,-89,-27,-143,-27v-27,0,-44,20,-58,34r-19,-12v16,-25,34,-46,56,-66","w":511},"\u00fa":{"d":"506,0r-137,5v-7,-17,-13,-36,-13,-59v-40,35,-86,65,-155,65v-74,0,-121,-46,-121,-135r0,-192v-1,-51,-14,-78,-67,-79r0,-32r150,0r0,290v1,61,24,99,87,98v48,0,78,-26,106,-49r0,-228v-1,-51,-14,-78,-67,-79r0,-32r150,0r0,316v1,50,16,80,67,81r0,30xm183,-474v-7,6,-22,2,-17,-9r52,-125r127,1v10,1,9,12,2,17","w":519},"\u00f9":{"d":"506,0r-137,5v-7,-17,-13,-36,-13,-59v-40,35,-86,65,-155,65v-74,0,-121,-46,-121,-135r0,-192v-1,-51,-14,-78,-67,-79r0,-32r150,0r0,290v1,61,24,99,87,98v48,0,78,-26,106,-49r0,-228v-1,-51,-14,-78,-67,-79r0,-32r150,0r0,316v1,50,16,80,67,81r0,30xm171,-591v-10,-4,-6,-16,6,-16r123,-1r53,130v-2,12,-18,5,-24,2","w":519},"\u00fb":{"d":"506,0r-137,5v-7,-17,-13,-36,-13,-59v-40,35,-86,65,-155,65v-74,0,-121,-46,-121,-135r0,-192v-1,-51,-14,-78,-67,-79r0,-32r150,0r0,290v1,61,24,99,87,98v48,0,78,-26,106,-49r0,-228v-1,-51,-14,-78,-67,-79r0,-32r150,0r0,316v1,50,16,80,67,81r0,30xm387,-490v2,18,-22,23,-32,11r-96,-67v-38,22,-70,58,-111,73v-16,2,-22,-21,-9,-29r120,-120r121,119v2,5,7,7,7,13","w":519},"\u00fc":{"d":"506,0r-137,5v-7,-17,-13,-36,-13,-59v-40,35,-86,65,-155,65v-74,0,-121,-46,-121,-135r0,-192v-1,-51,-14,-78,-67,-79r0,-32r150,0r0,290v1,61,24,99,87,98v48,0,78,-26,106,-49r0,-228v-1,-51,-14,-78,-67,-79r0,-32r150,0r0,316v1,50,16,80,67,81r0,30xm168,-472v-33,0,-60,-28,-60,-61v0,-31,28,-59,60,-59v32,0,60,28,60,60v0,32,-28,60,-60,60xm351,-472v-32,0,-60,-28,-60,-61v0,-31,29,-59,60,-59v32,0,60,28,60,60v0,32,-28,60,-60,60","w":519},"\u2020":{"d":"275,-682v69,0,61,95,35,141v-7,22,-18,44,-19,71v58,9,96,-35,155,-34v35,0,68,16,66,54v-3,70,-104,58,-150,32v-22,-7,-45,-17,-71,-20v0,56,25,98,51,130v-48,131,-42,291,-51,455r-36,0v0,-169,-4,-328,-50,-455v25,-32,51,-76,50,-130v-59,6,-96,42,-158,42v-31,0,-63,-20,-63,-54v0,-37,32,-54,66,-54v60,0,94,40,155,35v-5,-56,-37,-90,-39,-149v-1,-36,22,-64,59,-64","w":553},"\u00a2":{"d":"397,-477v5,38,-51,51,-75,27v0,-43,-23,-59,-59,-68r2,360v61,4,109,-31,123,-80r33,9v-16,66,-81,110,-158,113r0,106r-34,0r0,-107v-112,-7,-185,-93,-183,-209v2,-118,68,-225,183,-231r0,-100r34,0r0,99v61,6,127,25,134,81xm229,-519v-131,36,-111,312,0,354r0,-354","w":467},"\u00a3":{"d":"-31,-45v3,-79,118,-73,179,-49v26,-49,19,-126,21,-199r-106,-1r0,-27r107,0v0,-118,19,-213,66,-290v28,-47,73,-71,136,-71v66,0,122,39,121,108v-1,54,-42,101,-102,92v53,-42,45,-177,-38,-171v-109,7,-82,166,-91,281v-1,18,0,35,0,52r115,-1r0,27r-118,0v-5,87,-26,160,-70,214v94,35,262,32,272,-72r12,-1v13,89,-35,170,-116,170v-77,0,-137,-37,-189,-68v-35,42,-118,87,-180,44v-12,-9,-19,-22,-19,-38xm51,-17v38,-1,65,-28,82,-52v-33,-17,-112,-32,-116,20v-1,17,16,33,34,32","w":467},"\u00a7":{"d":"332,-622v-42,-36,-139,-6,-134,53v5,70,81,97,128,132v53,40,128,80,129,164v0,60,-36,111,-63,144v27,30,58,63,59,116v2,87,-85,162,-170,160v-83,-2,-159,-55,-163,-137v-1,-29,36,-46,53,-23v30,44,36,110,114,110v69,0,128,-82,71,-135v-58,-55,-146,-93,-202,-151v-27,-28,-41,-60,-41,-100v0,-62,42,-111,74,-146v-25,-25,-59,-62,-59,-109v0,-84,80,-141,159,-138v72,3,147,41,144,115v-1,23,-31,43,-49,22v-19,-22,-28,-57,-50,-77xm213,-411v-31,36,-50,109,-1,151v45,39,104,75,153,109v25,-45,36,-111,-8,-152v-43,-40,-96,-74,-144,-108","w":553},"\u00b6":{"d":"47,-511v2,-106,75,-155,191,-155r292,-1r0,25v-66,-2,-79,10,-79,76r0,591v-2,48,30,39,73,41r0,25r-122,0r0,-731r-89,0r0,731r-134,0r0,-25v62,1,85,-1,85,-65r0,-351v-124,16,-220,-44,-217,-161xm264,-642v-114,5,-142,24,-144,144v0,63,37,122,104,120r40,-1r0,-263","w":570},"\u00df":{"d":"169,-105v2,42,0,74,45,75r0,30r-195,0r0,-31v53,1,67,-29,67,-79r0,-390v-2,-106,81,-182,187,-182v89,0,179,60,179,155v0,80,-65,110,-120,137v87,24,156,95,151,204v-5,104,-74,218,-195,194v-26,-5,-57,-24,-56,-56v-1,-18,16,-37,34,-36v42,2,37,57,77,60v50,-13,49,-105,49,-166v0,-129,-37,-176,-168,-177r0,-39v84,9,146,-38,144,-124v-2,-71,-29,-124,-105,-124v-68,0,-93,50,-94,113r0,436","w":531},"\u00ae":{"d":"402,13v-185,0,-347,-161,-347,-346v0,-185,162,-346,347,-346v185,0,346,161,346,346v0,185,-161,346,-346,346xm402,-646v-167,0,-313,146,-313,313v0,166,148,312,313,312v167,0,313,-145,313,-312v0,-167,-146,-313,-313,-313xm550,-415v0,52,-31,73,-69,90r77,130v10,17,22,25,45,26r0,17r-86,0r-100,-173r-66,0r0,117v-3,35,16,42,50,38r0,18r-164,0r0,-18v34,0,48,-2,48,-37r0,-253v3,-34,-18,-39,-51,-38r0,-18v133,6,316,-33,316,101xm483,-415v0,-70,-60,-82,-132,-78r0,151v72,2,132,3,132,-73","w":804},"\u00a9":{"d":"402,13v-185,0,-347,-161,-347,-346v0,-185,162,-346,347,-346v185,0,346,161,346,346v0,185,-161,346,-346,346xm402,-646v-167,0,-313,146,-313,313v0,166,148,312,313,312v167,0,313,-145,313,-312v0,-167,-146,-313,-313,-313xm409,-521v47,0,104,54,123,0r17,-3r0,117r-17,0v-13,-46,-53,-90,-111,-90v-87,0,-124,80,-124,163v0,83,32,162,124,162v64,0,106,-45,134,-85r0,37v-31,41,-79,74,-145,75v-105,1,-189,-74,-189,-181v0,-108,80,-195,188,-195","w":804},"\u2122":{"d":"242,-336v-1,46,22,43,62,45r0,24r-193,0r0,-25v37,1,62,1,62,-43r0,-306r-65,0v-53,1,-65,37,-80,77r-26,-1r11,-102r389,0r11,102r-26,0v-14,-39,-27,-74,-80,-75r-65,-1r0,305xm770,-292v43,3,63,-8,63,-54r1,-250r-143,329r-25,0r-143,-329r0,219v2,61,0,81,61,86r0,24r-156,0r0,-25v55,-1,62,-17,62,-70r0,-242v1,-35,-30,-36,-62,-37r0,-26r136,0r132,309r134,-309r135,0v-2,9,6,26,-7,26v-37,0,-55,2,-55,44r0,267v-3,35,28,42,62,38r0,25r-195,0r0,-25","w":978},"\u00b4":{"d":"175,-474v-7,6,-22,2,-17,-9r52,-125r127,1v10,1,9,12,2,17","w":500},"\u00a8":{"d":"158,-472v-33,0,-60,-28,-60,-61v0,-31,28,-59,60,-59v32,0,60,28,60,60v0,32,-28,60,-60,60xm341,-472v-32,0,-60,-28,-60,-61v0,-31,29,-59,60,-59v32,0,60,28,60,60v0,32,-28,60,-60,60","w":500},"\u2260":{},"\u00c6":{"d":"629,-32v135,0,193,-53,213,-175r30,0r-12,207r-548,0r0,-31v79,-6,100,-8,100,-92r0,-195r-158,0r-102,210v-4,9,-7,18,-7,27v-1,41,37,48,75,51r0,30r-223,0r0,-31v65,-1,89,-34,112,-81r239,-488v0,-37,-43,-33,-76,-36r0,-31r529,0r19,164r-31,0v-27,-87,-47,-127,-155,-128r-122,-1r0,242v54,-2,114,10,135,-28v11,-20,18,-40,19,-64r30,-1r0,227r-30,0v-3,-51,-15,-94,-74,-95r-80,-1r0,228v-2,77,48,92,117,92xm412,-638r-140,286r140,0r0,-286","w":881},"\u00d8":{"d":"640,-598v69,59,113,151,115,266v2,206,-157,358,-370,349v-79,-4,-147,-25,-198,-63r-68,82r-30,-24r69,-83v-68,-57,-110,-147,-112,-261v-5,-202,154,-353,354,-350v84,1,157,24,211,62r68,-85r30,24xm584,-110v69,-117,74,-320,9,-436r-361,458v36,44,96,71,168,71v88,0,148,-32,184,-93xm216,-556v-68,117,-75,322,-7,438r361,-460v-39,-43,-96,-72,-170,-72v-88,0,-148,32,-184,94","w":802},"\u221e":{},"\u00b1":{"d":"480,-96r0,49r-460,0r0,-49r460,0xm224,-379r0,-195r51,0r0,195r205,0r0,49r-205,0r0,190r-51,0r0,-190r-204,0r0,-49r204,0","w":500},"\u2264":{},"\u2265":{},"\u00a5":{"d":"472,-612v-1,-32,-37,-33,-69,-35r0,-20r178,0r0,19v-58,5,-78,55,-100,97r-73,138r129,0r0,30r-143,0r-59,93r0,22r202,0r0,31r-202,0r0,138v2,59,2,81,65,81r33,-1r0,19r-278,0r0,-19r35,0v63,1,63,-21,63,-79r0,-139r-200,0r0,-31r200,0r0,-10r-63,-105r-137,0r0,-30r122,0r-92,-182v-19,-32,-34,-49,-83,-52r0,-20r236,0r0,19v-35,0,-92,-1,-70,39r155,290r145,-267v4,-9,6,-17,6,-26","w":581},"\u00b5":{"d":"66,141v29,-184,42,-380,36,-598r83,0r0,287v1,70,14,136,85,137v55,1,87,-43,112,-75r0,-349r83,0r0,359v2,27,6,58,36,57v13,0,24,-5,33,-10r0,16r-98,47v-39,-2,-43,-46,-49,-81v-39,35,-78,83,-146,84v-65,1,-94,-36,-112,-86v0,77,17,140,23,211v-3,25,-14,51,-44,51v-28,0,-40,-25,-42,-50","w":550},"\u2202":{},"\u03a3":{},"\u220f":{},"\u03c0":{},"\u222b":{},"\u00aa":{"d":"313,-301r-283,0r0,-31r283,0r0,31xm254,-458v-8,46,32,51,41,16r11,7v-11,20,-28,42,-57,42v-33,1,-39,-23,-45,-50v-28,22,-60,50,-107,50v-61,0,-82,-81,-31,-113v39,-25,86,-44,138,-55v4,-52,-2,-92,-53,-92v-33,0,-77,17,-51,50v7,19,-9,36,-26,36v-17,0,-30,-16,-29,-32v4,-50,58,-72,110,-72v59,0,99,17,99,80r0,133xm124,-422v35,-1,61,-24,80,-42r0,-79v-46,17,-110,28,-116,82v-2,21,14,40,36,39","w":322},"\u00ba":{"d":"303,-301r-283,0r0,-31r283,0r0,31xm32,-534v0,-75,56,-138,129,-138v77,-1,130,63,130,139v0,77,-48,142,-129,142v-80,0,-130,-66,-130,-143xm238,-533v0,-62,-16,-121,-77,-121v-62,0,-76,59,-76,121v0,62,12,123,76,123v65,0,77,-61,77,-123","w":322},"\u03a9":{},"\u00e6":{"d":"208,-393v-83,0,-43,98,-117,98v-21,0,-40,-9,-43,-28v10,-121,236,-134,295,-47v55,-68,206,-77,261,2v28,40,45,84,45,138r-280,0v-3,102,23,202,127,202v62,0,93,-41,125,-76r28,15v-29,56,-90,100,-168,100v-75,0,-138,-35,-171,-84v-33,45,-89,79,-164,84v-113,8,-142,-168,-52,-214v56,-28,119,-46,193,-55v-1,-69,-6,-135,-79,-135xm156,-182v-63,40,-30,169,62,137v31,-11,66,-31,78,-59v-12,-34,-7,-81,-9,-126v-49,12,-93,24,-131,48xm561,-259v-2,-70,-14,-131,-90,-131v-72,0,-96,65,-101,132","w":687},"\u00f8":{"d":"418,-372v40,37,58,92,59,164v1,131,-92,224,-229,217v-50,-3,-94,-15,-126,-40r-50,56r-29,-25r51,-58v-31,-35,-47,-82,-48,-145v-1,-134,83,-227,218,-225v52,0,92,11,124,33r52,-61r29,25xm261,-20v136,1,141,-186,111,-302r-207,251v19,31,51,50,96,51xm262,-398v-132,-2,-140,173,-114,289r205,-249v-18,-24,-52,-39,-91,-40","w":514},"\u00bf":{"d":"84,96v0,-97,89,-186,178,-132r0,-152r35,0r0,204r-20,0v-10,-16,-27,-33,-51,-32v-54,2,-64,65,-64,120v0,68,22,133,91,136v57,2,46,-60,88,-70v19,0,34,10,33,30v-4,53,-66,68,-122,70v-93,4,-168,-83,-168,-174xm223,-370v0,-31,28,-57,56,-57v29,0,55,27,55,57v0,30,-25,56,-55,56v-30,0,-56,-26,-56,-56","w":412},"\u00a1":{"d":"67,132v0,-114,35,-206,39,-320r36,0v4,114,39,206,39,320v0,57,-5,132,-57,138v-55,-5,-57,-79,-57,-138xm68,-370v0,-31,28,-57,56,-57v29,0,55,27,55,57v0,30,-25,56,-55,56v-30,0,-56,-26,-56,-56","w":247},"\u00ac":{},"\u221a":{},"\u0192":{"d":"370,-698v-52,-3,-58,44,-66,85r-26,141r109,0r-5,30r-109,0r-54,299v-14,74,-36,150,-67,209v-19,37,-43,59,-72,66r-24,-16v52,-52,64,-155,80,-244r56,-314r-83,0r5,-30r84,0v19,-120,48,-260,179,-260v50,0,97,20,100,69v3,49,-82,57,-82,6v7,-23,-5,-40,-25,-41","w":467},"\u2248":{},"\u2206":{},"\u00ab":{"d":"216,-377v26,-4,17,30,7,41r-95,119r95,120v11,10,19,42,-5,42v-19,0,-30,-14,-40,-24r-137,-129v-8,-10,2,-20,8,-25r138,-127v9,-7,17,-15,29,-17xm358,-369v13,-14,47,-7,34,16v-29,50,-70,90,-104,136r102,133v13,20,-10,39,-28,24v-57,-45,-110,-99,-161,-148v-9,-9,2,-20,8,-25r132,-123v5,-5,11,-9,17,-13","w":433},"\u00bb":{"d":"96,-80v-9,13,-46,41,-56,12v0,-12,5,-20,11,-27r95,-122r-95,-120v-11,-10,-18,-40,5,-40v19,0,30,14,40,24r137,129v8,9,-2,20,-8,25xm211,-337v-11,-9,-20,-40,4,-40v18,0,31,14,41,24r138,130v6,10,-3,19,-9,24r-139,129v-9,11,-43,27,-47,0v1,-11,7,-18,12,-25r94,-122","w":433},"\u2026":{"d":"119,13v-30,0,-56,-25,-56,-55v0,-30,26,-56,56,-56v30,0,55,26,55,56v0,30,-25,55,-55,55xm356,13v-30,0,-56,-25,-56,-55v0,-30,26,-56,56,-56v30,0,55,26,55,56v0,30,-25,55,-55,55xm593,13v-30,0,-56,-25,-56,-55v0,-30,26,-56,56,-56v30,0,55,26,55,56v0,30,-25,55,-55,55","w":711},"\u00c0":{"d":"151,-97v-24,49,20,76,76,66r0,31r-230,0r0,-31v64,-1,88,-15,108,-65r240,-582r37,0r252,581v18,42,38,65,93,67r0,30r-275,0r0,-31v42,4,97,-2,78,-48r-61,-147r-266,0xm450,-268r-105,-259v-4,-11,-7,-21,-10,-32r-116,291r231,0xm274,-826v-10,-4,-6,-16,6,-16r123,-1r53,130v-2,12,-18,5,-24,2","w":723},"\u00c3":{"d":"151,-97v-24,49,20,76,76,66r0,31r-230,0r0,-31v64,-1,88,-15,108,-65r240,-582r37,0r252,581v18,42,38,65,93,67r0,30r-275,0r0,-31v42,4,97,-2,78,-48r-61,-147r-266,0xm450,-268r-105,-259v-4,-11,-7,-21,-10,-32r-116,291r231,0xm254,-800v70,-64,195,57,255,-23r17,12v-23,35,-54,82,-107,82v-54,0,-89,-27,-143,-27v-27,0,-44,20,-58,34r-19,-12v16,-25,33,-46,55,-66","w":723},"\u00d5":{"d":"400,17v-197,0,-354,-151,-354,-349v0,-202,154,-350,354,-350v201,0,355,148,355,350v0,200,-156,349,-355,349xm400,-650v-181,0,-239,159,-239,328v0,154,66,304,239,304v88,0,149,-30,184,-92v40,-73,59,-145,55,-242v-7,-151,-66,-298,-239,-298xm292,-800v70,-64,195,58,255,-22r17,12v-23,35,-54,82,-107,82v-54,0,-89,-27,-143,-27v-27,0,-44,20,-58,34r-19,-12v16,-25,33,-47,55,-67","w":802},"\u0152":{"d":"676,-32v138,0,191,-51,212,-176r30,0r-13,208r-420,0v-38,0,-68,11,-107,11v-204,0,-331,-147,-331,-347v0,-183,132,-348,319,-338v151,8,320,6,482,7r18,163r-32,0v-13,-74,-51,-126,-137,-127r-139,-1r0,244v51,0,106,4,130,-23v15,-17,23,-39,24,-70r31,-1r0,227r-31,0v-3,-67,-24,-99,-94,-98r-60,-1r0,227v-1,82,42,95,118,95xm458,-626v-88,-26,-194,-11,-234,59v-93,165,-94,538,135,538v67,0,99,-26,99,-98r0,-499","w":926},"\u0153":{"d":"381,-231v1,102,23,200,128,200v62,0,98,-37,126,-75r29,15v-35,55,-82,99,-163,99v-66,0,-114,-21,-153,-54v-40,34,-78,56,-146,57v-122,3,-202,-94,-202,-213v0,-119,77,-227,202,-223v70,2,110,20,146,61v31,-34,75,-61,135,-62v118,-3,177,87,181,196xm303,-212v0,-89,-21,-181,-104,-181v-89,0,-112,94,-112,186v0,91,19,187,110,187v92,0,106,-99,106,-192xm573,-259v-2,-67,-20,-132,-91,-132v-69,0,-97,65,-100,132r191,0","w":664},"\u2014":{"d":"634,-191r-634,0r0,-50r634,0r0,50","w":634},"\u201c":{"d":"132,-402v-98,-7,-108,-150,-48,-216v28,-30,56,-54,93,-65r0,17v-43,30,-100,85,-71,156v45,-10,82,13,82,53v1,29,-27,56,-56,55xm302,-402v-98,-7,-108,-150,-48,-216v28,-30,56,-54,93,-65r0,17v-43,30,-100,85,-71,156v45,-10,82,13,82,53v1,29,-27,56,-56,55","w":407},"\u201d":{"d":"101,-683v98,6,108,149,49,215v-27,29,-59,58,-94,65r0,-17v43,-29,100,-83,71,-155v-44,12,-81,-12,-82,-52v-1,-29,27,-58,56,-56xm271,-683v98,5,108,149,49,215v-26,30,-58,58,-93,65r0,-17v42,-30,98,-82,71,-155v-44,12,-83,-12,-83,-52v-1,-29,27,-58,56,-56","w":407},"\u2018":{"d":"132,-402v-98,-7,-108,-150,-48,-216v28,-30,56,-54,93,-65r0,17v-43,30,-100,85,-71,156v45,-10,82,13,82,53v1,29,-27,56,-56,55","w":237},"\u2019":{"d":"101,-683v98,6,108,149,49,215v-27,29,-59,58,-94,65r0,-17v43,-29,100,-83,71,-155v-44,12,-81,-12,-82,-52v-1,-29,27,-58,56,-56","w":237},"\u00f7":{},"\u25ca":{},"\u00ff":{"d":"16,213v123,7,151,-139,199,-225r-156,-334v-12,-23,-30,-36,-61,-38r-1,-31r192,0r0,30v-27,-1,-53,11,-39,40r108,233r112,-257v-2,-17,-29,-13,-46,-16r0,-30r146,0r0,30v-36,3,-55,12,-68,40r-240,525v-24,40,-49,96,-111,94v-29,-1,-55,-34,-35,-61xm142,-471v-33,0,-60,-28,-60,-61v0,-31,28,-59,60,-59v32,0,60,28,60,60v0,32,-28,60,-60,60xm325,-471v-32,0,-60,-28,-60,-61v0,-31,29,-59,60,-59v32,0,60,28,60,60v0,32,-28,60,-60,60","w":466},"\u0178":{"d":"513,-585v28,-48,-39,-51,-85,-50r0,-32r239,0r0,31v-59,5,-92,21,-118,65r-168,274r0,186v-1,74,35,76,100,81r0,30r-298,0r0,-31v69,-4,100,-4,100,-79r0,-187r-183,-285v-23,-37,-50,-50,-102,-53r-1,-32r286,0r0,31v-31,2,-71,-4,-73,26v0,11,4,21,9,29r143,245xm241,-709v-33,0,-60,-28,-60,-61v0,-31,28,-59,60,-59v32,0,60,28,60,60v0,32,-28,60,-60,60xm424,-709v-32,0,-60,-28,-60,-61v0,-31,29,-59,60,-59v32,0,60,28,60,60v0,32,-28,60,-60,60","w":663},"\u2215":{"d":"-98,0r-35,0r369,-667r35,0","w":130},"\u00a4":{"d":"333,-108v-62,0,-107,-24,-148,-50r-93,92r-34,-34r92,-92v-26,-41,-51,-86,-51,-150v0,-59,27,-107,49,-148r-92,-94r33,-33r93,93v39,-28,90,-50,151,-51v62,0,109,26,150,52r95,-95r33,33r-95,96v24,43,49,86,49,151v0,60,-26,103,-50,144r95,94r-33,34r-94,-95v-41,27,-87,53,-150,53xm333,-176v88,0,165,-78,165,-166v0,-87,-77,-165,-165,-165v-87,0,-165,78,-165,166v0,87,78,165,165,165","w":667},"\u2039":{"d":"216,-377v26,-4,17,30,7,41r-95,119r95,120v11,10,19,42,-5,42v-19,0,-30,-14,-40,-24r-137,-129v-8,-10,2,-20,8,-25r138,-127v9,-7,17,-15,29,-17","w":273},"\u203a":{"d":"96,-80v-9,13,-46,41,-56,12v0,-12,5,-20,11,-27r95,-122r-95,-120v-11,-10,-18,-40,5,-40v19,0,30,14,40,24r137,129v8,9,-2,20,-8,25","w":273},"\uf001":{"d":"233,-642v-91,0,-60,135,-66,226r90,0r0,30r-90,0r0,275v0,69,24,77,87,82r0,29r-237,0r0,-31v53,1,67,-29,67,-79r0,-276r-70,0r0,-30r70,0v1,-138,16,-263,164,-260v47,1,91,22,92,69v0,21,-17,41,-39,41v-57,0,-19,-76,-68,-76xm346,-283v-1,-49,-17,-79,-67,-80r0,-31v52,-5,102,-17,150,-27r0,310v1,52,14,80,67,81r0,30r-217,0r0,-31v54,1,67,-28,67,-79r0,-173xm389,-590v42,0,65,54,35,85v-30,31,-88,7,-88,-35v0,-28,27,-50,53,-50","w":509},"\uf002":{"d":"248,-676v18,0,35,6,47,7v46,-5,91,-15,134,-24r0,582v1,52,14,80,67,81r0,30r-217,0r0,-31v54,1,67,-28,67,-79r-1,-468r-6,-23v-4,18,-16,35,-38,35v-57,0,-19,-76,-68,-76v-91,0,-60,135,-66,226r90,0r0,30r-90,0r0,275v0,69,24,77,87,82r0,29r-237,0r0,-31v53,1,67,-29,67,-79r0,-276r-70,0r0,-30r70,0v2,-139,13,-260,164,-260","w":509},"\u2021":{"d":"96,-138v63,0,102,34,159,43v-2,-64,-34,-119,-50,-172v16,-55,50,-105,50,-171v-59,6,-96,42,-158,42v-31,0,-63,-20,-63,-54v0,-37,32,-54,66,-54v60,0,94,40,155,35v-5,-56,-37,-90,-39,-149v-1,-36,22,-64,59,-64v69,0,61,95,35,141v-7,22,-18,44,-19,71v58,9,96,-35,155,-34v35,0,68,16,66,54v-3,70,-104,58,-150,32v-22,-7,-45,-17,-71,-20v2,67,33,118,51,171v-18,55,-48,103,-51,172v55,-9,99,-43,158,-43v31,0,63,20,63,54v0,37,-32,54,-66,54v-60,-1,-94,-35,-155,-35v4,56,38,90,39,148v1,33,-20,64,-55,64v-35,0,-59,-28,-59,-62v1,-59,34,-94,39,-150v-60,1,-95,35,-155,35v-33,0,-66,-18,-66,-54v0,-33,32,-54,62,-54","w":553},"\u2219":{"d":"234,-272v47,0,72,62,39,96v-33,34,-95,8,-95,-40v0,-30,26,-56,56,-56","w":467},"\u201a":{},"\u201e":{"d":"101,-107v98,6,108,149,49,215v-27,31,-57,54,-94,65r0,-17v42,-30,100,-83,71,-156v-42,13,-82,-12,-82,-51v0,-29,27,-58,56,-56xm271,-107v98,6,107,148,49,215v-27,31,-56,54,-93,65r0,-17v41,-31,98,-82,71,-156v-42,13,-83,-12,-83,-51v0,-29,27,-58,56,-56","w":407},"\u2030":{"d":"414,5v-156,0,-154,-337,0,-337v84,0,115,84,115,169v0,85,-31,168,-115,168xm414,-316v-74,15,-67,142,-57,223v4,33,20,84,57,80v58,-5,62,-89,62,-151v0,-62,-5,-145,-62,-152xm707,5v-157,0,-153,-337,0,-337v84,0,115,84,115,169v0,85,-31,168,-115,168xm707,-316v-74,15,-67,142,-57,223v4,33,20,84,57,80v58,-5,62,-89,62,-151v0,-62,-5,-145,-62,-152xm104,0r-35,0r369,-667r35,0xm128,-664v128,0,142,216,74,302v-18,22,-45,36,-74,35v-84,-4,-115,-83,-115,-168v0,-85,31,-169,115,-169xm128,-648v-87,23,-71,204,-39,278v8,16,24,27,39,25v57,-7,62,-89,62,-151v0,-62,-5,-145,-62,-152","w":835},"\u00c2":{"d":"151,-97v-24,49,20,76,76,66r0,31r-230,0r0,-31v64,-1,88,-15,108,-65r240,-582r37,0r252,581v18,42,38,65,93,67r0,30r-275,0r0,-31v42,4,97,-2,78,-48r-61,-147r-266,0xm450,-268r-105,-259v-4,-11,-7,-21,-10,-32r-116,291r231,0xm490,-720v2,18,-22,23,-32,11r-96,-67v-38,22,-70,58,-111,73v-16,2,-22,-21,-9,-29r120,-120r121,119v2,5,7,7,7,13","w":723},"\u00ca":{"d":"114,-556v1,-74,-34,-74,-100,-79r0,-32r492,0r18,163r-31,0v-18,-69,-47,-127,-134,-128r-145,-1r0,262v51,-1,109,5,132,-23v14,-16,23,-38,24,-69r31,-1r0,226v-9,-2,-25,3,-31,-2v-12,-62,-17,-95,-93,-95r-63,-1r0,214v-10,113,133,95,217,78v59,-12,106,-86,115,-161r29,-1r-13,206r-548,0r0,-31v64,-1,100,-5,100,-79r0,-446xm420,-720v2,18,-22,23,-32,11r-96,-67v-38,22,-70,58,-111,73v-16,2,-22,-21,-9,-29r120,-120r121,119v2,5,7,7,7,13","w":584},"\u00c1":{"d":"151,-97v-24,49,20,76,76,66r0,31r-230,0r0,-31v64,-1,88,-15,108,-65r240,-582r37,0r252,581v18,42,38,65,93,67r0,30r-275,0r0,-31v42,4,97,-2,78,-48r-61,-147r-266,0xm450,-268r-105,-259v-4,-11,-7,-21,-10,-32r-116,291r231,0xm286,-708v-7,6,-22,1,-17,-10r52,-125r127,1v10,1,9,12,2,17","w":723},"\u00cb":{"d":"114,-556v1,-74,-34,-74,-100,-79r0,-32r492,0r18,163r-31,0v-18,-69,-47,-127,-134,-128r-145,-1r0,262v51,-1,109,5,132,-23v14,-16,23,-38,24,-69r31,-1r0,226v-9,-2,-25,3,-31,-2v-12,-62,-17,-95,-93,-95r-63,-1r0,214v-10,113,133,95,217,78v59,-12,106,-86,115,-161r29,-1r-13,206r-548,0r0,-31v64,-1,100,-5,100,-79r0,-446xm201,-709v-33,0,-60,-28,-60,-61v0,-31,28,-59,60,-59v32,0,60,28,60,60v0,32,-28,60,-60,60xm384,-709v-32,0,-60,-28,-60,-61v0,-31,29,-59,60,-59v32,0,60,28,60,60v0,32,-28,60,-60,60","w":584},"\u00c8":{"d":"114,-556v1,-74,-34,-74,-100,-79r0,-32r492,0r18,163r-31,0v-18,-69,-47,-127,-134,-128r-145,-1r0,262v51,-1,109,5,132,-23v14,-16,23,-38,24,-69r31,-1r0,226v-9,-2,-25,3,-31,-2v-12,-62,-17,-95,-93,-95r-63,-1r0,214v-10,113,133,95,217,78v59,-12,106,-86,115,-161r29,-1r-13,206r-548,0r0,-31v64,-1,100,-5,100,-79r0,-446xm204,-826v-10,-4,-6,-16,6,-16r123,-1r53,130v-2,12,-18,5,-24,2","w":584},"\u00cd":{"d":"214,-111v-1,77,32,76,100,81r0,30r-300,0r0,-31v64,-1,100,-5,100,-79r0,-446v1,-74,-34,-74,-100,-79r0,-32r300,0r0,31v-58,2,-100,12,-100,81r0,444xm88,-708v-7,6,-22,1,-17,-10r52,-125r127,1v10,1,9,12,2,17","w":327},"\u00ce":{"d":"214,-111v-1,77,32,76,100,81r0,30r-300,0r0,-31v64,-1,100,-5,100,-79r0,-446v1,-74,-34,-74,-100,-79r0,-32r300,0r0,31v-58,2,-100,12,-100,81r0,444xm291,-720v2,18,-22,23,-32,11r-96,-67v-38,22,-70,58,-111,73v-16,2,-22,-21,-9,-29r120,-120r121,119v2,5,7,7,7,13","w":327},"\u00cf":{"d":"214,-111v-1,77,32,76,100,81r0,30r-300,0r0,-31v64,-1,100,-5,100,-79r0,-446v1,-74,-34,-74,-100,-79r0,-32r300,0r0,31v-58,2,-100,12,-100,81r0,444xm72,-709v-33,0,-60,-28,-60,-61v0,-31,28,-59,60,-59v32,0,60,28,60,60v0,32,-28,60,-60,60xm255,-709v-32,0,-60,-28,-60,-61v0,-31,29,-59,60,-59v32,0,60,28,60,60v0,32,-28,60,-60,60","w":327},"\u00cc":{"d":"214,-111v-1,77,32,76,100,81r0,30r-300,0r0,-31v64,-1,100,-5,100,-79r0,-446v1,-74,-34,-74,-100,-79r0,-32r300,0r0,31v-58,2,-100,12,-100,81r0,444xm76,-826v-10,-4,-6,-16,6,-16r123,-1r53,130v-2,12,-18,5,-24,2","w":327},"\u00d3":{"d":"400,17v-197,0,-354,-151,-354,-349v0,-202,154,-350,354,-350v201,0,355,148,355,350v0,200,-156,349,-355,349xm400,-650v-181,0,-239,159,-239,328v0,154,66,304,239,304v88,0,149,-30,184,-92v40,-73,59,-145,55,-242v-7,-151,-66,-298,-239,-298xm324,-708v-7,6,-22,1,-17,-10r52,-125r127,1v10,1,9,12,2,17","w":802},"\u00d4":{"d":"400,17v-197,0,-354,-151,-354,-349v0,-202,154,-350,354,-350v201,0,355,148,355,350v0,200,-156,349,-355,349xm400,-650v-181,0,-239,159,-239,328v0,154,66,304,239,304v88,0,149,-30,184,-92v40,-73,59,-145,55,-242v-7,-151,-66,-298,-239,-298xm528,-720v2,18,-22,23,-32,11r-96,-67v-38,22,-70,58,-111,73v-16,2,-22,-21,-9,-29r120,-120r121,119v2,5,7,7,7,13","w":802},"\uf000":{},"\u00d2":{},"\u00da":{"d":"544,-549v0,-75,-33,-78,-100,-86r0,-31r241,0v-3,10,7,30,-6,31v-58,2,-95,18,-95,87r0,321v-3,147,-45,248,-205,244v-193,-5,-265,-37,-266,-239r0,-333v1,-75,-32,-75,-100,-80r0,-31r300,0r0,30v-61,3,-100,6,-100,82r0,319v4,133,19,218,166,218v139,0,165,-90,165,-218r0,-314xm272,-708v-7,6,-22,1,-17,-10r52,-125r127,1v10,1,9,12,2,17","w":698},"\u00db":{"d":"544,-549v0,-75,-33,-78,-100,-86r0,-31r241,0v-3,10,7,30,-6,31v-58,2,-95,18,-95,87r0,321v-3,147,-45,248,-205,244v-193,-5,-265,-37,-266,-239r0,-333v1,-75,-32,-75,-100,-80r0,-31r300,0r0,30v-61,3,-100,6,-100,82r0,319v4,133,19,218,166,218v139,0,165,-90,165,-218r0,-314xm476,-720v2,18,-22,23,-32,11r-96,-67v-38,22,-70,58,-111,73v-16,2,-22,-21,-9,-29r120,-120r121,119v2,5,7,7,7,13","w":698},"\u00d9":{"d":"544,-549v0,-75,-33,-78,-100,-86r0,-31r241,0v-3,10,7,30,-6,31v-58,2,-95,18,-95,87r0,321v-3,147,-45,248,-205,244v-193,-5,-265,-37,-266,-239r0,-333v1,-75,-32,-75,-100,-80r0,-31r300,0r0,30v-61,3,-100,6,-100,82r0,319v4,133,19,218,166,218v139,0,165,-90,165,-218r0,-314xm261,-826v-10,-4,-6,-16,6,-16r123,-1r53,130v-2,12,-18,5,-24,2","w":698},"\u0131":{"d":"80,-283v-1,-49,-17,-79,-67,-80r0,-31r150,-27r0,310v1,52,14,80,67,81r0,30r-217,0r0,-31v53,1,67,-29,67,-79r0,-173","w":243},"\u02dc":{"d":"379,-490v2,18,-22,23,-32,11r-96,-67v-38,22,-70,58,-111,73v-16,2,-22,-21,-9,-29r120,-120r121,119v2,5,7,7,7,13","w":500},"\u02c6":{"d":"142,-570v70,-64,195,57,255,-23r17,12v-23,35,-54,82,-107,82v-54,0,-89,-27,-143,-27v-27,0,-44,20,-58,34r-19,-12v16,-25,33,-46,55,-66","w":500,"k":{"\u02c6":-1151,"\u00f3":-256," ":-1}},"\u02c9":{"d":"418,-565r0,39r-337,0r0,-39r337,0","w":500},"\u02d8":{"d":"403,-605v-4,157,-305,159,-306,-1r25,1v22,66,150,60,218,38v16,-5,28,-19,35,-37","w":500},"\u02d9":{"d":"250,-472v-33,0,-60,-28,-60,-61v0,-31,28,-59,60,-59v32,0,60,28,60,60v0,32,-28,60,-60,60","w":500},"\u02da":{"d":"250,-637v70,0,114,95,60,146v-53,50,-145,10,-145,-61v0,-45,41,-85,85,-85xm250,-598v-39,0,-60,50,-32,78v27,27,78,8,78,-32v0,-25,-21,-46,-46,-46","w":500},"\u00b8":{"d":"277,133v0,-39,-36,-48,-65,-59r20,-74r37,0r-9,40v46,6,92,32,91,86v-1,90,-125,114,-199,72r16,-33v37,20,109,19,109,-32","w":500},"\u02ba":{"d":"84,-474v-7,6,-22,2,-17,-9r52,-125r127,1v10,1,9,12,2,17xm266,-474v-7,6,-22,2,-17,-9r52,-125r127,1v10,1,9,12,2,17","w":500},"\u02db":{"d":"518,0v-28,20,-56,43,-58,89v-3,72,71,94,135,75r5,9v-60,45,-190,31,-190,-62v0,-58,42,-90,82,-111r26,0","w":500},"\u02c7":{"d":"339,-615v13,-13,49,-8,37,16r-126,126r-115,-115v-16,-6,-17,-35,4,-35v10,0,17,4,23,9r88,64","w":500},"\u0141":{"d":"113,-556v1,-74,-34,-74,-100,-79r0,-32r300,0r0,31v-58,2,-100,12,-100,81r0,205r192,-90r14,32r-206,97r0,189v-10,113,133,95,217,78v59,-12,106,-86,115,-161r29,-1r-13,206r-548,0r0,-31v64,-1,100,-5,100,-79r0,-157r-83,40r-15,-30r98,-46r0,-253","w":571},"\u0142":{"d":"87,-556v-1,-48,-17,-79,-67,-79r0,-32v52,-5,102,-16,150,-26r0,303r68,-33r12,26r-80,39r0,247v1,52,14,80,67,81r0,30r-217,0r0,-31v53,1,67,-29,67,-79r0,-208r-65,30r-11,-26r76,-36r0,-206","w":258},"\u0160":{"d":"239,-682v62,1,113,18,149,49v9,-12,15,-26,22,-40r24,-1r0,181r-30,0v-15,-81,-65,-159,-163,-159v-55,0,-114,37,-111,94v4,96,105,119,173,158v79,45,173,87,173,210v0,114,-83,209,-200,207v-79,-2,-137,-32,-183,-72v-9,16,-16,37,-22,55r-31,0r0,-210r31,0v9,90,87,188,185,186v75,-1,148,-41,146,-122v-3,-103,-101,-131,-174,-171v-78,-43,-175,-78,-175,-195v0,-101,89,-171,186,-170xm343,-845v13,-13,49,-8,37,16r-126,126r-115,-115v-16,-6,-17,-35,4,-35v10,0,17,4,23,9r88,64","w":509},"\u0161":{"d":"150,-426v46,0,76,22,100,48r19,-37r23,0r0,137r-23,0v-13,-53,-46,-109,-111,-112v-54,-2,-77,69,-36,100v66,50,189,61,191,175v1,76,-52,131,-132,126v-43,-3,-80,-20,-106,-44r-17,33r-24,0r0,-143r24,0v7,59,53,117,120,117v36,0,72,-24,71,-62v-3,-59,-64,-74,-106,-98v-47,-27,-106,-52,-106,-123v0,-69,43,-118,113,-117xm262,-615v13,-13,50,-8,38,16r-127,126r-115,-115v-16,-6,-17,-35,4,-35v10,0,17,4,23,9r88,64","w":346},"\u017d":{},"\u017e":{},"\u00a6":{},"\u00d0":{"d":"113,-556v2,-75,-37,-72,-100,-80r0,-31r301,1v230,-4,364,128,370,339v6,195,-138,327,-332,327r-339,0r0,-31v64,-1,100,-5,100,-79r0,-221r-64,0r0,-38r64,0r0,-187xm566,-329v3,-217,-120,-331,-353,-302r0,262r186,0r0,38r-186,0r0,186v2,101,20,108,118,111v172,7,232,-138,235,-295","w":731},"\u00f0":{"d":"107,-686v59,5,114,18,156,42r111,-73r19,31r-97,60v110,85,178,211,178,388v0,139,-69,249,-217,249v-128,0,-217,-81,-217,-211v0,-161,144,-270,309,-210v-9,-78,-44,-142,-93,-183r-113,73r-19,-30r102,-65v-39,-20,-82,-37,-131,-45xm256,-17v98,-1,126,-91,126,-187v0,-99,-24,-192,-125,-192v-105,0,-127,98,-127,199v0,92,30,181,126,180","w":513},"\u00dd":{},"\u00fd":{},"\u00de":{"d":"113,-556v1,-72,-37,-74,-100,-79r0,-32r300,0v-2,10,5,29,-4,32v-53,3,-107,8,-96,75v160,-1,329,4,323,177v-4,122,-91,180,-226,173r-97,-1r0,100v-1,77,32,76,100,81r0,30r-300,0r0,-31v64,-1,100,-5,100,-79r0,-446xm428,-386v0,-132,-88,-155,-215,-143r0,287r77,0v90,3,138,-56,138,-144","w":536},"\u00fe":{"d":"294,11v-55,-2,-98,-18,-131,-45r0,190v0,68,25,76,87,81r0,30r-237,0r0,-31v53,-1,67,-28,67,-80r0,-711v-1,-49,-17,-79,-67,-80r0,-31v49,-6,94,-14,137,-27v7,12,13,25,13,43r0,285v30,-32,79,-58,136,-60v118,-3,189,102,189,214v0,114,-73,226,-194,222xm163,-81v26,27,60,53,107,53v97,0,129,-92,129,-187v0,-87,-28,-169,-116,-170v-58,0,-96,45,-120,82r0,222","w":528},"\u2212":{},"\u00d7":{},"\u00b9":{},"\u00b2":{},"\u00b3":{},"\u00bd":{"d":"196,0r-35,0r369,-667r35,0xm653,-50v27,1,33,-26,43,-44r21,-1r-26,95r-251,0r7,-29v57,-41,106,-91,151,-146v52,-62,71,-198,-30,-203v-38,-2,-76,28,-76,69v0,25,17,50,38,55v-5,13,-15,20,-32,20v-31,0,-44,-31,-46,-62v-2,-64,59,-102,119,-102v65,-1,134,46,131,115v-6,121,-114,176,-188,234xm60,-289v40,0,59,-2,59,-44r0,-268r-52,0r0,-24v46,0,79,-22,111,-40r0,331v0,42,18,45,57,46r0,22r-175,0r0,-23","w":732},"\u00bc":{},"\u00be":{},"\u20a3":{},"\u011e":{},"\u011f":{},"\u0130":{},"\u015e":{},"\u015f":{},"\u0106":{},"\u0107":{},"\u010c":{},"\u010d":{},"\u0111":{},"\u2192":{"w":500},"\u2302":{},"\u2013":{"d":"456,-192r-444,0r0,-50r444,0r0,50","w":467},"\u00ad":{"w":500},"\u25a0":{"w":500},"\u2022":{"d":"294,-189v-52,0,-96,-44,-96,-97v0,-51,45,-95,96,-95v53,0,98,44,98,96v0,52,-45,96,-98,96","w":600},"\u00af":{},"\u00b0":{},"\u00b7":{},"\u2017":{},"\u203c":{},"\u207f":{},"\u20a7":{},"\u0393":{},"\u0398":{},"\u03a6":{},"\u03b1":{},"\u03b4":{},"\u03b5":{},"\u03c3":{},"\u03c4":{},"\u03c6":{},"\u2190":{},"\u2191":{},"\u2193":{},"\u2194":{},"\u2195":{},"\u21a8":{},"\u221f":{},"\u2229":{},"\u2261":{},"\u2310":{},"\u2320":{},"\u2321":{},"\u25ac":{},"\u25cb":{},"\u25b2":{},"\u25ba":{},"\u25bc":{},"\u25c4":{},"\u25d8":{},"\u25d9":{},"\u0158":{},"\u2580":{},"\u2584":{},"\u2588":{},"\u258c":{},"\u2590":{},"\u2591":{},"\u2592":{},"\u2593":{},"\u263a":{},"\u263b":{},"\u263c":{},"\u2640":{},"\u2642":{},"\u2660":{},"\u2663":{},"\u2665":{},"\u2666":{},"\u266a":{},"\u266b":{},"\u0102":{},"\u0103":{},"\u0104":{},"\u0105":{},"\u010e":{},"\u010f":{},"\u0110":{},"\u0118":{},"\u0119":{},"\u011a":{},"\u011b":{},"\u0139":{},"\u013a":{},"\u013d":{},"\u013e":{},"\u0143":{},"\u0144":{},"\u0147":{},"\u0148":{},"\u0150":{},"\u0151":{},"\u0154":{},"\u0155":{},"\u0159":{},"\u015a":{},"\u015b":{},"\u0162":{},"\u0163":{},"\u0164":{},"\u0165":{},"\u016e":{},"\u016f":{},"\u0171":{},"\u0170":{},"\u0179":{},"\u017a":{},"\u017b":{},"\u017c":{},"\u013f":{},"\u0140":{},"\u2500":{},"\u2502":{},"\u250c":{},"\u2510":{},"\u2514":{},"\u2518":{},"\u251c":{},"\u2524":{},"\u252c":{},"\u2534":{},"\u253c":{},"\u2550":{},"\u2551":{},"\u2552":{},"\u2553":{},"\u2554":{},"\u2555":{},"\u2556":{},"\u2557":{},"\u2558":{},"\u2559":{},"\u255a":{},"\u255b":{},"\u255c":{},"\u255d":{},"\u255e":{},"\u255f":{},"\u2560":{},"\u2561":{},"\u2562":{},"\u2563":{},"\u2564":{},"\u2565":{},"\u2566":{},"\u2567":{},"\u2568":{},"\u2569":{},"\u256a":{},"\u256b":{},"\u256c":{}}});
