/*!
 * The following copyright notice may not be removed under any circumstances.
 * 
 * Copyright:
 * © Dutch Design: Albert-Jan Pool, 1995. Published by FontShop International
 * FontFont release 15
 */
Cufon.registerFont({"w":556,"face":{"font-family":"scuba","font-weight":400,"font-stretch":"normal","units-per-em":"1000","panose-1":"0 0 4 0 0 0 0 0 0 0","ascent":"800","descent":"-200","x-height":"6","bbox":"-28 -832 1044 186","underline-thickness":"108","underline-position":"-78","unicode-range":"U+0020-U+2122"},"glyphs":{" ":{"w":222},"!":{"d":"306,-712r-44,475r-118,0r-44,-475r206,0xm203,-187v51,0,95,44,95,95v0,51,-44,95,-95,95v-51,0,-95,-44,-95,-95v0,-51,44,-95,95,-95","w":366},"\"":{"d":"431,-478r-147,0r0,-234r147,0r0,234xm204,-478r-147,0r0,-234r147,0r0,234","w":488},"#":{"d":"666,-412r-83,0r-13,88r58,0r0,155r-83,0r-27,169r-174,0r27,-169r-90,0r-27,169r-174,0r27,-169r-58,0r0,-155r83,0r13,-88r-58,0r0,-155r83,0r24,-153r174,0r-24,153r90,0r24,-153r174,0r-24,153r58,0r0,155xm409,-412r-90,0r-13,88r90,0","w":713},"$":{"d":"39,-493v2,-126,91,-209,211,-222r0,-91r126,0r0,89v85,5,152,33,203,84r-110,110v-24,-24,-62,-38,-113,-41r0,125v144,14,236,65,234,221v-1,125,-96,202,-214,219r0,113r-126,0r0,-108v-105,-3,-187,-35,-245,-94r112,-112v32,32,83,49,153,50r0,-132v-143,-9,-234,-76,-231,-211xm270,-445r0,-118v-57,5,-82,64,-44,100v11,11,26,16,44,18xm356,-153v60,-6,79,-63,48,-103v-8,-11,-25,-16,-48,-19r0,122","w":633},"%":{"d":"661,-367v87,0,151,54,151,139r0,95v1,85,-64,139,-151,139v-87,0,-151,-54,-151,-139r0,-95v-1,-85,64,-139,151,-139xm661,-712r-339,712r-126,0r339,-712r126,0xm196,-718v87,0,151,54,151,139r0,95v1,85,-64,139,-151,139v-87,0,-151,-54,-151,-139r0,-95v-1,-85,64,-139,151,-139xm661,-98v53,2,35,-78,35,-126v0,-26,-12,-39,-35,-39v-53,-2,-35,78,-35,126v0,26,12,39,35,39xm196,-449v53,2,35,-78,35,-126v0,-26,-12,-39,-35,-39v-53,-2,-35,78,-35,126v0,26,12,39,35,39","w":857},"&":{"d":"304,-718v117,0,199,68,199,179v0,68,-69,125,-120,159r84,97v18,-21,29,-55,33,-103r154,0v-7,96,-35,170,-83,223r139,163r-206,0r-45,-52v-53,41,-86,58,-169,58v-161,0,-241,-74,-241,-222v0,-69,38,-128,113,-178v-45,-50,-67,-99,-67,-147v1,-115,86,-177,209,-177xm297,-479v15,-11,57,-37,52,-59v0,-28,-15,-42,-45,-42v-30,0,-45,14,-45,43v0,13,13,33,38,58xm207,-217v-2,73,104,99,153,49r-111,-127v-28,19,-42,45,-42,78","w":710},"'":{"d":"205,-478r-148,0r0,-234r148,0r0,234","w":262},"(":{"d":"236,-169v2,95,23,97,73,153r-110,110v-80,-82,-127,-107,-127,-257r0,-386v6,-154,37,-159,127,-257r110,110v-39,41,-73,65,-73,153r0,374","w":358},")":{"d":"159,-806v80,82,127,107,127,257r0,386v-6,154,-37,159,-127,257r-110,-110v39,-41,73,-65,73,-153r0,-374v-2,-95,-23,-97,-73,-153","w":358},"*":{"d":"459,-453r-56,97r-99,-64r5,118r-112,0r5,-118r-99,64r-56,-97r105,-54r-105,-54r56,-97r99,64r-5,-118r112,0r-5,118r99,-64r56,97r-105,54","w":506},"+":{"d":"507,-206r-152,0r0,152r-154,0r0,-152r-152,0r0,-154r152,0r0,-152r154,0r0,152r152,0r0,154"},",":{"d":"231,50r-174,128r0,-352r174,0r0,224","w":288},"-":{"d":"377,-218r-328,0r0,-154r328,0r0,154","w":426},"\u2010":{"d":"377,-218r-328,0r0,-154r328,0r0,154","w":426},".":{"d":"154,-207v57,0,105,48,105,105v0,56,-48,105,-105,105v-56,0,-105,-49,-105,-105v0,-57,49,-105,105,-105","w":308},"\/":{"d":"437,-786r-285,860r-152,0r285,-860r152,0","w":431},"0":{"d":"278,-603v131,0,229,91,229,222r0,165v3,131,-98,222,-229,222v-131,0,-229,-91,-229,-222r0,-165v-3,-131,98,-222,229,-222xm278,-455v-40,0,-65,30,-65,74r0,166v0,49,22,73,65,73v100,0,58,-149,65,-239v3,-44,-25,-73,-65,-74"},"1":{"d":"371,0r-164,0r0,-422r-152,132r0,-175r152,-132r164,0r0,597","w":476},"2":{"d":"275,-623v172,0,295,174,187,312v-36,46,-133,117,-192,163r243,0r0,148r-468,0r0,-148r221,-173v49,-38,73,-69,73,-93v0,-41,-21,-61,-64,-61v-44,0,-66,23,-66,69r-164,0v-3,-129,100,-217,230,-217","w":573},"3":{"d":"267,-603v126,0,229,88,229,211v0,61,-25,108,-74,139v55,38,82,90,82,155v2,135,-100,219,-237,219v-140,0,-240,-85,-237,-223r164,0v-1,46,29,75,73,75v49,0,73,-25,73,-76v-1,-50,-40,-82,-99,-75r0,-142v55,6,90,-19,91,-67v1,-40,-28,-68,-65,-68v-37,0,-66,28,-65,67r-164,0v-2,-127,100,-215,229,-215","w":546},"4":{"d":"579,-30r-73,0r0,153r-156,0r0,-153r-309,0r0,-156r231,-462r177,0r-231,462r132,0r0,-114r156,0r0,114r73,0r0,156","w":619},"5":{"d":"321,-367v177,0,237,182,191,345v-23,80,-110,146,-218,143v-142,-3,-223,-80,-231,-223r164,0v5,50,28,75,67,75v51,0,67,-33,67,-101v0,-115,-104,-132,-134,-50r-151,0r0,-419r434,0r0,148r-285,0r0,110v24,-19,56,-28,96,-28","w":571},"6":{"d":"260,-439v144,-50,267,64,267,212v0,143,-103,233,-246,233v-143,0,-249,-91,-246,-233v2,-115,30,-162,79,-255r134,-246r177,0xm281,-136v49,0,82,-38,82,-91v0,-53,-33,-91,-82,-91v-49,0,-82,38,-82,91v0,53,33,91,82,91","w":562},"7":{"d":"548,-449r-247,564r-178,0r247,-564r-169,0r0,112r-156,0r0,-260r503,0r0,148","w":583},"8":{"d":"288,-718v127,0,232,86,232,211v0,53,-24,100,-73,141v53,43,80,94,80,153v2,137,-99,219,-239,219v-140,0,-241,-82,-239,-219v0,-59,27,-110,80,-153v-49,-41,-73,-88,-73,-141v0,-125,105,-211,232,-211xm288,-434v37,0,68,-31,68,-68v0,-38,-30,-68,-68,-68v-37,0,-68,31,-68,68v0,36,32,68,68,68xm288,-142v40,0,75,-35,75,-75v0,-40,-35,-75,-75,-75v-40,0,-75,35,-75,75v0,40,35,75,75,75","w":576},"9":{"d":"281,-603v143,0,249,90,246,233v-3,115,-30,162,-79,255r-134,246r-177,0r165,-289v-144,50,-267,-65,-267,-212v0,-142,103,-233,246,-233xm281,-279v49,0,82,-38,82,-91v0,-53,-33,-91,-82,-91v-49,0,-82,38,-82,91v0,53,33,91,82,91","w":562},":":{"d":"177,-457v57,0,105,48,105,105v0,56,-48,105,-105,105v-56,0,-105,-49,-105,-105v0,-57,49,-105,105,-105xm177,-207v57,0,105,48,105,105v0,56,-48,105,-105,105v-56,0,-105,-49,-105,-105v0,-57,49,-105,105,-105","w":331},";":{"d":"177,-457v57,0,105,48,105,105v0,56,-48,105,-105,105v-56,0,-105,-49,-105,-105v0,-57,49,-105,105,-105xm264,50r-174,128r0,-352r174,0r0,224","w":317},"<":{"d":"890,-206r-377,377r-377,-377r0,-205r300,304r0,-654r154,0r0,654r300,-304r0,205","w":1027},"=":{"d":"507,-340r-458,0r0,-154r458,0r0,154xm507,-96r-458,0r0,-154r458,0r0,154"},">":{"d":"891,-180r-300,-304r0,655r-154,0r0,-655r-300,304r0,-205r377,-377r377,377r0,205","w":1027},"?":{"d":"284,-718v128,0,224,84,224,210v0,83,-78,159,-120,215v-14,19,-19,32,-18,56r-164,0v-10,-106,61,-160,111,-216v40,-45,35,-118,-33,-117v-40,0,-60,21,-60,63r-164,0v-2,-125,96,-211,224,-211xm288,-187v51,0,95,44,95,95v0,51,-44,95,-95,95v-51,0,-95,-44,-95,-95v0,-51,44,-95,95,-95","w":538},"@":{"d":"463,-718v192,1,272,78,272,269r0,453r-151,-4r0,-40v-32,31,-70,46,-113,46v-126,0,-168,-78,-168,-232v0,-154,40,-232,167,-232v44,0,80,14,109,41v6,-99,-33,-154,-127,-153r-120,0v-84,0,-127,43,-127,127r0,262v0,33,12,62,36,86r-113,113v-54,-55,-79,-92,-79,-189r0,-278v1,-191,80,-268,272,-269r142,0xm579,-226v0,-64,-20,-96,-60,-96v-40,0,-60,32,-60,96v0,64,20,96,60,96v40,0,60,-32,60,-96","w":784},"A":{"d":"653,0r-183,0r-33,-106r-219,0r-35,106r-183,0r259,-712r135,0xm391,-252r-60,-190r-64,190r124,0","w":653},"B":{"d":"367,-712v138,-2,227,76,227,206v0,59,-26,106,-78,141v59,37,88,88,88,155v0,131,-93,210,-222,210r-310,0r0,-712r295,0xm419,-497v0,-79,-100,-54,-172,-58r0,116v72,-4,172,21,172,-58xm429,-220v0,-86,-106,-57,-182,-62r0,125v77,-4,182,24,182,-63","w":653},"C":{"d":"224,-356v0,140,-3,206,95,206v28,0,55,-13,81,-39r116,116v-99,106,-297,106,-395,-1v-65,-71,-72,-130,-72,-282v0,-153,6,-210,72,-282v98,-107,296,-107,395,-1r-116,116v-26,-26,-53,-39,-81,-39v-98,0,-95,67,-95,206","w":547},"D":{"d":"596,-510v6,31,6,278,0,308v-22,118,-119,202,-260,202r-264,0r0,-712v174,6,368,-28,456,70v35,39,58,81,68,132xm324,-156v101,-8,103,-72,103,-200v0,-88,-7,-141,-19,-160v-27,-46,-92,-40,-161,-40r0,400r77,0","w":651},"E":{"d":"556,0r-484,0r0,-712r484,0r0,156r-309,0r0,119r264,0r0,156r-264,0r0,125r309,0r0,156","w":608},"F":{"d":"556,-556r-309,0r0,125r264,0r0,156r-264,0r0,275r-175,0r0,-712r484,0r0,156","w":596},"G":{"d":"319,-150v65,0,101,-44,98,-114r-98,0r0,-146r272,0r0,96v12,207,-99,315,-272,320v-131,4,-241,-85,-262,-209v-8,-48,-7,-258,0,-306v24,-165,216,-251,385,-189v32,12,64,35,97,68r-119,119v-34,-33,-48,-51,-101,-51v-97,0,-95,65,-95,206v0,142,-4,206,95,206","w":633},"H":{"d":"608,0r-175,0r0,-282r-186,0r0,282r-175,0r0,-712r175,0r0,274r186,0r0,-274r175,0r0,712","w":680},"I":{"d":"247,0r-175,0r0,-712r175,0r0,712","w":319},"J":{"d":"454,-244v9,185,-192,296,-375,232v-30,-10,-58,-31,-87,-60r115,-114v56,64,172,43,172,-62r0,-464r175,0r0,468","w":516},"K":{"d":"673,0r-204,0r-164,-292r-60,69r0,223r-173,0r0,-712r173,0r0,252r206,-252r214,0r-243,288","w":673},"L":{"d":"546,0r-474,0r0,-712r175,0r0,556r299,0r0,156","w":576},"M":{"d":"736,0r-175,0r0,-341r-101,176r-112,0r-101,-176r0,341r-175,0r0,-712r172,0r160,314r160,-314r172,0r0,712","w":808},"N":{"d":"628,0r-153,0r-228,-358r0,358r-175,0r0,-712r153,0r228,358r0,-358r175,0r0,712","w":700},"O":{"d":"583,-509v8,48,8,259,0,306v-22,125,-131,209,-263,209v-132,0,-241,-84,-263,-209v-8,-48,-8,-259,0,-306v22,-125,131,-209,263,-209v132,0,241,84,263,209xm320,-150v96,-12,96,-64,96,-206v0,-142,2,-194,-96,-206v-98,11,-96,65,-96,206v0,143,-1,193,96,206","w":640},"P":{"d":"354,-712v137,-3,243,95,243,229v0,134,-106,233,-243,229r-107,0r0,254r-175,0r0,-712r282,0xm346,-411v42,2,76,-32,76,-72v0,-40,-34,-72,-76,-72r-99,0r0,144r99,0","w":627},"Q":{"d":"591,-356v0,124,-2,174,-41,243r52,52r-89,89r-55,-55v-106,58,-261,38,-337,-47v-64,-72,-72,-130,-72,-282v0,-153,6,-210,72,-282v98,-108,299,-108,398,0v65,71,73,130,72,282xm224,-356v0,147,0,203,110,205r-45,-45r89,-89r34,34v3,-32,4,-67,4,-105v0,-142,2,-194,-96,-206v-98,11,-96,65,-96,206","w":640},"R":{"d":"354,-712v137,-3,244,95,243,229v0,85,-39,147,-116,186r154,297r-203,0r-126,-265r-59,0r0,265r-175,0r0,-712r282,0xm346,-411v42,2,76,-32,76,-72v0,-40,-34,-72,-76,-72r-99,0r0,144r99,0","w":652},"S":{"d":"429,-523v-39,-48,-221,-73,-221,24v0,63,91,56,149,66v125,21,192,76,193,215v1,142,-125,224,-275,224v-119,0,-209,-31,-270,-94r112,-112v33,33,86,50,159,50v68,0,102,-21,102,-64v0,-67,-88,-64,-147,-73v-128,-19,-192,-87,-192,-206v0,-138,113,-225,260,-225v103,0,183,28,240,85","w":593},"T":{"d":"555,-556r-175,0r0,556r-175,0r0,-556r-175,0r0,-156r525,0r0,156","w":585},"U":{"d":"329,-150v60,0,96,-42,96,-104r0,-458r175,0r0,462v4,150,-123,256,-271,256v-150,0,-269,-108,-269,-256r0,-462r175,0r0,458v-1,63,34,104,94,104","w":660},"V":{"d":"601,-712r-236,712r-130,0r-235,-712r181,0r120,398r118,-398r182,0","w":601},"W":{"d":"906,-712r-195,712r-143,0r-115,-351r-115,351r-142,0r-196,-712r183,0r93,376r115,-376r124,0r115,376r93,-376r183,0","w":906},"X":{"d":"634,0r-200,0r-117,-219r-117,219r-200,0r222,-365r-208,-347r199,0r104,201r104,-201r199,0r-208,347","w":634},"Y":{"d":"605,-712r-215,422r0,290r-175,0r0,-290r-215,-422r191,0r112,256r111,-256r191,0","w":605},"Z":{"d":"513,0r-483,0r0,-136r273,-420r-261,0r0,-156r471,0r0,136r-274,420r274,0r0,156","w":543},"[":{"d":"376,74r-304,0r0,-860r304,0r0,148r-140,0r0,564r140,0r0,148","w":416},"\\":{"d":"431,74r-152,0r-279,-842r152,0","w":431},"]":{"d":"344,74r-304,0r0,-148r140,0r0,-564r-140,0r0,-148r304,0r0,860","w":416},"^":{"d":"583,-375r-173,0r-90,-165r-90,165r-173,0r187,-345r152,0","w":640},"_":{"d":"640,186r-640,0r0,-108r640,0r0,108","w":640},"`":{"d":"308,-610r-99,0r-118,-180r168,0","w":500},"a":{"d":"50,-472v54,-52,96,-72,196,-72v158,0,237,65,237,195r0,349r-160,0r0,-44v-33,33,-73,49,-120,49v-106,2,-177,-69,-176,-174v1,-99,78,-156,183,-156r109,0v17,-96,-121,-101,-167,-45xm238,-128v59,0,85,-23,81,-88v-55,2,-135,-15,-135,43v0,30,18,45,54,45","w":536},"b":{"d":"346,-544v145,0,180,98,180,275v0,179,-34,275,-181,275v-49,0,-91,-17,-124,-50r0,44r-159,0r0,-712r164,0r0,213v30,-30,70,-45,120,-45xm294,-142v64,0,68,-47,68,-127v0,-81,-4,-127,-68,-127v-64,0,-68,47,-68,127v0,81,4,127,68,127","w":569},"c":{"d":"38,-269v0,-170,79,-273,242,-275v72,0,131,23,177,69r-111,111v-67,-65,-144,-29,-144,95v0,124,77,160,144,95r111,111v-46,46,-105,69,-177,69v-162,-2,-242,-106,-242,-275","w":475},"d":{"d":"43,-269v0,-178,34,-275,180,-275v50,0,90,15,120,45r0,-213r164,0r0,712r-159,0r0,-44v-33,33,-75,50,-124,50v-147,0,-181,-97,-181,-275xm275,-142v64,0,68,-47,68,-127v0,-81,-4,-127,-68,-127v-64,0,-68,47,-68,127v0,81,4,127,68,127","w":569},"e":{"d":"279,-544v145,0,244,107,242,255r0,73r-322,0v1,101,153,105,206,39r98,98v-57,56,-107,85,-209,85v-171,0,-256,-92,-256,-275v0,-159,88,-275,241,-275xm359,-325v11,-87,-122,-114,-151,-42v-6,13,-9,27,-9,42r160,0","w":559},"f":{"d":"79,-517v-12,-127,52,-206,167,-206r87,0r0,138v-39,2,-93,-11,-90,33r0,35r90,0r0,126r-90,0r0,391r-164,0r0,-391r-49,0r0,-126r49,0","w":358},"g":{"d":"219,-34v-136,0,-183,-88,-176,-255v5,-113,1,-154,50,-207v59,-64,186,-66,247,2r0,-44r159,0r0,499v1,131,-106,219,-243,219v-88,0,-155,-23,-202,-70r102,-102v46,53,190,50,179,-48r0,-39v-30,30,-69,45,-116,45xm271,-182v55,0,64,-39,64,-107v0,-68,-9,-107,-64,-107v-55,0,-64,40,-64,107v0,67,9,107,64,107","w":561},"h":{"d":"344,-544v110,-1,172,81,172,195r0,349r-164,0r0,-326v1,-40,-24,-70,-63,-70v-39,0,-63,30,-63,70r0,326r-164,0r0,-712r164,0r0,218v33,-33,73,-50,118,-50","w":573},"i":{"d":"144,-762v53,0,100,47,100,100v0,53,-47,100,-100,100v-53,0,-100,-47,-100,-100v0,-53,47,-100,100,-100xm226,0r-164,0r0,-517r164,0r0,517","w":288},"j":{"d":"144,-762v53,0,100,47,100,100v0,53,-47,100,-100,100v-53,0,-100,-47,-100,-100v0,-53,47,-100,100,-100xm226,21v0,94,-70,162,-167,159r-87,0r0,-138v39,-2,90,11,90,-33r0,-526r164,0r0,538","w":288},"k":{"d":"573,0r-203,0r-112,-197r-32,35r0,162r-164,0r0,-712r164,0r0,362r145,-188r197,0r-198,223","w":573},"l":{"d":"224,0v-98,3,-167,-65,-167,-159r0,-553r164,0r0,541v-3,44,51,31,90,33r0,138r-87,0","w":341},"m":{"d":"630,-544v121,0,188,87,188,200r0,344r-164,0r0,-322v1,-44,-25,-74,-66,-74v-41,0,-67,30,-66,74r0,322r-164,0r0,-322v1,-44,-25,-74,-66,-74v-41,0,-67,30,-66,74r0,322r-164,0r0,-538r160,0r0,44v65,-69,197,-66,256,7v43,-38,94,-57,152,-57","w":875},"n":{"d":"347,-544v113,0,175,83,175,200r0,344r-164,0r0,-322v1,-44,-25,-74,-66,-74v-41,0,-67,30,-66,74r0,322r-164,0r0,-538r160,0r0,44v33,-33,75,-50,125,-50","w":579},"o":{"d":"275,-544v154,0,232,96,232,275v0,180,-77,275,-232,275v-154,0,-232,-96,-232,-275v0,-180,77,-275,232,-275xm275,-142v61,0,68,-47,68,-127v0,-81,-7,-127,-68,-127v-61,0,-68,47,-68,127v0,81,7,127,68,127","w":550},"p":{"d":"345,-544v147,0,181,97,181,275v0,178,-34,275,-180,275v-50,0,-90,-15,-120,-45r0,213r-164,0r0,-712r159,0r0,44v33,-33,75,-50,124,-50xm294,-142v64,0,68,-47,68,-127v0,-81,-4,-127,-68,-127v-64,0,-68,47,-68,127v0,81,4,127,68,127","w":569},"q":{"d":"43,-269v0,-179,34,-275,181,-275v49,0,91,17,124,50r0,-44r159,0r0,712r-164,0r0,-213v-30,30,-70,45,-120,45v-145,0,-180,-98,-180,-275xm275,-142v64,0,68,-47,68,-127v0,-81,-4,-127,-68,-127v-64,0,-68,47,-68,127v0,81,4,127,68,127","w":569},"r":{"d":"351,-368v-43,-52,-125,-26,-125,46r0,322r-164,0r0,-538r160,0r0,44v62,-66,191,-67,253,0","w":475},"s":{"d":"39,-366v0,-109,99,-178,214,-178v97,0,168,22,212,66r-101,101v-21,-21,-59,-32,-114,-32v-63,0,-72,57,-18,61v83,7,165,14,206,62v25,29,39,65,39,110v0,121,-102,182,-233,182v-121,0,-171,-19,-234,-78r106,-106v30,30,74,45,131,45v47,0,70,-12,70,-35v0,-47,-79,-37,-122,-42v-104,-13,-156,-62,-156,-156","w":504},"t":{"d":"241,0v-98,3,-167,-65,-167,-159r0,-232r-49,0r0,-126r49,0r0,-154r164,0r0,154r85,0r0,126r-85,0r0,220v-3,42,47,32,85,33r0,138r-82,0","w":363},"u":{"d":"287,-142v41,0,67,-30,66,-74r0,-322r164,0r0,538r-160,0r0,-44v-33,33,-75,50,-125,50v-113,0,-175,-83,-175,-200r0,-344r164,0r0,322v-1,44,25,74,66,74","w":579},"v":{"d":"521,-538r-198,538r-125,0r-198,-538r172,0r89,279r88,-279r172,0","w":521},"w":{"d":"780,-538r-162,538r-131,0r-97,-295r-97,295r-131,0r-162,-538r173,0r67,279r93,-279r114,0r93,279r67,-279r173,0","w":780},"x":{"d":"556,0r-197,0r-82,-136r-80,136r-197,0r187,-275r-180,-263r197,0r73,130r75,-130r197,0r-180,263"},"y":{"d":"522,-538r-223,602v-36,98,-104,124,-225,116r0,-148v47,2,77,-2,90,-40r15,-45r-179,-485r172,0r91,279r87,-279r172,0","w":514},"z":{"d":"449,0r-419,0r0,-121r205,-269r-193,0r0,-148r407,0r0,121r-209,269r209,0r0,148","w":489},"{":{"d":"335,-256v0,82,-21,198,73,182r70,0r0,148r-140,0v-101,4,-165,-69,-167,-159v-2,-86,21,-204,-73,-197r-58,0r0,-148v75,3,131,3,131,-78r0,-119v1,-90,66,-159,167,-159r140,0r0,148r-70,0v-61,1,-73,15,-73,78v0,95,12,190,-73,204v49,13,73,46,73,100","w":518},"|":{"d":"264,74r-164,0r0,-860r164,0r0,860","w":364},"}":{"d":"180,-786v101,-4,165,69,167,159v2,86,-21,204,73,197r58,0r0,148v-75,-3,-131,-3,-131,78r0,119v-1,90,-66,159,-167,159r-140,0r0,-148r70,0v61,-1,73,-15,73,-78v0,-95,-12,-190,73,-204v-84,-15,-73,-108,-73,-204v0,-60,-17,-78,-73,-78r-70,0r0,-148r140,0","w":518},"~":{"d":"215,-405v74,-6,139,59,207,59v31,0,61,-14,88,-41r106,104v-64,64,-126,96,-187,96v-74,0,-139,-59,-207,-59v-31,0,-61,14,-88,41r-104,-104v59,-56,95,-89,185,-96","w":646},"\u00d7":{"d":"517,-161r-104,104r-135,-135r-134,135r-105,-104r136,-134r-136,-135r104,-104r134,135r135,-135r105,104r-136,135"},"\u2013":{"d":"507,-218r-458,0r0,-154r458,0r0,154"},"\u2014":{"d":"1044,-220r-995,0r0,-158r995,0r0,158","w":1093},"\u2018":{"d":"221,-566r-164,0r0,-146r164,-120r0,266","w":278},"\u2019":{"d":"221,-565r-164,118r0,-265r164,0r0,147","w":278},"\u201c":{"d":"454,-566r-164,0r0,-146r164,-120r0,266xm220,-566r-163,0r0,-146r163,-120r0,266","w":511},"\u201d":{"d":"454,-565r-164,118r0,-265r164,0r0,147xm220,-565r-163,118r0,-265r163,0r0,147","w":511},"\u2026":{"d":"745,-207v57,0,105,48,105,105v0,56,-48,105,-105,105v-56,0,-105,-49,-105,-105v0,-57,49,-105,105,-105xm449,-207v56,0,105,48,105,105v0,56,-48,105,-104,105v-57,0,-106,-49,-106,-105v0,-56,49,-105,105,-105xm154,-207v57,0,105,48,105,105v0,56,-48,105,-105,105v-56,0,-105,-49,-105,-105v0,-57,49,-105,105,-105","w":899},"\u2122":{"d":"906,-285r-117,0r0,-219r-67,131r-100,0r-67,-131r0,219r-117,0r0,-427r117,0r117,210r117,-210r117,0r0,427xm377,-608r-105,0r0,323r-116,0r0,-323r-105,0r0,-104r326,0r0,104","w":973},"\u00a0":{"w":222}}});
