Cufon.registerFont({"w":1139,"face":{"font-family":"die","font-weight":900,"font-stretch":"normal","units-per-em":"2048","panose-1":"2 2 5 0 0 0 0 0 0 0","ascent":"1638","descent":"-410","x-height":"12","bbox":"-113 -2112 2425 410","underline-thickness":"108","underline-position":"-78","unicode-range":"U+0020-U+2219"},"glyphs":{" ":{"w":455},"\u00d0":{"d":"1262,-1114v37,128,28,333,28,504v0,228,-30,345,-151,467v-89,90,-225,143,-394,143r-540,0r0,-600r-133,0r0,-274r133,0r0,-584r540,0v268,-4,458,145,517,344xm924,-490v8,-54,8,-424,0,-479v-17,-112,-89,-170,-203,-170r-158,0r0,265r185,0r0,274r-185,0r0,281r158,0v114,-1,186,-61,203,-171","w":1391},"\u00f0":{"d":"970,-856v57,135,69,418,26,572v-49,175,-216,296,-433,296v-215,0,-381,-122,-433,-296v-32,-108,-33,-385,0,-493v49,-163,190,-280,390,-294r-41,-82r-231,0r0,-233r117,0r-46,-95r361,0r45,95r199,0r0,233r-84,0r53,117v35,75,58,136,77,180xm563,-291v122,0,123,-104,123,-239v0,-136,-2,-240,-123,-240v-119,0,-123,105,-123,240v-1,131,4,239,123,239","w":1126},"\u0160":{"d":"1016,-1968r-279,367r-258,0r-279,-367r246,0r162,170r162,-170r246,0xm602,-1157v-126,-7,-229,112,-147,203v52,58,182,52,276,67v258,42,395,154,395,441v0,308,-250,458,-563,458v-257,0,-421,-56,-553,-192r230,-230v66,70,194,102,325,103v139,0,209,-44,209,-131v0,-151,-178,-129,-301,-150v-244,-41,-393,-154,-393,-422v0,-300,221,-460,532,-460v225,0,377,57,492,174r-225,225v-71,-72,-144,-79,-277,-86","w":1214},"\u0161":{"d":"926,-1616r-279,367r-258,0r-279,-367r246,0r162,170r162,-170r246,0xm512,-838v-59,0,-109,21,-109,64v0,35,24,56,72,61v128,15,271,18,357,73v89,57,144,146,145,280v2,323,-326,405,-655,362v-125,-16,-222,-66,-302,-149r218,-218v61,62,151,93,268,93v56,0,143,-17,143,-72v0,-42,-27,-65,-80,-70v-190,-14,-378,-30,-450,-164v-46,-85,-52,-238,-3,-329v71,-130,210,-207,402,-207v201,0,332,32,434,135r-207,207v-44,-44,-122,-66,-233,-66","w":1032},"\u00dd":{"d":"1239,-1458r-440,864r0,594r-359,0r0,-594r-440,-864r391,0r230,524r227,-524r391,0xm944,-1970r-242,369r-203,0r101,-369r344,0","w":1239},"\u00fd":{"d":"1069,-1102r-457,1233v-50,146,-149,237,-333,238r-127,0r0,-303v52,-1,114,4,143,-17v37,-27,52,-107,72,-158r-367,-993r352,0r187,572r178,-572r352,0xm852,-1618r-242,369r-203,0r101,-369r344,0","w":1053},"\u00de":{"d":"1164,-968v78,140,78,321,0,461v-76,138,-226,239,-439,239r-219,0r0,268r-359,0r0,-1458r359,0r0,252v189,0,368,-10,488,66v73,46,131,101,170,172xm709,-590v92,-1,155,-59,155,-147v0,-89,-63,-148,-155,-148r-203,0r0,295r203,0","w":1284},"\u00fe":{"d":"463,-1022v60,-59,132,-91,246,-92v181,-2,323,104,350,266v26,153,26,439,0,594v-27,162,-170,266,-350,266v-103,0,-185,-31,-246,-92r0,436r-336,0r0,-1814r336,0r0,436xm602,-291v137,0,139,-118,139,-260v0,-142,-2,-260,-139,-260v-136,0,-139,105,-139,260v0,142,2,260,139,260","w":1169},"\u00bd":{"d":"1477,-883v168,-3,296,106,292,273v-3,119,-45,156,-120,227r-179,170r299,0r0,213r-587,0r0,-213r309,-315v28,-31,43,-38,45,-82v1,-36,-22,-61,-59,-60v-39,0,-58,21,-58,62r-237,0v2,-177,120,-272,295,-275xm1350,-1458r-695,1458r-258,0r695,-1458r258,0xm504,-584r-238,0r0,-608r-194,168r0,-266r194,-168r238,0r0,874","w":1851},"\u00bc":{"d":"1702,-109r-53,0r0,109r-224,0r0,-109r-366,0r0,-225r282,-540r261,0r-285,540r108,0r0,-76r224,0r0,76r53,0r0,225xm1350,-1458r-695,1458r-258,0r695,-1458r258,0xm504,-584r-238,0r0,-608r-194,168r0,-266r194,-168r238,0r0,874","w":1784},"\u00b9":{"d":"504,-584r-238,0r0,-608r-194,168r0,-266r194,-168r238,0r0,874","w":637},"\u00be":{"d":"1743,-109r-53,0r0,109r-224,0r0,-109r-366,0r0,-225r282,-540r260,0r-284,540r108,0r0,-76r224,0r0,76r53,0r0,225xm1391,-1458r-695,1458r-258,0r695,-1458r258,0xm596,-1036v49,47,90,91,90,184v0,233,-243,332,-450,248v-92,-37,-155,-127,-154,-258r235,0v0,49,22,74,66,74v43,0,67,-27,66,-72v-2,-48,-41,-79,-101,-70r0,-203v55,8,93,-16,94,-59v1,-37,-23,-61,-57,-61v-34,0,-58,26,-57,63r-238,0v4,-171,124,-273,295,-276v160,-3,293,109,293,266v0,87,-34,124,-82,164","w":1825},"\u00b3":{"d":"596,-1036v49,47,90,91,90,184v0,233,-243,332,-450,248v-92,-37,-155,-127,-154,-258r235,0v0,49,22,74,66,74v43,0,67,-27,66,-72v-2,-48,-41,-79,-101,-70r0,-203v55,8,93,-16,94,-59v1,-37,-23,-61,-57,-61v-34,0,-58,26,-57,63r-238,0v4,-171,124,-273,295,-276v160,-3,293,109,293,266v0,87,-34,124,-82,164","w":768},"\u00b2":{"d":"377,-1466v168,-3,297,103,293,272v-3,118,-47,156,-121,227r-178,170r299,0r0,213r-588,0r0,-213r309,-315v28,-32,43,-36,45,-82v1,-36,-23,-59,-59,-59v-39,0,-58,20,-58,61r-237,0v2,-178,121,-271,295,-274","w":752},"\u00a6":{"d":"541,-893r-336,0r0,-717r336,0r0,717xm541,152r-336,0r0,-717r336,0r0,717","w":745},"\u00ad":{"d":"1038,-446r-938,0r0,-316r938,0r0,316"},"\u00d7":{"d":"1059,-330r-213,213r-277,-276r-274,276r-215,-213r278,-274r-278,-277r213,-213r274,277r277,-277r215,213r-279,277"},"!":{"d":"627,-1458r-90,973r-242,0r-90,-973r422,0xm588,0r-344,0r0,-330r344,0r0,330","w":750},"\"":{"d":"883,-979r-301,0r0,-479r301,0r0,479xm418,-979r-301,0r0,-479r301,0r0,479","w":999},"#":{"d":"1364,-844r-170,0r-27,180r119,0r0,318r-170,0r-55,346r-356,0r55,-346r-185,0r-55,346r-356,0r55,-346r-119,0r0,-318r170,0r27,-180r-119,0r0,-317r170,0r49,-314r357,0r-49,314r184,0r49,-314r356,0r-49,314r119,0r0,317xm838,-844r-185,0r-26,180r184,0","w":1460},"$":{"d":"80,-1010v5,-268,182,-423,432,-454r0,-187r258,0r0,183v173,10,311,67,416,172r-225,225v-49,-49,-127,-77,-232,-84r0,256v295,30,479,132,479,453v0,263,-199,411,-438,448r0,231r-258,0r0,-221v-231,-9,-378,-65,-502,-192r230,-230v65,66,170,100,313,103r0,-271v-281,-20,-478,-134,-473,-432xm553,-1153v-98,7,-169,122,-98,199v22,24,55,37,98,43r0,-242xm856,-438v0,-87,-43,-114,-127,-125r0,250v85,-17,127,-58,127,-125","w":1296},"%":{"d":"1354,-752v181,0,309,98,309,285r0,195v-1,186,-128,284,-309,284v-182,0,-310,-98,-310,-284r0,-195v1,-187,128,-285,310,-285xm1354,-1458r-695,1458r-258,0r695,-1458r258,0xm401,-1470v182,0,310,98,310,284r0,195v-2,186,-128,284,-310,284v-181,0,-309,-99,-309,-284r0,-195v1,-185,128,-284,309,-284xm1425,-281r0,-178v0,-53,-24,-80,-71,-80v-48,0,-72,27,-72,80r0,178v0,53,24,80,72,80v47,0,71,-27,71,-80xm473,-999r0,-179v0,-53,-24,-79,-72,-79v-47,0,-71,26,-71,79r0,179v0,53,24,79,71,79v48,0,72,-26,72,-79","w":1755},"&":{"d":"956,-580v38,-41,62,-137,68,-211r315,0v-15,197,-71,349,-170,457r285,334r-422,0r-92,-106v-114,77,-161,117,-346,118v-319,3,-494,-150,-494,-454v0,-171,121,-289,232,-365v-71,-80,-137,-157,-137,-301v0,-249,172,-362,428,-362v195,0,323,80,380,217v35,85,38,212,-9,287v-44,70,-135,136,-210,188xm608,-981v38,-25,110,-73,107,-121v-3,-53,-34,-86,-92,-86v-79,0,-115,68,-79,130v19,32,39,51,64,77xm424,-444v-4,115,138,185,252,140v20,-9,40,-22,61,-40r-227,-260v-57,39,-84,76,-86,160","w":1454},"'":{"d":"420,-979r-303,0r0,-479r303,0r0,479","w":537},"(":{"d":"408,193v-157,-161,-261,-222,-261,-527r0,-790v4,-304,104,-367,261,-527r225,226v-77,78,-150,137,-150,313r0,766v-5,175,69,231,150,313","w":733},")":{"d":"250,-1112v0,-184,-60,-224,-150,-313r226,-226v96,99,138,130,200,232v50,81,60,165,60,295r0,790v6,289,-110,374,-260,527r-226,-226r44,-43v64,-66,106,-122,106,-270r0,-766","w":733},"*":{"d":"940,-928r-115,199r-202,-131r10,242r-230,0r11,-242r-203,131r-115,-199r215,-110r-215,-111r115,-199r203,131r-11,-241r230,0r-10,241r202,-131r115,199r-215,111","w":1036},"+":{"d":"1038,-422r-311,0r0,311r-315,0r0,-311r-312,0r0,-315r312,0r0,-312r315,0r0,312r311,0r0,315"},",":{"d":"473,102r-356,263r0,-721r356,0r0,458","w":590},"-":{"d":"772,-446r-672,0r0,-316r672,0r0,316","w":872},".":{"d":"485,0r-368,0r0,-369r368,0r0,369","w":602},"\/":{"d":"895,-1610r-584,1762r-311,0r584,-1762r311,0","w":883},"0":{"d":"569,12v-276,0,-469,-168,-469,-454r0,-574v2,-229,125,-365,294,-426v183,-65,400,-9,502,87v82,77,142,185,142,339r0,574v-7,291,-185,454,-469,454xm569,-291v81,0,133,-59,133,-149r0,-576v2,-91,-51,-151,-133,-151v-81,0,-133,63,-133,151r0,576v-2,88,52,149,133,149"},"1":{"d":"831,0r-335,0r0,-1100r-312,271r0,-359r312,-270r335,0r0,1458"},"2":{"d":"580,-1470v281,0,467,162,467,440v0,188,-69,239,-181,358r-348,369r529,0r0,303r-938,0r0,-303r528,-574v45,-52,72,-76,74,-155v2,-82,-48,-136,-131,-135v-82,2,-139,47,-136,141r-335,0v5,-280,192,-444,471,-444"},"3":{"d":"889,-754v96,70,168,154,168,318v0,284,-212,451,-486,448v-288,-3,-483,-160,-485,-456r336,0v-2,94,60,153,149,153v93,0,152,-57,150,-155v-1,-106,-82,-167,-203,-154r0,-291v115,10,185,-36,187,-137v2,-83,-57,-139,-134,-139v-76,0,-135,57,-133,137r-336,0v2,-220,122,-350,286,-410v134,-49,307,-36,424,25v128,66,228,197,228,377v0,125,-50,220,-151,284"},"4":{"d":"1085,-193r-108,0r0,193r-320,0r0,-193r-604,0r0,-319r484,-946r368,0r-483,946r235,0r0,-193r320,0r0,193r108,0r0,319"},"5":{"d":"434,-930v75,-58,252,-76,360,-29v176,76,255,220,255,461v0,188,-41,290,-136,385v-71,70,-192,130,-338,125v-297,-9,-460,-163,-473,-456r336,0v12,102,58,153,137,153v108,0,138,-72,138,-207v0,-130,-29,-204,-138,-207v-90,-3,-109,42,-137,105r-309,0r0,-858r889,0r0,303r-584,0r0,225"},"6":{"d":"563,12v-323,0,-535,-228,-473,-572v21,-119,78,-221,127,-321r281,-577r368,0r-288,571v212,-42,374,84,437,243v23,55,34,117,34,187v-3,295,-196,469,-486,469xm563,-291v91,0,150,-69,150,-166v0,-98,-58,-166,-150,-166v-90,0,-149,69,-149,166v0,97,58,166,149,166"},"7":{"d":"1069,-1155r-455,1155r-368,0r454,-1155r-311,0r0,229r-319,0r0,-532r999,0r0,303"},"8":{"d":"895,-750v87,73,166,153,164,314v-3,296,-199,448,-490,448v-291,0,-486,-153,-489,-448v-2,-161,77,-241,164,-314v-79,-74,-152,-141,-150,-288v2,-218,128,-347,296,-404v184,-63,408,-9,512,84v79,71,141,177,142,320v1,145,-72,219,-149,288xm569,-889v77,0,140,-61,140,-139v0,-78,-63,-139,-140,-139v-75,0,-139,64,-139,139v0,75,64,139,139,139xm569,-291v83,0,156,-71,154,-153v-3,-88,-66,-151,-154,-154v-82,-2,-153,71,-153,154v0,82,71,153,153,153"},"9":{"d":"575,-1470v290,0,486,173,486,469v0,183,-63,266,-139,423r-281,578r-369,0r289,-571v-211,42,-373,-84,-437,-243v-22,-55,-34,-118,-34,-187v3,-295,195,-469,485,-469xm575,-836v90,0,150,-69,150,-165v0,-98,-58,-166,-150,-166v-90,0,-149,69,-149,166v0,96,59,165,149,165"},":":{"d":"532,-518r-368,0r0,-369r368,0r0,369xm532,0r-368,0r0,-369r368,0r0,369","w":649},";":{"d":"532,-518r-368,0r0,-369r368,0r0,369xm526,102r-356,263r0,-721r356,0r0,458","w":649},"<":{"d":"2005,-446r-1339,0r622,614r-420,0r-772,-772r772,-772r420,0r-622,614r1339,0r0,316","w":2103},"=":{"d":"1038,-696r-938,0r0,-316r938,0r0,316xm1038,-197r-938,0r0,-315r938,0r0,315"},">":{"d":"2007,-604r-772,772r-420,0r623,-614r-1342,0r0,-316r1342,0r-623,-614r420,0","w":2103},"?":{"d":"402,-1441v315,-106,638,74,638,401v0,165,-158,327,-245,440v-21,27,-40,67,-37,115r-336,0v-4,-129,22,-202,84,-275r143,-168v37,-42,56,-80,56,-114v0,-77,-44,-125,-123,-125v-81,0,-123,50,-123,129r-336,0v4,-216,114,-348,279,-403xm762,0r-344,0r0,-330r344,0r0,330","w":1102},"@":{"d":"948,-1470v382,-5,557,163,557,550r0,928r-309,-8r0,-82v-60,58,-119,92,-231,94v-167,3,-296,-96,-327,-233v-22,-96,-21,-387,0,-483v30,-136,161,-234,325,-234v89,0,164,28,223,84v12,-203,-68,-313,-260,-313r-246,0v-171,1,-260,86,-260,260r0,536v1,96,23,121,74,176r-232,232v-105,-105,-162,-190,-162,-387r0,-570v-8,-379,174,-560,557,-550r291,0xm1063,-266v103,0,123,-75,123,-197v0,-123,-19,-196,-123,-196v-104,0,-123,73,-123,196v0,122,20,197,123,197","w":1606},"A":{"d":"1337,0r-374,0r-68,-217r-449,0r-71,217r-375,0r530,-1458r277,0xm801,-516r-123,-389r-131,389r254,0","w":1337},"B":{"d":"1057,-748v99,64,185,145,180,318v-6,281,-178,430,-455,430r-635,0r0,-1458r605,0v285,2,458,145,465,422v3,136,-85,236,-160,288xm729,-899v81,3,129,-48,129,-119v0,-72,-46,-119,-129,-119r-223,0r0,238r223,0xm748,-322v85,3,131,-53,131,-129v0,-76,-46,-127,-131,-127r-242,0r0,256r242,0","w":1337},"C":{"d":"655,-307v113,1,161,-66,187,-156r364,0v-50,287,-226,467,-553,475v-249,6,-480,-164,-527,-382v-38,-178,-36,-538,0,-718v30,-152,168,-286,302,-342v118,-49,297,-52,425,-10v195,64,316,219,353,445r-364,0v-26,-91,-72,-161,-187,-156v-205,9,-196,188,-196,422v0,188,-4,269,55,360v28,44,79,62,141,62","w":1247},"D":{"d":"1181,-1176v70,145,48,358,52,566v4,224,-37,354,-152,467v-95,95,-226,143,-393,143r-541,0r0,-1458r541,0v238,-7,414,118,493,282xm860,-452v25,-97,16,-422,6,-514v-12,-113,-88,-173,-202,-173r-158,0r0,820r158,0v99,3,175,-51,196,-133","w":1333},"E":{"d":"1139,0r-992,0r0,-1458r992,0r0,319r-633,0r0,244r541,0r0,320r-541,0r0,256r633,0r0,319","w":1245},"F":{"d":"1139,-1139r-633,0r0,256r541,0r0,320r-541,0r0,563r-359,0r0,-1458r992,0r0,319","w":1221},"G":{"d":"653,-307v143,0,222,-85,215,-234r-215,0r0,-299r572,0v0,169,6,379,-33,494v-73,214,-250,358,-539,358v-249,0,-480,-164,-527,-382v-38,-178,-35,-538,0,-718v30,-152,169,-288,301,-342v64,-27,139,-40,226,-40v336,0,528,205,570,483r-361,0v-29,-109,-78,-164,-209,-164v-198,0,-195,193,-194,422v1,229,-8,422,194,422","w":1325},"H":{"d":"1245,0r-358,0r0,-578r-381,0r0,578r-359,0r0,-1458r359,0r0,561r381,0r0,-561r358,0r0,1458","w":1393},"I":{"d":"506,0r-359,0r0,-1458r359,0r0,1458","w":653},"J":{"d":"381,-307v119,0,190,-74,190,-201r0,-950r359,0r0,958v-4,327,-229,512,-549,512v-191,0,-298,-57,-397,-159r235,-234v55,48,72,74,162,74","w":1057},"K":{"d":"1378,0r-417,0r-336,-598r-123,141r0,457r-355,0r0,-1458r355,0r0,516r422,-516r438,0r-498,590","w":1378},"L":{"d":"1118,0r-971,0r0,-1458r359,0r0,1139r612,0r0,319","w":1180},"M":{"d":"1507,0r-358,0r0,-698r-207,360r-229,0r-207,-360r0,698r-359,0r0,-1458r353,0r327,643r328,-643r352,0r0,1458","w":1655},"N":{"d":"1286,0r-313,0r-467,-733r0,733r-359,0r0,-1458r314,0r467,733r0,-733r358,0r0,1458","w":1434},"O":{"d":"1063,-1307v141,134,147,354,147,627v0,242,-25,408,-147,528v-102,100,-216,164,-408,164v-192,0,-307,-68,-407,-164v-147,-140,-148,-341,-148,-626v0,-256,17,-399,148,-529v104,-102,214,-163,407,-163v192,0,303,63,408,163xm655,-1151v-204,11,-196,190,-196,422v0,163,-5,271,53,356v61,88,230,90,287,0v59,-92,53,-161,53,-356v0,-194,5,-267,-53,-358v-24,-37,-82,-67,-144,-64","w":1311},"P":{"d":"1164,-1220v77,140,78,321,0,461v-76,138,-226,239,-439,239r-219,0r0,520r-359,0r0,-1458r578,0v212,-2,363,100,439,238xm709,-842v92,-2,155,-58,155,-147v0,-89,-63,-148,-155,-148r-203,0r0,295r203,0","w":1284},"Q":{"d":"1202,-988v15,257,33,592,-76,757r107,106r-182,182r-113,-112v-148,92,-436,84,-576,-6v-103,-65,-211,-181,-236,-309v-35,-178,-35,-538,0,-718v30,-152,170,-287,302,-342v124,-52,333,-53,456,0v165,71,305,222,318,442xm655,-1151v-204,0,-196,190,-196,422v0,163,-7,272,53,356v37,52,96,73,172,64r-92,-92r182,-183r70,70v12,-119,10,-389,-4,-469v-19,-106,-71,-168,-185,-168","w":1311},"R":{"d":"1223,-989v0,187,-113,319,-238,381r315,608r-415,0r-258,-543r-121,0r0,543r-359,0r0,-1458r578,0v212,-2,364,100,439,238v39,71,59,148,59,231xm709,-842v92,-2,155,-58,155,-147v0,-89,-63,-148,-155,-148r-203,0r0,295r203,0","w":1335},"S":{"d":"602,-1157v-126,-7,-229,112,-147,203v52,58,182,52,276,67v258,42,395,154,395,441v0,308,-250,458,-563,458v-257,0,-421,-56,-553,-192r230,-230v66,70,194,102,325,103v139,0,209,-44,209,-131v0,-151,-178,-129,-301,-150v-244,-41,-393,-154,-393,-422v0,-300,221,-460,532,-460v225,0,377,57,492,174r-225,225v-71,-72,-144,-79,-277,-86","w":1214},"T":{"d":"1137,-1139r-359,0r0,1139r-358,0r0,-1139r-359,0r0,-319r1076,0r0,319","w":1198},"U":{"d":"674,-307v127,-1,196,-82,196,-213r0,-938r359,0r0,946v-5,256,-147,417,-341,488v-160,59,-347,44,-490,-29v-156,-80,-274,-237,-275,-459r0,-946r358,0r0,938v-2,128,70,214,193,213","w":1352},"V":{"d":"1231,-1458r-483,1458r-267,0r-481,-1458r371,0r245,815r242,-815r373,0","w":1231},"W":{"d":"1855,-1458r-399,1458r-293,0r-235,-719r-236,719r-291,0r-401,-1458r375,0r190,770r236,-770r254,0r235,770r191,-770r374,0","w":1855},"X":{"d":"1298,0r-409,0r-240,-449r-239,449r-410,0r455,-748r-426,-710r407,0r213,411r213,-411r408,0r-426,710","w":1298},"Y":{"d":"1239,-1458r-440,864r0,594r-359,0r0,-594r-440,-864r391,0r230,524r227,-524r391,0","w":1239},"Z":{"d":"1051,0r-990,0r0,-279r560,-860r-535,0r0,-319r965,0r0,278r-562,861r562,0r0,319","w":1112},"[":{"d":"770,152r-623,0r0,-1762r623,0r0,303r-287,0r0,1155r287,0r0,304","w":852},"\\":{"d":"883,152r-312,0r-571,-1725r311,0","w":883},"]":{"d":"705,152r-623,0r0,-304r287,0r0,-1155r-287,0r0,-303r623,0r0,1762","w":852},"^":{"d":"1194,-768r-354,0r-185,-338r-184,338r-354,0r383,-707r311,0","w":1311},"_":{"d":"1311,381r-1311,0r0,-221r1311,0r0,221","w":1311},"`":{"d":"631,-1249r-203,0r-242,-369r344,0","w":1024},"a":{"d":"504,-1114v298,-2,485,116,485,399r0,715r-327,0r0,-90v-71,65,-119,99,-246,100v-216,3,-365,-142,-361,-356v4,-212,150,-319,375,-320r223,0v6,-124,-42,-167,-166,-165v-94,1,-123,23,-176,73r-209,-209v112,-108,195,-146,402,-147xm487,-262v124,0,172,-48,166,-180r-170,0v-59,-1,-106,32,-106,88v1,56,47,92,110,92","w":1098},"b":{"d":"463,-1022v60,-59,132,-91,246,-92v181,-2,323,104,350,266v26,153,26,439,0,594v-28,163,-170,268,-352,266v-123,-1,-185,-36,-254,-102r0,90r-326,0r0,-1458r336,0r0,436xm602,-291v137,0,139,-118,139,-260v0,-142,-2,-260,-139,-260v-136,0,-139,105,-139,260v0,142,2,260,139,260","w":1165},"c":{"d":"414,-551v0,160,33,260,159,260v47,0,93,-22,136,-65r227,227v-83,83,-201,141,-363,141v-325,0,-495,-208,-495,-563v0,-355,166,-563,495,-563v161,0,278,56,363,141r-227,228v-44,-44,-89,-66,-136,-66v-126,0,-159,100,-159,260","w":973},"d":{"d":"713,-90v-69,65,-130,101,-254,102v-183,1,-323,-99,-352,-264v-28,-155,-29,-443,0,-598v31,-166,155,-264,350,-264v102,0,184,31,245,92r0,-436r336,0r0,1458r-325,0r0,-90xm563,-291v137,0,139,-118,139,-260v0,-142,-2,-260,-139,-260v-136,0,-139,105,-139,260v0,142,2,260,139,260","w":1165},"e":{"d":"78,-551v0,-330,185,-563,493,-563v315,0,490,208,496,522r0,150r-659,0v0,101,85,174,194,172v121,-2,162,-31,227,-92r201,200v-119,114,-209,174,-428,174v-349,0,-524,-188,-524,-563xm735,-666v-2,-105,-58,-172,-164,-172v-106,0,-161,67,-163,172r327,0","w":1145},"f":{"d":"162,-1059v-19,-262,97,-419,342,-422r178,0r0,283v-81,4,-191,-23,-184,68r0,71r184,0r0,258r-184,0r0,801r-336,0r0,-801r-101,0r0,-258r101,0","w":733},"g":{"d":"451,-1114v119,0,182,38,245,102r0,-90r326,0r0,1022v-5,345,-298,497,-662,436v-105,-18,-185,-63,-249,-131r208,-209v45,46,105,69,189,70v146,3,190,-98,178,-248v-117,129,-380,117,-496,-6v-96,-101,-102,-219,-102,-424v0,-320,70,-522,363,-522xm555,-373v118,0,131,-95,131,-219v0,-123,-13,-219,-131,-219v-118,0,-131,95,-131,219v0,123,13,219,131,219","w":1149},"h":{"d":"705,-1114v237,0,352,166,352,399r0,715r-336,0r0,-668v5,-92,-55,-143,-129,-143v-72,0,-129,53,-129,143r0,668r-336,0r0,-1458r336,0r0,446v57,-58,140,-102,242,-102","w":1174},"i":{"d":"463,-1214r-336,0r0,-256r336,0r0,256xm463,0r-336,0r0,-1059r336,0r0,1059","w":590},"j":{"d":"463,-1214r-336,0r0,-256r336,0r0,256xm463,43v-2,185,-135,335,-342,326r-178,0r0,-283v81,-3,184,23,184,-68r0,-1077r336,0r0,1102","w":590},"k":{"d":"1174,0r-416,0r-230,-403r-65,71r0,332r-336,0r0,-1458r336,0r0,741r297,-385r403,0r-405,457","w":1174},"l":{"d":"459,0v-212,0,-342,-129,-342,-326r0,-1132r336,0r0,1108v-6,90,104,63,184,67r0,283r-178,0","w":698},"m":{"d":"979,-997v87,-75,164,-116,311,-117v107,-1,210,39,264,94v80,81,121,168,121,315r0,705r-336,0r0,-659v5,-98,-57,-152,-135,-152v-77,0,-135,55,-135,152r0,659r-336,0r0,-659v5,-98,-57,-152,-135,-152v-77,0,-135,55,-135,152r0,659r-336,0r0,-1102r328,0r0,90v54,-57,155,-102,256,-102v110,0,199,39,268,117","w":1792},"n":{"d":"455,-1012v54,-57,155,-99,256,-102v167,-4,295,106,335,233v15,51,23,109,23,176r0,705r-336,0r0,-659v5,-98,-57,-152,-135,-152v-77,0,-135,55,-135,152r0,659r-336,0r0,-1102r328,0r0,90","w":1186},"o":{"d":"1012,-806v35,112,33,398,0,510v-53,180,-229,311,-449,308v-249,-4,-432,-141,-464,-376v-21,-153,-18,-395,38,-502v75,-143,207,-248,426,-248v244,0,391,126,449,308xm563,-291v136,0,139,-110,139,-260v0,-150,-4,-260,-139,-260v-134,0,-139,117,-139,260v0,143,5,260,139,260","w":1126},"p":{"d":"975,-1014v108,107,102,297,102,514v0,190,-11,316,-102,412v-119,125,-394,136,-512,8r0,436r-336,0r0,-1458r326,0r0,90v126,-139,393,-129,522,-2xm602,-291v137,0,139,-118,139,-260v0,-142,-2,-260,-139,-260v-136,0,-139,105,-139,260v0,142,2,260,139,260","w":1165},"q":{"d":"459,-1114v122,1,188,38,254,102r0,-90r325,0r0,1458r-336,0r0,-436v-85,93,-256,117,-394,65v-106,-40,-179,-117,-201,-237v-28,-155,-27,-442,0,-598v29,-165,169,-265,352,-264xm563,-291v137,0,139,-118,139,-260v0,-142,-2,-260,-139,-260v-136,0,-139,105,-139,260v0,142,2,260,139,260","w":1165},"r":{"d":"455,-1012v73,-83,263,-134,402,-79v40,15,79,42,116,79r-254,258v-36,-33,-58,-57,-121,-57v-75,0,-135,56,-135,152r0,659r-336,0r0,-1102r328,0r0,90","w":973},"s":{"d":"512,-838v-59,0,-109,21,-109,64v0,35,24,56,72,61v128,15,271,18,357,73v89,57,144,146,145,280v2,323,-326,405,-655,362v-125,-16,-222,-66,-302,-149r218,-218v61,62,151,93,268,93v56,0,143,-17,143,-72v0,-42,-27,-65,-80,-70v-190,-14,-378,-30,-450,-164v-46,-85,-52,-238,-3,-329v71,-130,210,-207,402,-207v201,0,332,32,434,135r-207,207v-44,-44,-122,-66,-233,-66","w":1032},"t":{"d":"494,0v-212,0,-342,-129,-342,-326r0,-475r-101,0r0,-258r101,0r0,-315r335,0r0,315r175,0r0,258r-175,0r0,451v-6,86,97,65,175,67r0,283r-168,0","w":743},"u":{"d":"588,-291v77,0,135,-54,135,-151r0,-660r336,0r0,1102r-328,0r0,-90v-55,58,-154,102,-256,102v-230,0,-358,-161,-358,-409r0,-705r336,0r0,660v-5,96,58,151,135,151","w":1186},"v":{"d":"1067,-1102r-405,1102r-256,0r-406,-1102r352,0r183,572r180,-572r352,0","w":1067},"w":{"d":"1597,-1102r-331,1102r-269,0r-198,-604r-199,604r-268,0r-332,-1102r354,0r138,572r190,-572r233,0r191,572r137,-572r354,0","w":1597},"x":{"d":"1139,0r-404,0r-168,-279r-164,279r-403,0r383,-563r-369,-539r404,0r149,266r154,-266r403,0r-368,539"},"y":{"d":"1069,-1102r-457,1233v-50,146,-149,237,-333,238r-127,0r0,-303v52,-1,114,4,143,-17v37,-27,52,-107,72,-158r-367,-993r352,0r187,572r178,-572r352,0","w":1053},"z":{"d":"920,0r-859,0r0,-248r420,-551r-395,0r0,-303r834,0r0,248r-428,551r428,0r0,303","w":1001},"{":{"d":"686,-311v4,126,22,159,150,159r143,0r0,304r-287,0v-207,7,-342,-142,-342,-326r0,-244v0,-115,-42,-160,-149,-160r-119,0r0,-303r119,0v108,-3,149,-44,149,-159r0,-244v3,-185,130,-326,342,-326r287,0r0,303r-143,0v-127,2,-150,34,-150,160r0,213v0,111,-50,179,-149,205v99,26,149,94,149,205r0,213","w":1061},"|":{"d":"541,152r-336,0r0,-1762r336,0r0,1762","w":745},"}":{"d":"711,-1040v0,116,41,159,149,159r119,0r0,303r-119,0v-105,2,-149,44,-149,160r0,244v-1,184,-135,326,-342,326r-287,0r0,-304r143,0v127,-1,150,-33,150,-159r0,-213v0,-111,50,-180,149,-205v-99,-25,-149,-94,-149,-205r0,-213v-3,-126,-24,-160,-150,-160r-143,0r0,-303r287,0v213,-5,342,141,342,326r0,244","w":1061},"~":{"d":"864,-709v87,0,126,-28,180,-84r218,213v-118,117,-237,220,-470,191v-117,-14,-217,-120,-337,-115v-91,4,-123,28,-181,84r-213,-213v119,-112,193,-196,379,-196v117,0,169,21,252,69v58,34,115,51,172,51","w":1323},"\u00c4":{"d":"1337,0r-374,0r-68,-217r-449,0r-71,217r-375,0r530,-1458r277,0xm801,-516r-123,-389r-131,389r254,0xm1037,-1599r-275,0r0,-297r275,0r0,297xm574,-1599r-275,0r0,-297r275,0r0,297","w":1337},"\u00c5":{"d":"668,-2112v163,0,283,118,283,283v0,197,-194,341,-391,261v-97,-39,-175,-128,-175,-261v0,-163,119,-283,283,-283xm668,-1723v57,0,106,-49,106,-106v0,-56,-49,-107,-106,-107v-57,0,-106,51,-106,107v0,57,49,106,106,106xm1337,0r-374,0r-68,-217r-449,0r-71,217r-375,0r530,-1458r277,0xm801,-516r-123,-389r-131,389r254,0","w":1337},"\u00c7":{"d":"655,-307v113,1,161,-66,187,-156r364,0v-50,287,-226,467,-553,475v-249,6,-480,-164,-527,-382v-38,-178,-36,-538,0,-718v30,-152,168,-286,302,-342v118,-49,297,-52,425,-10v195,64,316,219,353,445r-364,0v-26,-91,-72,-161,-187,-156v-205,9,-196,188,-196,422v0,188,-4,269,55,360v28,44,79,62,141,62xm788,115r-74,295r-299,0r137,-295r236,0","w":1247},"\u00c9":{"d":"1139,0r-992,0r0,-1458r992,0r0,319r-633,0r0,244r541,0r0,320r-541,0r0,256r633,0r0,319xm957,-1970r-242,369r-203,0r101,-369r344,0","w":1245},"\u00d1":{"d":"1286,0r-313,0r-467,-733r0,733r-359,0r0,-1458r314,0r467,733r0,-733r358,0r0,1458xm737,-1872v82,51,176,46,232,-20r143,141v-78,73,-128,120,-252,129v-117,8,-181,-80,-280,-80v-60,0,-79,17,-119,56r-139,-142v80,-75,124,-129,250,-129v59,0,115,14,165,45","w":1434},"\u00d6":{"d":"1063,-1307v141,134,147,354,147,627v0,242,-25,408,-147,528v-102,100,-216,164,-408,164v-192,0,-307,-68,-407,-164v-147,-140,-148,-341,-148,-626v0,-256,17,-399,148,-529v104,-102,214,-163,407,-163v192,0,303,63,408,163xm655,-1151v-204,11,-196,190,-196,422v0,163,-5,271,53,356v61,88,230,90,287,0v59,-92,53,-161,53,-356v0,-194,5,-267,-53,-358v-24,-37,-82,-67,-144,-64xm1024,-1599r-275,0r0,-297r275,0r0,297xm561,-1599r-275,0r0,-297r275,0r0,297","w":1311},"\u00dc":{"d":"674,-307v127,-1,196,-82,196,-213r0,-938r359,0r0,946v-5,256,-147,417,-341,488v-160,59,-347,44,-490,-29v-156,-80,-274,-237,-275,-459r0,-946r358,0r0,938v-2,128,70,214,193,213xm1045,-1599r-275,0r0,-297r275,0r0,297xm582,-1599r-275,0r0,-297r275,0r0,297","w":1352},"\u00e1":{"d":"504,-1114v298,-2,485,116,485,399r0,715r-327,0r0,-90v-71,65,-119,99,-246,100v-216,3,-365,-142,-361,-356v4,-212,150,-319,375,-320r223,0v6,-124,-42,-167,-166,-165v-94,1,-123,23,-176,73r-209,-209v112,-108,195,-146,402,-147xm487,-262v124,0,172,-48,166,-180r-170,0v-59,-1,-106,32,-106,88v1,56,47,92,110,92xm871,-1618r-242,369r-203,0r101,-369r344,0","w":1098},"\u00e0":{"d":"504,-1114v298,-2,485,116,485,399r0,715r-327,0r0,-90v-71,65,-119,99,-246,100v-216,3,-365,-142,-361,-356v4,-212,150,-319,375,-320r223,0v6,-124,-42,-167,-166,-165v-94,1,-123,23,-176,73r-209,-209v112,-108,195,-146,402,-147xm487,-262v124,0,172,-48,166,-180r-170,0v-59,-1,-106,32,-106,88v1,56,47,92,110,92xm664,-1249r-203,0r-242,-369r344,0","w":1098},"\u00e2":{"d":"504,-1114v298,-2,485,116,485,399r0,715r-327,0r0,-90v-71,65,-119,99,-246,100v-216,3,-365,-142,-361,-356v4,-212,150,-319,375,-320r223,0v6,-124,-42,-167,-166,-165v-94,1,-123,23,-176,73r-209,-209v112,-108,195,-146,402,-147xm487,-262v124,0,172,-48,166,-180r-170,0v-59,-1,-106,32,-106,88v1,56,47,92,110,92xm953,-1249r-246,0r-162,-170r-162,170r-246,0r279,-367r258,0","w":1098},"\u00e4":{"d":"504,-1114v298,-2,485,116,485,399r0,715r-327,0r0,-90v-71,65,-119,99,-246,100v-216,3,-365,-142,-361,-356v4,-212,150,-319,375,-320r223,0v6,-124,-42,-167,-166,-165v-94,1,-123,23,-176,73r-209,-209v112,-108,195,-146,402,-147xm487,-262v124,0,172,-48,166,-180r-170,0v-59,-1,-106,32,-106,88v1,56,47,92,110,92xm914,-1247r-275,0r0,-297r275,0r0,297xm451,-1247r-275,0r0,-297r275,0r0,297","w":1098},"\u00e3":{"d":"504,-1114v298,-2,485,116,485,399r0,715r-327,0r0,-90v-71,65,-119,99,-246,100v-216,3,-365,-142,-361,-356v4,-212,150,-319,375,-320r223,0v6,-124,-42,-167,-166,-165v-94,1,-123,23,-176,73r-209,-209v112,-108,195,-146,402,-147xm487,-262v124,0,172,-48,166,-180r-170,0v-59,-1,-106,32,-106,88v1,56,47,92,110,92xm565,-1520v82,51,176,46,232,-20r143,141v-78,73,-128,120,-252,129v-117,8,-181,-80,-280,-80v-60,0,-79,17,-119,56r-139,-142v80,-75,124,-129,250,-129v59,0,115,14,165,45","w":1098},"\u00e5":{"d":"545,-1780v163,0,283,118,283,283v0,197,-194,341,-391,261v-97,-39,-175,-128,-175,-261v0,-163,119,-283,283,-283xm545,-1391v57,0,106,-49,106,-106v0,-56,-49,-107,-106,-107v-57,0,-106,51,-106,107v0,57,49,106,106,106xm504,-1114v298,-2,485,116,485,399r0,715r-327,0r0,-90v-71,65,-119,99,-246,100v-216,3,-365,-142,-361,-356v4,-212,150,-319,375,-320r223,0v6,-124,-42,-167,-166,-165v-94,1,-123,23,-176,73r-209,-209v112,-108,195,-146,402,-147xm487,-262v124,0,172,-48,166,-180r-170,0v-59,-1,-106,32,-106,88v1,56,47,92,110,92","w":1098},"\u00e7":{"d":"414,-551v0,160,33,260,159,260v47,0,93,-22,136,-65r227,227v-83,83,-201,141,-363,141v-325,0,-495,-208,-495,-563v0,-355,166,-563,495,-563v161,0,278,56,363,141r-227,228v-44,-44,-89,-66,-136,-66v-126,0,-159,100,-159,260xm682,115r-74,295r-299,0r137,-295r236,0","w":973},"\u00e9":{"d":"78,-551v0,-330,185,-563,493,-563v315,0,490,208,496,522r0,150r-659,0v0,101,85,174,194,172v121,-2,162,-31,227,-92r201,200v-119,114,-209,174,-428,174v-349,0,-524,-188,-524,-563xm735,-666v-2,-105,-58,-172,-164,-172v-106,0,-161,67,-163,172r327,0xm906,-1618r-242,369r-203,0r101,-369r344,0","w":1145},"\u00e8":{"d":"78,-551v0,-330,185,-563,493,-563v315,0,490,208,496,522r0,150r-659,0v0,101,85,174,194,172v121,-2,162,-31,227,-92r201,200v-119,114,-209,174,-428,174v-349,0,-524,-188,-524,-563xm735,-666v-2,-105,-58,-172,-164,-172v-106,0,-161,67,-163,172r327,0xm699,-1249r-203,0r-242,-369r344,0","w":1145},"\u00ea":{"d":"78,-551v0,-330,185,-563,493,-563v315,0,490,208,496,522r0,150r-659,0v0,101,85,174,194,172v121,-2,162,-31,227,-92r201,200v-119,114,-209,174,-428,174v-349,0,-524,-188,-524,-563xm735,-666v-2,-105,-58,-172,-164,-172v-106,0,-161,67,-163,172r327,0xm988,-1249r-246,0r-162,-170r-162,170r-246,0r279,-367r258,0","w":1145},"\u00eb":{"d":"78,-551v0,-330,185,-563,493,-563v315,0,490,208,496,522r0,150r-659,0v0,101,85,174,194,172v121,-2,162,-31,227,-92r201,200v-119,114,-209,174,-428,174v-349,0,-524,-188,-524,-563xm735,-666v-2,-105,-58,-172,-164,-172v-106,0,-161,67,-163,172r327,0xm949,-1247r-275,0r0,-297r275,0r0,297xm486,-1247r-275,0r0,-297r275,0r0,297","w":1145},"\u00ed":{"d":"463,0r-336,0r0,-1102r336,0r0,1102xm584,-1618r-242,369r-203,0r101,-369r344,0","w":590},"\u00ec":{"d":"463,0r-336,0r0,-1102r336,0r0,1102xm453,-1249r-203,0r-242,-369r344,0","w":590},"\u00ee":{"d":"463,0r-336,0r0,-1102r336,0r0,1102xm703,-1249r-246,0r-162,-170r-162,170r-246,0r279,-367r258,0","w":590},"\u00ef":{"d":"463,0r-336,0r0,-1102r336,0r0,1102xm668,-1247r-275,0r0,-297r275,0r0,297xm205,-1247r-275,0r0,-297r275,0r0,297","w":590},"\u00f1":{"d":"455,-1012v54,-57,155,-99,256,-102v167,-4,295,106,335,233v15,51,23,109,23,176r0,705r-336,0r0,-659v5,-98,-57,-152,-135,-152v-77,0,-135,55,-135,152r0,659r-336,0r0,-1102r328,0r0,90xm618,-1520v82,51,176,46,232,-20r143,141v-78,73,-128,120,-252,129v-117,8,-181,-80,-280,-80v-60,0,-79,17,-119,56r-139,-142v80,-75,124,-129,250,-129v59,0,115,14,165,45","w":1186},"\u00f3":{"d":"1012,-806v35,112,33,398,0,510v-53,180,-229,311,-449,308v-249,-4,-432,-141,-464,-376v-21,-153,-18,-395,38,-502v75,-143,207,-248,426,-248v244,0,391,126,449,308xm563,-291v136,0,139,-110,139,-260v0,-150,-4,-260,-139,-260v-134,0,-139,117,-139,260v0,143,5,260,139,260xm889,-1618r-242,369r-203,0r101,-369r344,0","w":1126},"\u00f2":{"d":"1012,-806v35,112,33,398,0,510v-53,180,-229,311,-449,308v-249,-4,-432,-141,-464,-376v-21,-153,-18,-395,38,-502v75,-143,207,-248,426,-248v244,0,391,126,449,308xm563,-291v136,0,139,-110,139,-260v0,-150,-4,-260,-139,-260v-134,0,-139,117,-139,260v0,143,5,260,139,260xm682,-1249r-203,0r-242,-369r344,0","w":1126},"\u00f4":{"d":"1012,-806v35,112,33,398,0,510v-53,180,-229,311,-449,308v-249,-4,-432,-141,-464,-376v-21,-153,-18,-395,38,-502v75,-143,207,-248,426,-248v244,0,391,126,449,308xm563,-291v136,0,139,-110,139,-260v0,-150,-4,-260,-139,-260v-134,0,-139,117,-139,260v0,143,5,260,139,260xm971,-1249r-246,0r-162,-170r-162,170r-246,0r279,-367r258,0","w":1126},"\u00f6":{"d":"1012,-806v35,112,33,398,0,510v-53,180,-229,311,-449,308v-249,-4,-432,-141,-464,-376v-21,-153,-18,-395,38,-502v75,-143,207,-248,426,-248v244,0,391,126,449,308xm563,-291v136,0,139,-110,139,-260v0,-150,-4,-260,-139,-260v-134,0,-139,117,-139,260v0,143,5,260,139,260xm932,-1247r-275,0r0,-297r275,0r0,297xm469,-1247r-275,0r0,-297r275,0r0,297","w":1126},"\u00f5":{"d":"1012,-806v35,112,33,398,0,510v-53,180,-229,311,-449,308v-249,-4,-432,-141,-464,-376v-21,-153,-18,-395,38,-502v75,-143,207,-248,426,-248v244,0,391,126,449,308xm563,-291v136,0,139,-110,139,-260v0,-150,-4,-260,-139,-260v-134,0,-139,117,-139,260v0,143,5,260,139,260xm583,-1520v82,51,176,46,232,-20r143,141v-78,73,-128,120,-252,129v-117,8,-181,-80,-280,-80v-60,0,-79,17,-119,56r-139,-142v80,-75,124,-129,250,-129v59,0,115,14,165,45","w":1126},"\u00fa":{"d":"588,-291v77,0,135,-54,135,-151r0,-660r336,0r0,1102r-328,0r0,-90v-55,58,-154,102,-256,102v-230,0,-358,-161,-358,-409r0,-705r336,0r0,660v-5,96,58,151,135,151xm914,-1618r-242,369r-203,0r101,-369r344,0","w":1186},"\u00f9":{"d":"588,-291v77,0,135,-54,135,-151r0,-660r336,0r0,1102r-328,0r0,-90v-55,58,-154,102,-256,102v-230,0,-358,-161,-358,-409r0,-705r336,0r0,660v-5,96,58,151,135,151xm707,-1249r-203,0r-242,-369r344,0","w":1186},"\u00fb":{"d":"588,-291v77,0,135,-54,135,-151r0,-660r336,0r0,1102r-328,0r0,-90v-55,58,-154,102,-256,102v-230,0,-358,-161,-358,-409r0,-705r336,0r0,660v-5,96,58,151,135,151xm996,-1249r-246,0r-162,-170r-162,170r-246,0r279,-367r258,0","w":1186},"\u00fc":{"d":"588,-291v77,0,135,-54,135,-151r0,-660r336,0r0,1102r-328,0r0,-90v-55,58,-154,102,-256,102v-230,0,-358,-161,-358,-409r0,-705r336,0r0,660v-5,96,58,151,135,151xm957,-1247r-275,0r0,-297r275,0r0,297xm494,-1247r-275,0r0,-297r275,0r0,297","w":1186},"\u2020":{"d":"1059,-799r-314,0r0,799r-335,0r0,-799r-314,0r0,-303r314,0r0,-356r335,0r0,356r314,0r0,303","w":1155},"\u00b0":{"d":"868,-1250v49,116,35,251,-23,357v-80,146,-301,259,-501,171v-135,-60,-248,-182,-248,-372v0,-281,276,-479,558,-370v98,38,173,117,214,214xm498,-961v71,0,133,-62,133,-133v0,-71,-62,-133,-133,-133v-71,0,-133,62,-133,133v0,71,62,133,133,133","w":995},"\u00a2":{"d":"78,-750v0,-297,150,-495,381,-548r0,-160r258,0r0,160v97,23,187,74,268,155r-219,219v-37,-35,-67,-58,-90,-67r0,483v23,-9,53,-32,90,-67r219,219v-81,81,-171,132,-268,155r0,201r-258,0r0,-201v-230,-54,-381,-252,-381,-549xm500,-987v-66,45,-86,116,-86,237v0,120,24,195,86,238r0,-475","w":1022},"\u00a3":{"d":"743,-1151v-121,0,-192,73,-190,201r0,123r190,0r0,258r-190,0r0,250r588,0r0,319r-946,0r0,-569r-123,0r0,-258r123,0v-5,-170,5,-305,77,-412v93,-139,259,-231,471,-231v196,0,291,53,398,159r-236,234v-45,-45,-78,-74,-162,-74","w":1223},"\u00a7":{"d":"535,-1186v-55,-1,-93,27,-97,72v-5,69,155,112,226,139v110,42,190,89,238,143v48,54,71,137,71,248v0,139,-86,226,-166,287v88,55,145,131,145,277v0,302,-275,446,-574,369v-157,-40,-270,-159,-269,-363r319,0v0,51,45,90,102,90v58,0,103,-34,103,-84v0,-49,-40,-89,-121,-119v-216,-80,-420,-135,-420,-432v0,-129,93,-238,170,-287v-80,-54,-138,-122,-135,-258v6,-233,159,-366,408,-366v256,0,401,127,407,370r-311,0v1,-58,-40,-85,-96,-86xm532,-436v78,0,121,-52,121,-135v0,-84,-41,-136,-121,-136v-77,0,-120,52,-120,136v0,83,42,135,120,135","w":1057},"\u2022":{"d":"352,-992v232,-92,464,74,463,308v-1,234,-227,398,-461,308v-146,-55,-258,-246,-180,-436v35,-82,96,-148,178,-180","w":963},"\u00b6":{"d":"61,-1030v0,-295,198,-428,494,-428r745,0r0,1814r-335,0r0,-1495r-185,0r0,1495r-336,0r0,-966v-218,-15,-383,-188,-383,-420","w":1448},"\u00df":{"d":"969,-877v76,38,125,93,125,211r0,312v0,240,-125,356,-369,354r-107,0r0,-283v85,6,138,-18,138,-98r0,-264v1,-78,-52,-106,-138,-98r0,-258v80,6,142,-10,138,-86v-4,-72,-57,-91,-138,-91v-111,0,-153,38,-153,144r0,1034r-338,0r0,-1063v4,-293,197,-407,491,-407v278,0,476,99,476,370v0,101,-42,176,-125,223","w":1196},"\u00ae":{"d":"1525,-1015v77,181,77,391,0,572v-111,256,-336,455,-683,455v-346,0,-574,-201,-684,-455v-77,-181,-78,-392,0,-572v111,-256,337,-455,684,-455v345,0,573,200,683,455xm1303,-448v77,-139,92,-342,29,-500v-75,-189,-236,-324,-490,-324v-321,0,-531,217,-531,543v0,323,210,543,531,543v217,0,378,-112,461,-262xm1167,-866v2,95,-60,169,-125,200r146,324r-240,0r-117,-289r-63,0r0,289r-211,0r0,-774r346,0v156,3,260,98,264,250xm874,-788v49,1,82,-32,82,-78v0,-46,-33,-78,-82,-78r-106,0r0,156r106,0","w":1683},"\u00a9":{"d":"1525,-1015v77,181,77,391,0,572v-111,256,-336,455,-683,455v-346,0,-574,-201,-684,-455v-77,-181,-78,-392,0,-572v111,-256,337,-455,684,-455v345,0,573,200,683,455xm1303,-448v77,-139,92,-342,29,-500v-75,-189,-236,-324,-490,-324v-321,0,-531,217,-531,543v0,323,210,543,531,543v217,0,378,-112,461,-262xm860,-524v65,0,90,-22,133,-56r137,138v-68,59,-149,106,-270,106v-216,0,-376,-155,-371,-393v5,-242,141,-393,371,-393v98,0,188,35,270,106r-137,137v-39,-33,-70,-55,-133,-55v-107,0,-160,86,-160,205v0,119,53,205,160,205","w":1683},"\u2122":{"d":"1855,-584r-239,0r0,-448r-137,268r-205,0r-137,-268r0,448r-240,0r0,-874r240,0r239,430r240,-430r239,0r0,874xm772,-1245r-215,0r0,661r-238,0r0,-661r-215,0r0,-213r668,0r0,213","w":1993},"\u00b4":{"d":"838,-1618r-242,369r-203,0r101,-369r344,0","w":1024},"\u00a8":{"d":"881,-1247r-275,0r0,-297r275,0r0,297xm418,-1247r-275,0r0,-297r275,0r0,297","w":1024},"\u00c6":{"d":"1968,0r-991,0r0,-305r-434,0r-158,305r-385,0r758,-1458r1210,0r0,319r-633,0r0,244r541,0r0,320r-541,0r0,256r633,0r0,319xm977,-604r0,-535r-279,535r279,0","w":2075},"\u00d8":{"d":"1055,-1315v186,148,166,525,147,845v-13,220,-153,368,-318,440v-119,52,-322,56,-444,5r-55,115r-242,0r113,-233v-153,-137,-159,-344,-156,-635v3,-256,17,-399,148,-529v104,-102,214,-161,407,-163v82,0,154,12,215,36r56,-114r241,0xm655,-1151v-204,0,-195,190,-196,422v0,79,2,143,6,190r280,-591v-26,-14,-56,-21,-90,-21xm655,-307v259,3,189,-363,191,-613r-281,590v25,15,55,23,90,23","w":1311},"\u00b1":{"d":"1038,-760r-311,0r0,311r-315,0r0,-311r-312,0r0,-315r312,0r0,-311r315,0r0,311r311,0r0,315xm1038,0r-938,0r0,-315r938,0r0,315"},"\u00a5":{"d":"1239,-1458r-256,504r123,0r0,258r-256,0r-51,102r0,102r307,0r0,259r-307,0r0,233r-359,0r0,-233r-307,0r0,-259r307,0r0,-102r-51,-102r-256,0r0,-258r123,0r-256,-504r391,0r230,524r227,-524r391,0","w":1239},"\u00b5":{"d":"598,-291v77,0,135,-54,135,-151r0,-660r336,0r0,1102r-328,0r0,-90v-61,61,-161,105,-278,102r0,344r-336,0r0,-1458r336,0r0,660v-5,96,58,151,135,151","w":1196},"\u00aa":{"d":"446,-1470v239,0,388,88,388,319r0,571r-263,0r0,-71v-53,51,-98,79,-196,80v-167,2,-291,-116,-287,-285v4,-167,121,-256,299,-256r178,0v5,-97,-36,-134,-133,-133v-76,1,-96,19,-139,59r-168,-168v88,-85,156,-116,321,-116xm432,-793v102,0,138,-38,133,-141r-135,0v-47,-1,-82,26,-82,70v0,43,37,71,84,71","w":936},"\u00ba":{"d":"96,-1020v0,-284,128,-450,381,-450v195,0,313,102,360,246v28,88,28,320,0,408v-47,144,-164,247,-360,247v-199,0,-343,-115,-371,-304v-6,-41,-10,-90,-10,-147xm477,-811v107,0,111,-92,111,-209v0,-117,-4,-209,-111,-209v-107,0,-110,93,-110,209v0,117,3,209,110,209","w":954},"\u00e6":{"d":"102,-967v112,-108,195,-147,402,-147v151,0,267,31,348,92v122,-101,346,-121,506,-52v174,75,279,241,284,482r0,150r-659,0v0,100,86,174,195,172v118,-2,163,-31,227,-92r201,200v-118,113,-210,174,-428,174v-169,0,-297,-44,-385,-133v-113,102,-188,130,-377,133v-213,3,-366,-144,-361,-358v5,-212,150,-319,375,-320r223,0v6,-124,-42,-167,-166,-165v-94,1,-123,23,-176,73xm1311,-666v-3,-104,-57,-172,-164,-172v-107,0,-161,67,-164,172r328,0xm487,-262v124,0,172,-48,166,-180r-170,0v-59,-1,-106,32,-106,88v1,56,47,92,110,92","w":1720},"\u00f8":{"d":"911,-979v101,102,129,228,127,428v-2,212,-24,312,-120,422v-122,140,-371,180,-568,100r-69,119r-191,0r125,-213v-108,-115,-122,-215,-127,-428v-6,-284,78,-435,266,-523v113,-54,307,-53,422,1r70,-119r190,0xm563,-811v-134,3,-137,117,-139,260v0,49,1,83,4,102r205,-348v-18,-9,-41,-14,-70,-14xm563,-291v136,0,137,-110,139,-260v0,-49,-1,-83,-4,-102r-204,348v17,9,40,14,69,14","w":1126},"\u00bf":{"d":"684,-772r-344,0r0,-330r344,0r0,330xm520,66v81,0,123,-50,123,-129r336,0v6,332,-312,505,-634,403v-166,-52,-284,-183,-284,-401v0,-120,44,-186,105,-263r141,-178v28,-34,39,-65,37,-114r336,0v4,129,-22,201,-84,274r-143,168v-37,42,-56,80,-56,115v0,76,46,125,123,125","w":1102},"\u00a1":{"d":"506,-772r-344,0r0,-330r344,0r0,330xm545,356r-422,0r90,-972r242,0","w":750},"\u00ac":{"d":"1051,-180r-316,0r0,-307r-647,0r0,-316r963,0r0,623"},"\u0192":{"d":"842,-1198v-99,8,-227,-32,-244,68r-53,303r184,0r0,258r-229,0r-164,925r-336,0r164,-925r-101,0r0,-258r146,0r57,-328v39,-184,175,-324,400,-326r176,2r0,281","w":903},"\u00ab":{"d":"1253,-18r-559,-555r559,-553r0,395r-166,158r166,159r0,396xm621,-18r-560,-555r560,-553r0,395r-162,158r162,159r0,396","w":1376},"\u00bb":{"d":"1315,-573r-559,555r0,-396r162,-159r-162,-158r0,-395xm682,-573r-559,555r0,-396r164,-159r-164,-158r0,-395","w":1376},"\u2026":{"d":"1724,0r-348,0r0,-348r348,0r0,348xm1094,0r-349,0r0,-348r349,0r0,348xm465,0r-348,0r0,-348r348,0r0,348","w":1841},"\u00a0":{"w":455},"\u00c0":{"d":"1337,0r-374,0r-68,-217r-449,0r-71,217r-375,0r530,-1458r277,0xm801,-516r-123,-389r-131,389r254,0xm787,-1601r-203,0r-242,-369r344,0","w":1337},"\u00c3":{"d":"1337,0r-374,0r-68,-217r-449,0r-71,217r-375,0r530,-1458r277,0xm801,-516r-123,-389r-131,389r254,0xm688,-1872v82,51,176,46,232,-20r143,141v-78,73,-128,120,-252,129v-117,8,-181,-80,-280,-80v-60,0,-79,17,-119,56r-139,-142v80,-75,124,-129,250,-129v59,0,115,14,165,45","w":1337},"\u00d5":{"d":"1063,-1307v141,134,147,354,147,627v0,242,-25,408,-147,528v-102,100,-216,164,-408,164v-192,0,-307,-68,-407,-164v-147,-140,-148,-341,-148,-626v0,-256,17,-399,148,-529v104,-102,214,-163,407,-163v192,0,303,63,408,163xm655,-1151v-204,11,-196,190,-196,422v0,163,-5,271,53,356v61,88,230,90,287,0v59,-92,53,-161,53,-356v0,-194,5,-267,-53,-358v-24,-37,-82,-67,-144,-64xm675,-1872v82,51,176,46,232,-20r143,141v-78,73,-128,120,-252,129v-117,8,-181,-80,-280,-80v-60,0,-79,17,-119,56r-139,-142v80,-75,124,-129,250,-129v59,0,115,14,165,45","w":1311},"\u0152":{"d":"852,-53v-109,102,-377,68,-492,-2v-152,-92,-252,-257,-256,-494v-4,-223,-15,-489,60,-645v51,-106,155,-198,257,-239v117,-48,350,-59,431,28r0,-53r991,0r0,319r-633,0r0,244r541,0r0,320r-541,0r0,256r633,0r0,319r-991,0r0,-53xm655,-1151v-204,11,-196,190,-196,422v0,163,-5,271,53,356v61,88,230,90,287,0v59,-92,53,-161,53,-356v0,-194,5,-267,-53,-358v-24,-37,-82,-67,-144,-64","w":1950},"\u0153":{"d":"1655,-162v-118,113,-210,174,-428,174v-150,0,-267,-34,-350,-102v-84,68,-189,102,-314,102v-249,-1,-432,-141,-464,-376v-21,-153,-18,-395,38,-502v75,-143,207,-247,426,-248v127,0,234,36,320,108v137,-130,413,-141,581,-39v139,85,227,242,228,453r0,150r-660,0v0,100,86,174,195,172v118,-2,163,-31,227,-92xm1360,-666v-3,-104,-57,-172,-164,-172v-107,0,-161,68,-164,172r328,0xm563,-291v136,0,139,-110,139,-260v0,-150,-4,-260,-139,-260v-134,0,-139,117,-139,260v0,143,5,260,139,260","w":1769},"\u2013":{"d":"1038,-446r-938,0r0,-316r938,0r0,316"},"\u2014":{"d":"2138,-451r-2038,0r0,-323r2038,0r0,323","w":2238},"\u201c":{"d":"930,-1159r-336,0r0,-299r336,-246r0,545xm451,-1159r-334,0r0,-299r334,-246r0,545","w":1047},"\u201d":{"d":"930,-1157r-336,242r0,-543r336,0r0,301xm451,-1157r-334,242r0,-543r334,0r0,301","w":1047},"\u2018":{"d":"453,-1159r-336,0r0,-299r336,-246r0,545","w":569},"\u2019":{"d":"453,-1157r-336,242r0,-543r336,0r0,301","w":569},"\u00f7":{"d":"729,-889r-319,0r0,-319r319,0r0,319xm1051,-446r-963,0r0,-316r963,0r0,316xm729,0r-319,0r0,-319r319,0r0,319"},"\u00ff":{"d":"1069,-1102r-457,1233v-50,146,-149,237,-333,238r-127,0r0,-303v52,-1,114,4,143,-17v37,-27,52,-107,72,-158r-367,-993r352,0r187,572r178,-572r352,0xm895,-1247r-275,0r0,-297r275,0r0,297xm432,-1247r-275,0r0,-297r275,0r0,297","w":1053},"\u0178":{"d":"1239,-1458r-440,864r0,594r-359,0r0,-594r-440,-864r391,0r230,524r227,-524r391,0xm987,-1599r-275,0r0,-297r275,0r0,297xm524,-1599r-275,0r0,-297r275,0r0,297","w":1239},"\u00a4":{"d":"1284,-233r-223,223r-150,-150v-147,72,-294,72,-442,0r-150,150r-223,-223r150,-150v-71,-144,-71,-298,0,-442r-150,-150r223,-223r150,149v151,-71,293,-71,442,0r150,-149r223,223r-149,150v71,149,71,292,0,442xm690,-410v102,0,195,-93,195,-194v0,-102,-93,-195,-195,-195v-101,0,-194,93,-194,195v0,101,93,194,194,194","w":1380},"\u2039":{"d":"621,-18r-560,-555r560,-553r0,395r-162,158r162,159r0,396","w":743},"\u203a":{"d":"682,-573r-559,555r0,-396r164,-159r-164,-158r0,-395","w":743},"\u2021":{"d":"1059,0r-314,0r0,356r-335,0r0,-356r-314,0r0,-303r314,0r0,-496r-314,0r0,-303r314,0r0,-356r335,0r0,356r314,0r0,303r-314,0r0,496r314,0r0,303","w":1155},"\u2219":{"d":"485,-420r-368,0r0,-368r368,0r0,368","w":602},"\u201a":{"d":"453,0r-336,242r0,-543r336,0r0,301","w":565},"\u201e":{"d":"930,0r-336,242r0,-543r336,0r0,301xm451,0r-334,242r0,-543r334,0r0,301","w":1053},"\u2030":{"d":"2116,-752v181,0,309,99,309,285r0,195v-1,185,-128,284,-309,284v-182,0,-310,-98,-310,-284r0,-195v1,-187,128,-285,310,-285xm1354,-752v181,0,309,98,309,285r0,195v-1,186,-128,284,-309,284v-182,0,-310,-98,-310,-284r0,-195v1,-187,128,-285,310,-285xm1354,-1458r-695,1458r-258,0r695,-1458r258,0xm401,-1470v182,0,310,98,310,284r0,195v-2,186,-128,284,-310,284v-181,0,-309,-99,-309,-284r0,-195v1,-185,128,-284,309,-284xm2187,-281r0,-178v0,-53,-24,-80,-71,-80v-48,0,-72,27,-72,80r0,178v0,53,24,80,72,80v47,0,71,-27,71,-80xm1425,-281r0,-178v0,-53,-24,-80,-71,-80v-48,0,-72,27,-72,80r0,178v0,53,24,80,72,80v47,0,71,-27,71,-80xm473,-999r0,-179v0,-53,-24,-79,-72,-79v-47,0,-71,26,-71,79r0,179v0,53,24,79,71,79v48,0,72,-26,72,-79","w":2517},"\u00c2":{"d":"1337,0r-374,0r-68,-217r-449,0r-71,217r-375,0r530,-1458r277,0xm801,-516r-123,-389r-131,389r254,0xm1076,-1601r-246,0r-162,-170r-162,170r-246,0r279,-367r258,0","w":1337},"\u00ca":{"d":"1139,0r-992,0r0,-1458r992,0r0,319r-633,0r0,244r541,0r0,320r-541,0r0,256r633,0r0,319xm1039,-1601r-246,0r-162,-170r-162,170r-246,0r279,-367r258,0","w":1245},"\u00c1":{"d":"1337,0r-374,0r-68,-217r-449,0r-71,217r-375,0r530,-1458r277,0xm801,-516r-123,-389r-131,389r254,0xm994,-1970r-242,369r-203,0r101,-369r344,0","w":1337},"\u00cb":{"d":"1139,0r-992,0r0,-1458r992,0r0,319r-633,0r0,244r541,0r0,320r-541,0r0,256r633,0r0,319xm1000,-1599r-275,0r0,-297r275,0r0,297xm537,-1599r-275,0r0,-297r275,0r0,297","w":1245},"\u00c8":{"d":"1139,0r-992,0r0,-1458r992,0r0,319r-633,0r0,244r541,0r0,320r-541,0r0,256r633,0r0,319xm750,-1601r-203,0r-242,-369r344,0","w":1245},"\u00cd":{"d":"506,0r-359,0r0,-1458r359,0r0,1458xm654,-1970r-242,369r-203,0r101,-369r344,0","w":653},"\u00ce":{"d":"506,0r-359,0r0,-1458r359,0r0,1458xm723,-1601r-246,0r-162,-170r-162,170r-246,0r279,-367r258,0","w":653},"\u00cf":{"d":"506,0r-359,0r0,-1458r359,0r0,1458xm695,-1599r-275,0r0,-297r275,0r0,297xm232,-1599r-275,0r0,-297r275,0r0,297","w":653},"\u00cc":{"d":"506,0r-359,0r0,-1458r359,0r0,1458xm461,-1601r-203,0r-242,-369r344,0","w":653},"\u00d3":{"d":"1063,-1307v141,134,147,354,147,627v0,242,-25,408,-147,528v-102,100,-216,164,-408,164v-192,0,-307,-68,-407,-164v-147,-140,-148,-341,-148,-626v0,-256,17,-399,148,-529v104,-102,214,-163,407,-163v192,0,303,63,408,163xm655,-1151v-204,11,-196,190,-196,422v0,163,-5,271,53,356v61,88,230,90,287,0v59,-92,53,-161,53,-356v0,-194,5,-267,-53,-358v-24,-37,-82,-67,-144,-64xm981,-1970r-242,369r-203,0r101,-369r344,0","w":1311},"\u00d4":{"d":"1063,-1307v141,134,147,354,147,627v0,242,-25,408,-147,528v-102,100,-216,164,-408,164v-192,0,-307,-68,-407,-164v-147,-140,-148,-341,-148,-626v0,-256,17,-399,148,-529v104,-102,214,-163,407,-163v192,0,303,63,408,163xm655,-1151v-204,11,-196,190,-196,422v0,163,-5,271,53,356v61,88,230,90,287,0v59,-92,53,-161,53,-356v0,-194,5,-267,-53,-358v-24,-37,-82,-67,-144,-64xm1063,-1601r-246,0r-162,-170r-162,170r-246,0r279,-367r258,0","w":1311},"\u00d2":{"d":"1063,-1307v141,134,147,354,147,627v0,242,-25,408,-147,528v-102,100,-216,164,-408,164v-192,0,-307,-68,-407,-164v-147,-140,-148,-341,-148,-626v0,-256,17,-399,148,-529v104,-102,214,-163,407,-163v192,0,303,63,408,163xm655,-1151v-204,11,-196,190,-196,422v0,163,-5,271,53,356v61,88,230,90,287,0v59,-92,53,-161,53,-356v0,-194,5,-267,-53,-358v-24,-37,-82,-67,-144,-64xm774,-1601r-203,0r-242,-369r344,0","w":1311},"\u00da":{"d":"674,-307v127,-1,196,-82,196,-213r0,-938r359,0r0,946v-5,256,-147,417,-341,488v-160,59,-347,44,-490,-29v-156,-80,-274,-237,-275,-459r0,-946r358,0r0,938v-2,128,70,214,193,213xm1002,-1970r-242,369r-203,0r101,-369r344,0","w":1352},"\u00db":{"d":"674,-307v127,-1,196,-82,196,-213r0,-938r359,0r0,946v-5,256,-147,417,-341,488v-160,59,-347,44,-490,-29v-156,-80,-274,-237,-275,-459r0,-946r358,0r0,938v-2,128,70,214,193,213xm1084,-1601r-246,0r-162,-170r-162,170r-246,0r279,-367r258,0","w":1352},"\u00d9":{"d":"674,-307v127,-1,196,-82,196,-213r0,-938r359,0r0,946v-5,256,-147,417,-341,488v-160,59,-347,44,-490,-29v-156,-80,-274,-237,-275,-459r0,-946r358,0r0,938v-2,128,70,214,193,213xm795,-1601r-203,0r-242,-369r344,0","w":1352},"\u02c6":{"d":"920,-1249r-246,0r-162,-170r-162,170r-246,0r279,-367r258,0","w":1024},"\u02dc":{"d":"532,-1520v82,51,176,46,232,-20r143,141v-78,73,-128,120,-252,129v-117,8,-181,-80,-280,-80v-60,0,-79,17,-119,56r-139,-142v80,-75,124,-129,250,-129v59,0,115,14,165,45","w":1024},"\u00af":{"d":"846,-1309r-668,0r0,-215r668,0r0,215","w":1024},"\u00b8":{"d":"682,115r-74,295r-299,0r137,-295r236,0","w":1024}}});
